<?xml version="1.0"?>
<MethodSetup Method="BDT::qcdBDTGrad3_mu">
  <GeneralInfo>
    <Info name="TMVA Release" value="4.1.2 [262402]"/>
    <Info name="ROOT Release" value="5.32/00 [335872]"/>
    <Info name="Creator" value="andres"/>
    <Info name="Date" value="Thu Feb 20 19:02:55 2014"/>
    <Info name="Host" value="Linux lxbuild168.cern.ch 2.6.18-308.16.1.el5 #1 SMP Thu Oct 4 14:02:28 CEST 2012 x86_64 x86_64 x86_64 GNU/Linux"/>
    <Info name="Dir" value="/home/andres/single_top/stpol/src/qcd_mva"/>
    <Info name="Training events" value="71944"/>
    <Info name="TrainingTime" value="1.25893120e+02"/>
    <Info name="AnalysisType" value="Classification"/>
  </GeneralInfo>
  <Options>
    <Option name="V" modified="Yes">True</Option>
    <Option name="VerbosityLevel" modified="No">Verbose</Option>
    <Option name="VarTransform" modified="No">None</Option>
    <Option name="H" modified="Yes">False</Option>
    <Option name="CreateMVAPdfs" modified="No">False</Option>
    <Option name="IgnoreNegWeightsInTraining" modified="No">False</Option>
    <Option name="NTrees" modified="Yes">850</Option>
    <Option name="RenormByClass" modified="No">False</Option>
    <Option name="BoostType" modified="Yes">Grad</Option>
    <Option name="AdaBoostR2Loss" modified="No">quadratic</Option>
    <Option name="UseBaggedGrad" modified="Yes">True</Option>
    <Option name="GradBaggingFraction" modified="No">6.000000e-01</Option>
    <Option name="Shrinkage" modified="Yes">1.000000e-01</Option>
    <Option name="AdaBoostBeta" modified="No">1.000000e+00</Option>
    <Option name="UseRandomisedTrees" modified="No">False</Option>
    <Option name="UseNvars" modified="No">4</Option>
    <Option name="UsePoissonNvars" modified="No">True</Option>
    <Option name="UseNTrainEvents" modified="No">71944</Option>
    <Option name="UseWeightedTrees" modified="No">True</Option>
    <Option name="UseYesNoLeaf" modified="No">True</Option>
    <Option name="NodePurityLimit" modified="No">5.000000e-01</Option>
    <Option name="SeparationType" modified="Yes">crossentropy</Option>
    <Option name="nEventsMin" modified="Yes">250</Option>
    <Option name="nCuts" modified="Yes">200</Option>
    <Option name="UseFisherCuts" modified="No">False</Option>
    <Option name="MinLinCorrForFisher" modified="No">8.000000e-01</Option>
    <Option name="UseExclusiveVars" modified="No">False</Option>
    <Option name="PruneStrength" modified="Yes">3.000000e+00</Option>
    <Option name="PruneMethod" modified="Yes">costcomplexity</Option>
    <Option name="PruneBeforeBoost" modified="No">False</Option>
    <Option name="PruningValFraction" modified="No">5.000000e-01</Option>
    <Option name="NNodesMax" modified="No">100000</Option>
    <Option name="MaxDepth" modified="Yes">2</Option>
    <Option name="DoBoostMonitor" modified="No">False</Option>
    <Option name="NegWeightTreatment" modified="No">ignorenegweights</Option>
  </Options>
  <Variables NVar="13">
    <Variable VarIndex="0" Expression="met" Label="met" Title="met" Unit="" Internal="met" Type="D" Min="2.26606131e-01" Max="6.51925232e+02"/>
    <Variable VarIndex="1" Expression="c" Label="c" Title="c" Unit="" Internal="c" Type="D" Min="9.39057267e-04" Max="9.92477536e-01"/>
    <Variable VarIndex="2" Expression="top_mass" Label="top_mass" Title="top_mass" Unit="" Internal="top_mass" Type="D" Min="9.31125183e+01" Max="1.73664832e+03"/>
    <Variable VarIndex="3" Expression="top_eta" Label="top_eta" Title="top_eta" Unit="" Internal="top_eta" Type="D" Min="-5.64230013e+00" Max="6.46687460e+00"/>
    <Variable VarIndex="4" Expression="D" Label="D" Title="D" Unit="" Internal="D" Type="D" Min="4.41399308e-08" Max="9.77678359e-01"/>
    <Variable VarIndex="5" Expression="aplanarity" Label="aplanarity" Title="aplanarity" Unit="" Internal="aplanarity" Type="D" Min="9.72091243e-07" Max="4.26520288e-01"/>
    <Variable VarIndex="6" Expression="isotropy" Label="isotropy" Title="isotropy" Unit="" Internal="isotropy" Type="D" Min="1.13947958e-01" Max="9.89098430e-01"/>
    <Variable VarIndex="7" Expression="thrust" Label="thrust" Title="thrust" Unit="" Internal="thrust" Type="D" Min="5.79652905e-01" Max="9.95318830e-01"/>
    <Variable VarIndex="8" Expression="bjet_mass" Label="bjet_mass" Title="bjet_mass" Unit="" Internal="bjet_mass" Type="D" Min="3.29826474e+00" Max="1.06911774e+02"/>
    <Variable VarIndex="9" Expression="bjet_pt" Label="bjet_pt" Title="bjet_pt" Unit="" Internal="bjet_pt" Type="D" Min="4.00005875e+01" Max="9.57870239e+02"/>
    <Variable VarIndex="10" Expression="ljet_mass" Label="ljet_mass" Title="ljet_mass" Unit="" Internal="ljet_mass" Type="D" Min="5.98140180e-01" Max="1.67452393e+02"/>
    <Variable VarIndex="11" Expression="ljet_pt" Label="ljet_pt" Title="ljet_pt" Unit="" Internal="ljet_pt" Type="D" Min="4.00000534e+01" Max="7.67769470e+02"/>
    <Variable VarIndex="12" Expression="mu_mtw" Label="mu_mtw" Title="mu_mtw" Unit="" Internal="mu_mtw" Type="D" Min="9.95955197e-04" Max="6.60605652e+02"/>
  </Variables>
  <Spectators NSpec="0"/>
  <Classes NClass="2">
    <Class Name="Background" Index="0"/>
    <Class Name="Signal" Index="1"/>
  </Classes>
  <Transformations NTransformations="0"/>
  <MVAPdfs/>
  <Weights NTrees="850" AnalysisType="1">
    <BinaryTree type="DecisionTree" boostWeight="1.0000000000000000e+00" itree="0">
      <Node pos="s" depth="0" NCoef="0" IVar="12" Cut="5.0450901031494141e+01" cType="0" res="3.0105045065283775e-02" rms="4.9909287691116333e-01" purity="5.3010505437850952e-01" nType="0">
        <Node pos="l" depth="1" NCoef="0" IVar="6" Cut="8.2933992147445679e-01" cType="1" res="3.1761053204536438e-01" rms="3.8616517186164856e-01" purity="8.1761056184768677e-01" nType="0">
          <Node pos="l" depth="2" NCoef="0" IVar="-1" Cut="0.0000000000000000e+00" cType="1" res="4.0889388322830200e-01" rms="3.5401463508605957e-01" purity="8.5309153795242310e-01" nType="-99"/>
          <Node pos="r" depth="2" NCoef="0" IVar="-1" Cut="0.0000000000000000e+00" cType="1" res="-5.6394161656498909e-03" rms="4.9977704882621765e-01" purity="4.8507049679756165e-01" nType="-99"/>
        </Node>
        <Node pos="r" depth="1" NCoef="0" IVar="0" Cut="4.0886383056640625e+01" cType="0" res="-2.0274379849433899e-01" rms="4.5705026388168335e-01" purity="2.9725620150566101e-01" nType="0">
          <Node pos="l" depth="2" NCoef="0" IVar="-1" Cut="0.0000000000000000e+00" cType="1" res="9.1442681849002838e-02" rms="4.7259941697120667e-01" purity="6.6324764490127563e-01" nType="-99"/>
          <Node pos="r" depth="2" NCoef="0" IVar="-1" Cut="0.0000000000000000e+00" cType="1" res="-7.2320759296417236e-02" rms="4.0952581167221069e-01" purity="2.1314010024070740e-01" nType="-99"/>
        </Node>
      </Node>
    </BinaryTree>
    <BinaryTree type="DecisionTree" boostWeight="1.0000000000000000e+00" itree="1">
      <Node pos="s" depth="0" NCoef="0" IVar="12" Cut="4.2726669311523438e+01" cType="0" res="-3.7011623382568359e-02" rms="4.4690316915512085e-01" purity="5.3039348125457764e-01" nType="0">
        <Node pos="l" depth="1" NCoef="0" IVar="12" Cut="7.0392944335937500e+01" cType="0" res="1.2235657870769501e-01" rms="3.9748641848564148e-01" purity="7.7055436372756958e-01" nType="0">
          <Node pos="l" depth="2" NCoef="0" IVar="-1" Cut="0.0000000000000000e+00" cType="1" res="3.4026291966438293e-01" rms="3.0902293324470520e-01" purity="8.8727456331253052e-01" nType="-99"/>
          <Node pos="r" depth="2" NCoef="0" IVar="-1" Cut="0.0000000000000000e+00" cType="1" res="2.0253987982869148e-02" rms="4.5369806885719299e-01" purity="6.5257668495178223e-01" nType="-99"/>
        </Node>
        <Node pos="r" depth="1" NCoef="0" IVar="0" Cut="5.7579818725585938e+01" cType="0" res="-2.1084611117839813e-01" rms="4.3279898166656494e-01" purity="2.6843258738517761e-01" nType="0">
          <Node pos="l" depth="2" NCoef="0" IVar="-1" Cut="0.0000000000000000e+00" cType="1" res="1.3098648190498352e-01" rms="4.4217598438262939e-01" purity="7.3341035842895508e-01" nType="-99"/>
          <Node pos="r" depth="2" NCoef="0" IVar="-1" Cut="0.0000000000000000e+00" cType="1" res="-6.4568497240543365e-02" rms="4.0989530086517334e-01" purity="2.1961155533790588e-01" nType="-99"/>
        </Node>
      </Node>
    </BinaryTree>
    <BinaryTree type="DecisionTree" boostWeight="1.0000000000000000e+00" itree="2">
      <Node pos="s" depth="0" NCoef="0" IVar="12" Cut="4.3543773651123047e+01" cType="0" res="-5.4674264043569565e-02" rms="4.2711886763572693e-01" purity="5.4243117570877075e-01" nType="0">
        <Node pos="l" depth="1" NCoef="0" IVar="2" Cut="1.3399649047851562e+02" cType="0" res="5.3686842322349548e-02" rms="3.9194640517234802e-01" purity="7.7787631750106812e-01" nType="0">
          <Node pos="l" depth="2" NCoef="0" IVar="-1" Cut="0.0000000000000000e+00" cType="1" res="9.4536103308200836e-02" rms="3.7261539697647095e-01" purity="8.1120800971984863e-01" nType="-99"/>
          <Node pos="r" depth="2" NCoef="0" IVar="-1" Cut="0.0000000000000000e+00" cType="1" res="-8.8046871125698090e-02" rms="4.6128779649734497e-01" purity="4.7785118222236633e-01" nType="-99"/>
        </Node>
        <Node pos="r" depth="1" NCoef="0" IVar="2" Cut="1.4778096008300781e+02" cType="0" res="-1.7393849790096283e-01" rms="4.3242365121841431e-01" purity="2.8329592943191528e-01" nType="0">
          <Node pos="l" depth="2" NCoef="0" IVar="-1" Cut="0.0000000000000000e+00" cType="1" res="-2.8943380340933800e-02" rms="4.6524894237518311e-01" purity="3.7505295872688293e-01" nType="-99"/>
          <Node pos="r" depth="2" NCoef="0" IVar="-1" Cut="0.0000000000000000e+00" cType="1" res="-7.7641271054744720e-02" rms="2.8625240921974182e-01" purity="9.3833811581134796e-02" nType="-99"/>
        </Node>
      </Node>
    </BinaryTree>
    <BinaryTree type="DecisionTree" boostWeight="1.0000000000000000e+00" itree="3">
      <Node pos="s" depth="0" NCoef="0" IVar="12" Cut="4.6013259887695312e+01" cType="0" res="-5.7833041995763779e-02" rms="4.1220089793205261e-01" purity="5.3641033172607422e-01" nType="0">
        <Node pos="l" depth="1" NCoef="0" IVar="2" Cut="1.4744055175781250e+02" cType="0" res="5.1457479596138000e-02" rms="3.6275604367256165e-01" purity="8.1091403961181641e-01" nType="0">
          <Node pos="l" depth="2" NCoef="0" IVar="-1" Cut="0.0000000000000000e+00" cType="1" res="1.3363352417945862e-01" rms="3.3259600400924683e-01" purity="8.5781109333038330e-01" nType="-99"/>
          <Node pos="r" depth="2" NCoef="0" IVar="-1" Cut="0.0000000000000000e+00" cType="1" res="-4.7008328139781952e-02" rms="4.3707209825515747e-01" purity="6.3059282302856445e-01" nType="-99"/>
        </Node>
        <Node pos="r" depth="1" NCoef="0" IVar="0" Cut="4.5453128814697266e+01" cType="0" res="-1.5934316813945770e-01" rms="4.2906990647315979e-01" purity="2.8144860267639160e-01" nType="0">
          <Node pos="l" depth="2" NCoef="0" IVar="-1" Cut="0.0000000000000000e+00" cType="1" res="4.3087959289550781e-02" rms="4.7060602903366089e-01" purity="6.3900953531265259e-01" nType="-99"/>
          <Node pos="r" depth="2" NCoef="0" IVar="-1" Cut="0.0000000000000000e+00" cType="1" res="-5.3383342921733856e-02" rms="4.0498051047325134e-01" purity="2.1356767416000366e-01" nType="-99"/>
        </Node>
      </Node>
    </BinaryTree>
    <BinaryTree type="DecisionTree" boostWeight="1.0000000000000000e+00" itree="4">
      <Node pos="s" depth="0" NCoef="0" IVar="12" Cut="2.8518182754516602e+01" cType="0" res="-6.5189905464649200e-02" rms="4.0725380182266235e-01" purity="5.3834700584411621e-01" nType="0">
        <Node pos="l" depth="1" NCoef="0" IVar="6" Cut="6.3898563385009766e-01" cType="1" res="-7.7034290879964828e-03" rms="3.9793229103088379e-01" purity="6.8728458881378174e-01" nType="0">
          <Node pos="l" depth="2" NCoef="0" IVar="-1" Cut="0.0000000000000000e+00" cType="1" res="5.1429018378257751e-02" rms="3.5716879367828369e-01" purity="7.7833509445190430e-01" nType="-99"/>
          <Node pos="r" depth="2" NCoef="0" IVar="-1" Cut="0.0000000000000000e+00" cType="1" res="-4.2507506906986237e-02" rms="4.3171453475952148e-01" purity="5.7553857564926147e-01" nType="-99"/>
        </Node>
        <Node pos="r" depth="1" NCoef="0" IVar="0" Cut="6.9256561279296875e+01" cType="0" res="-1.8283417820930481e-01" rms="4.0076479315757751e-01" purity="2.3355099558830261e-01" nType="0">
          <Node pos="l" depth="2" NCoef="0" IVar="-1" Cut="0.0000000000000000e+00" cType="1" res="2.7909412980079651e-01" rms="3.5637387633323669e-01" purity="8.4940612316131592e-01" nType="-99"/>
          <Node pos="r" depth="2" NCoef="0" IVar="-1" Cut="0.0000000000000000e+00" cType="1" res="-5.3593512624502182e-02" rms="3.9079338312149048e-01" purity="2.0114083588123322e-01" nType="-99"/>
        </Node>
      </Node>
    </BinaryTree>
    <BinaryTree type="DecisionTree" boostWeight="1.0000000000000000e+00" itree="5">
      <Node pos="s" depth="0" NCoef="0" IVar="2" Cut="1.4259843444824219e+02" cType="0" res="-6.0675367712974548e-02" rms="4.0255570411682129e-01" purity="5.3916913270950317e-01" nType="0">
        <Node pos="l" depth="1" NCoef="0" IVar="6" Cut="7.6802581548690796e-01" cType="1" res="-1.9911702722311020e-02" rms="4.0656182169914246e-01" purity="6.1550289392471313e-01" nType="0">
          <Node pos="l" depth="2" NCoef="0" IVar="-1" Cut="0.0000000000000000e+00" cType="1" res="1.2496511451900005e-02" rms="3.9310687780380249e-01" purity="6.8015074729919434e-01" nType="-99"/>
          <Node pos="r" depth="2" NCoef="0" IVar="-1" Cut="0.0000000000000000e+00" cType="1" res="-5.4101321846246719e-02" rms="4.2459571361541748e-01" purity="3.9186328649520874e-01" nType="-99"/>
        </Node>
        <Node pos="r" depth="1" NCoef="0" IVar="12" Cut="5.8139770507812500e+01" cType="0" res="-2.0717549324035645e-01" rms="3.5066738724708557e-01" purity="2.6483377814292908e-01" nType="0">
          <Node pos="l" depth="2" NCoef="0" IVar="-1" Cut="0.0000000000000000e+00" cType="1" res="2.6065997779369354e-02" rms="3.9176625013351440e-01" purity="7.5550836324691772e-01" nType="-99"/>
          <Node pos="r" depth="2" NCoef="0" IVar="-1" Cut="0.0000000000000000e+00" cType="1" res="-6.8585276603698730e-02" rms="3.0274343490600586e-01" purity="1.1659647524356842e-01" nType="-99"/>
        </Node>
      </Node>
    </BinaryTree>
    <BinaryTree type="DecisionTree" boostWeight="1.0000000000000000e+00" itree="6">
      <Node pos="s" depth="0" NCoef="0" IVar="12" Cut="5.4428928375244141e+01" cType="0" res="-5.4962672293186188e-02" rms="3.9618805050849915e-01" purity="5.3685665130615234e-01" nType="0">
        <Node pos="l" depth="1" NCoef="0" IVar="8" Cut="2.8270950317382812e+01" cType="1" res="3.1851779669523239e-02" rms="3.3489403128623962e-01" purity="8.5064822435379028e-01" nType="0">
          <Node pos="l" depth="2" NCoef="0" IVar="-1" Cut="0.0000000000000000e+00" cType="1" res="7.0852801203727722e-02" rms="3.2588839530944824e-01" purity="8.5963022708892822e-01" nType="-99"/>
          <Node pos="r" depth="2" NCoef="0" IVar="-1" Cut="0.0000000000000000e+00" cType="1" res="-1.8194699287414551e-01" rms="4.9233344197273254e-01" purity="4.4793868064880371e-01" nType="-99"/>
        </Node>
        <Node pos="r" depth="1" NCoef="0" IVar="0" Cut="3.7858787536621094e+01" cType="0" res="-1.1506007611751556e-01" rms="4.2326867580413818e-01" purity="3.1963410973548889e-01" nType="0">
          <Node pos="l" depth="2" NCoef="0" IVar="-1" Cut="0.0000000000000000e+00" cType="1" res="2.2165901958942413e-02" rms="4.5331159234046936e-01" purity="6.1453819274902344e-01" nType="-99"/>
          <Node pos="r" depth="2" NCoef="0" IVar="-1" Cut="0.0000000000000000e+00" cType="1" res="-4.6143386512994766e-02" rms="4.0133196115493774e-01" purity="2.2865179181098938e-01" nType="-99"/>
        </Node>
      </Node>
    </BinaryTree>
    <BinaryTree type="DecisionTree" boostWeight="1.0000000000000000e+00" itree="7">
      <Node pos="s" depth="0" NCoef="0" IVar="2" Cut="1.5202510070800781e+02" cType="0" res="-5.4571177810430527e-02" rms="3.9377611875534058e-01" purity="5.3623080253601074e-01" nType="0">
        <Node pos="l" depth="1" NCoef="0" IVar="6" Cut="7.7877199649810791e-01" cType="1" res="-8.3393026143312454e-03" rms="3.9765995740890503e-01" purity="6.2636327743530273e-01" nType="0">
          <Node pos="l" depth="2" NCoef="0" IVar="-1" Cut="0.0000000000000000e+00" cType="1" res="1.7078397795557976e-02" rms="3.8729527592658997e-01" purity="6.9372266530990601e-01" nType="-99"/>
          <Node pos="r" depth="2" NCoef="0" IVar="-1" Cut="0.0000000000000000e+00" cType="1" res="-4.4793225824832916e-02" rms="4.1348171234130859e-01" purity="3.7696570158004761e-01" nType="-99"/>
        </Node>
        <Node pos="r" depth="1" NCoef="0" IVar="12" Cut="6.2720432281494141e+01" cType="0" res="-1.6024948656558990e-01" rms="3.6329019069671631e-01" purity="3.3020335435867310e-01" nType="0">
          <Node pos="l" depth="2" NCoef="0" IVar="-1" Cut="0.0000000000000000e+00" cType="1" res="2.2923538926988840e-03" rms="3.7071323394775391e-01" purity="8.0219638347625732e-01" nType="-99"/>
          <Node pos="r" depth="2" NCoef="0" IVar="-1" Cut="0.0000000000000000e+00" cType="1" res="-5.9281274676322937e-02" rms="3.4407603740692139e-01" purity="1.7192490398883820e-01" nType="-99"/>
        </Node>
      </Node>
    </BinaryTree>
    <BinaryTree type="DecisionTree" boostWeight="1.0000000000000000e+00" itree="8">
      <Node pos="s" depth="0" NCoef="0" IVar="2" Cut="1.5273985290527344e+02" cType="0" res="-4.0661353617906570e-02" rms="3.9094847440719604e-01" purity="5.5055111646652222e-01" nType="0">
        <Node pos="l" depth="1" NCoef="0" IVar="8" Cut="2.3807132720947266e+01" cType="1" res="-4.7148359008133411e-03" rms="3.9508381485939026e-01" purity="6.3048595190048218e-01" nType="0">
          <Node pos="l" depth="2" NCoef="0" IVar="-1" Cut="0.0000000000000000e+00" cType="1" res="6.7437817342579365e-03" rms="3.8699847459793091e-01" purity="6.5033692121505737e-01" nType="-99"/>
          <Node pos="r" depth="2" NCoef="0" IVar="-1" Cut="0.0000000000000000e+00" cType="1" res="-8.3592459559440613e-02" rms="4.4226187467575073e-01" purity="3.5006034374237061e-01" nType="-99"/>
        </Node>
        <Node pos="r" depth="1" NCoef="0" IVar="12" Cut="7.2520011901855469e+01" cType="0" res="-1.2503995001316071e-01" rms="3.6750206351280212e-01" purity="3.6291712522506714e-01" nType="0">
          <Node pos="l" depth="2" NCoef="0" IVar="-1" Cut="0.0000000000000000e+00" cType="1" res="2.0172470808029175e-01" rms="2.8290206193923950e-01" purity="9.0855437517166138e-01" nType="-99"/>
          <Node pos="r" depth="2" NCoef="0" IVar="-1" Cut="0.0000000000000000e+00" cType="1" res="-5.2533365786075592e-02" rms="3.7001609802246094e-01" purity="2.4002832174301147e-01" nType="-99"/>
        </Node>
      </Node>
    </BinaryTree>
    <BinaryTree type="DecisionTree" boostWeight="1.0000000000000000e+00" itree="9">
      <Node pos="s" depth="0" NCoef="0" IVar="12" Cut="2.6293718338012695e+01" cType="0" res="-4.9131788313388824e-02" rms="3.8536268472671509e-01" purity="5.3013652563095093e-01" nType="0">
        <Node pos="l" depth="1" NCoef="0" IVar="2" Cut="1.5575260925292969e+02" cType="0" res="-7.0031960494816303e-03" rms="3.8251674175262451e-01" purity="6.7581456899642944e-01" nType="0">
          <Node pos="l" depth="2" NCoef="0" IVar="-1" Cut="0.0000000000000000e+00" cType="1" res="2.2715516388416290e-02" rms="3.7241214513778687e-01" purity="7.4657833576202393e-01" nType="-99"/>
          <Node pos="r" depth="2" NCoef="0" IVar="-1" Cut="0.0000000000000000e+00" cType="1" res="-3.8366220891475677e-02" rms="3.9471530914306641e-01" purity="5.2135676145553589e-01" nType="-99"/>
        </Node>
        <Node pos="r" depth="1" NCoef="0" IVar="2" Cut="1.5571159362792969e+02" cType="0" res="-1.3983631134033203e-01" rms="3.7571394443511963e-01" purity="2.1648611128330231e-01" nType="0">
          <Node pos="l" depth="2" NCoef="0" IVar="-1" Cut="0.0000000000000000e+00" cType="1" res="-3.2900571823120117e-02" rms="4.2626902461051941e-01" purity="2.9945686459541321e-01" nType="-99"/>
          <Node pos="r" depth="2" NCoef="0" IVar="-1" Cut="0.0000000000000000e+00" cType="1" res="-5.3888916969299316e-02" rms="2.6973935961723328e-01" purity="8.6463741958141327e-02" nType="-99"/>
        </Node>
      </Node>
    </BinaryTree>
    <BinaryTree type="DecisionTree" boostWeight="1.0000000000000000e+00" itree="10">
      <Node pos="s" depth="0" NCoef="0" IVar="12" Cut="2.9835708618164062e+01" cType="0" res="-3.7522722035646439e-02" rms="3.8525080680847168e-01" purity="5.4184293746948242e-01" nType="0">
        <Node pos="l" depth="1" NCoef="0" IVar="6" Cut="7.7509242296218872e-01" cType="1" res="-6.5810844535008073e-04" rms="3.7923431396484375e-01" purity="7.0351183414459229e-01" nType="0">
          <Node pos="l" depth="2" NCoef="0" IVar="-1" Cut="0.0000000000000000e+00" cType="1" res="2.1855060011148453e-02" rms="3.6122733354568481e-01" purity="7.5991994142532349e-01" nType="-99"/>
          <Node pos="r" depth="2" NCoef="0" IVar="-1" Cut="0.0000000000000000e+00" cType="1" res="-4.0851663798093796e-02" rms="4.3490859866142273e-01" purity="4.6357771754264832e-01" nType="-99"/>
        </Node>
        <Node pos="r" depth="1" NCoef="0" IVar="11" Cut="1.5491036987304688e+02" cType="0" res="-1.0725162923336029e-01" rms="3.8689208030700684e-01" purity="2.3604846000671387e-01" nType="0">
          <Node pos="l" depth="2" NCoef="0" IVar="-1" Cut="0.0000000000000000e+00" cType="1" res="1.4754268527030945e-01" rms="4.2097991704940796e-01" purity="6.7974841594696045e-01" nType="-99"/>
          <Node pos="r" depth="2" NCoef="0" IVar="-1" Cut="0.0000000000000000e+00" cType="1" res="-3.6141648888587952e-02" rms="3.8140079379081726e-01" purity="2.2172597050666809e-01" nType="-99"/>
        </Node>
      </Node>
    </BinaryTree>
    <BinaryTree type="DecisionTree" boostWeight="1.0000000000000000e+00" itree="11">
      <Node pos="s" depth="0" NCoef="0" IVar="9" Cut="6.2833164215087891e+01" cType="0" res="-4.3803565204143524e-02" rms="3.8395848870277405e-01" purity="5.2893108129501343e-01" nType="0">
        <Node pos="l" depth="1" NCoef="0" IVar="6" Cut="4.4140064716339111e-01" cType="1" res="2.8075110167264938e-03" rms="3.9210471510887146e-01" purity="6.2504410743713379e-01" nType="0">
          <Node pos="l" depth="2" NCoef="0" IVar="-1" Cut="0.0000000000000000e+00" cType="1" res="2.0518565177917480e-01" rms="3.0656346678733826e-01" purity="8.5728412866592407e-01" nType="-99"/>
          <Node pos="r" depth="2" NCoef="0" IVar="-1" Cut="0.0000000000000000e+00" cType="1" res="-1.1751660145819187e-02" rms="4.0103092789649963e-01" purity="5.8347165584564209e-01" nType="-99"/>
        </Node>
        <Node pos="r" depth="1" NCoef="0" IVar="0" Cut="4.0826015472412109e+01" cType="0" res="-9.3605831265449524e-02" rms="3.6860233545303345e-01" purity="4.2623788118362427e-01" nType="0">
          <Node pos="l" depth="2" NCoef="0" IVar="-1" Cut="0.0000000000000000e+00" cType="1" res="-1.9573621451854706e-02" rms="3.9287683367729187e-01" purity="7.4517393112182617e-01" nType="-99"/>
          <Node pos="r" depth="2" NCoef="0" IVar="-1" Cut="0.0000000000000000e+00" cType="1" res="-4.4331740587949753e-02" rms="3.4794878959655762e-01" purity="2.5030571222305298e-01" nType="-99"/>
        </Node>
      </Node>
    </BinaryTree>
    <BinaryTree type="DecisionTree" boostWeight="1.0000000000000000e+00" itree="12">
      <Node pos="s" depth="0" NCoef="0" IVar="12" Cut="2.9580308914184570e+01" cType="0" res="-3.1176159158349037e-02" rms="3.7493240833282471e-01" purity="5.3771632909774780e-01" nType="0">
        <Node pos="l" depth="1" NCoef="0" IVar="11" Cut="1.5586384582519531e+02" cType="0" res="3.3288935665041208e-03" rms="3.6845558881759644e-01" purity="7.0163071155548096e-01" nType="0">
          <Node pos="l" depth="2" NCoef="0" IVar="-1" Cut="0.0000000000000000e+00" cType="1" res="5.2899199724197388e-01" rms="2.7525699138641357e-01" purity="9.1881281137466431e-01" nType="-99"/>
          <Node pos="r" depth="2" NCoef="0" IVar="-1" Cut="0.0000000000000000e+00" cType="1" res="-5.3173815831542015e-03" rms="3.6935487389564514e-01" purity="6.9103449583053589e-01" nType="-99"/>
        </Node>
        <Node pos="r" depth="1" NCoef="0" IVar="2" Cut="1.4910180664062500e+02" cType="0" res="-9.6151888370513916e-02" rms="3.7838751077651978e-01" purity="2.2905264794826508e-01" nType="0">
          <Node pos="l" depth="2" NCoef="0" IVar="-1" Cut="0.0000000000000000e+00" cType="1" res="-2.2576358169317245e-02" rms="4.2535001039505005e-01" purity="3.0703008174896240e-01" nType="-99"/>
          <Node pos="r" depth="2" NCoef="0" IVar="-1" Cut="0.0000000000000000e+00" cType="1" res="-4.7962561249732971e-02" rms="2.5351208448410034e-01" purity="7.5643017888069153e-02" nType="-99"/>
        </Node>
      </Node>
    </BinaryTree>
    <BinaryTree type="DecisionTree" boostWeight="1.0000000000000000e+00" itree="13">
      <Node pos="s" depth="0" NCoef="0" IVar="6" Cut="8.4468656778335571e-01" cType="1" res="-3.7497196346521378e-02" rms="3.7714695930480957e-01" purity="5.3321212530136108e-01" nType="0">
        <Node pos="l" depth="1" NCoef="0" IVar="2" Cut="1.5613977050781250e+02" cType="0" res="-2.2718107327818871e-02" rms="3.7668764591217041e-01" purity="5.7187783718109131e-01" nType="0">
          <Node pos="l" depth="2" NCoef="0" IVar="-1" Cut="0.0000000000000000e+00" cType="1" res="7.7038775198161602e-03" rms="3.8191092014312744e-01" purity="6.7062336206436157e-01" nType="-99"/>
          <Node pos="r" depth="2" NCoef="0" IVar="-1" Cut="0.0000000000000000e+00" cType="1" res="-3.7720434367656708e-02" rms="3.5801583528518677e-01" purity="3.8444691896438599e-01" nType="-99"/>
        </Node>
        <Node pos="r" depth="1" NCoef="0" IVar="8" Cut="1.9477981567382812e+01" cType="1" res="-1.4731554687023163e-01" rms="3.6211812496185303e-01" purity="2.4590043723583221e-01" nType="0">
          <Node pos="l" depth="2" NCoef="0" IVar="-1" Cut="0.0000000000000000e+00" cType="1" res="-3.7901870906352997e-02" rms="3.6472460627555847e-01" purity="2.7579078078269958e-01" nType="-99"/>
          <Node pos="r" depth="2" NCoef="0" IVar="-1" Cut="0.0000000000000000e+00" cType="1" res="-7.1686364710330963e-02" rms="3.3128184080123901e-01" purity="1.6802655160427094e-01" nType="-99"/>
        </Node>
      </Node>
    </BinaryTree>
    <BinaryTree type="DecisionTree" boostWeight="1.0000000000000000e+00" itree="14">
      <Node pos="s" depth="0" NCoef="0" IVar="2" Cut="1.4385693359375000e+02" cType="0" res="-2.9597818851470947e-02" rms="3.7571865320205688e-01" purity="5.3704142570495605e-01" nType="0">
        <Node pos="l" depth="1" NCoef="0" IVar="10" Cut="2.7680171966552734e+01" cType="1" res="-9.7720054909586906e-03" rms="3.8518896698951721e-01" purity="6.1356216669082642e-01" nType="0">
          <Node pos="l" depth="2" NCoef="0" IVar="-1" Cut="0.0000000000000000e+00" cType="1" res="2.7857068926095963e-04" rms="3.7901636958122253e-01" purity="6.2137269973754883e-01" nType="-99"/>
          <Node pos="r" depth="2" NCoef="0" IVar="-1" Cut="0.0000000000000000e+00" cType="1" res="-1.0875206440687180e-01" rms="4.4612136483192444e-01" purity="4.5426520705223083e-01" nType="-99"/>
        </Node>
        <Node pos="r" depth="1" NCoef="0" IVar="12" Cut="7.6307762145996094e+01" cType="0" res="-9.7490824759006500e-02" rms="3.3246365189552307e-01" purity="2.7499809861183167e-01" nType="0">
          <Node pos="l" depth="2" NCoef="0" IVar="-1" Cut="0.0000000000000000e+00" cType="1" res="2.0665936172008514e-01" rms="2.3497942090034485e-01" purity="9.2332589626312256e-01" nType="-99"/>
          <Node pos="r" depth="2" NCoef="0" IVar="-1" Cut="0.0000000000000000e+00" cType="1" res="-4.2610831558704376e-02" rms="3.3646151423454285e-01" purity="1.9164234399795532e-01" nType="-99"/>
        </Node>
      </Node>
    </BinaryTree>
    <BinaryTree type="DecisionTree" boostWeight="1.0000000000000000e+00" itree="15">
      <Node pos="s" depth="0" NCoef="0" IVar="8" Cut="3.2652263641357422e+01" cType="1" res="-2.5970082730054855e-02" rms="3.7546944618225098e-01" purity="5.3773027658462524e-01" nType="0">
        <Node pos="l" depth="1" NCoef="0" IVar="9" Cut="6.8164566040039062e+01" cType="0" res="-2.1781800314784050e-02" rms="3.7307259440422058e-01" purity="5.4258984327316284e-01" nType="0">
          <Node pos="l" depth="2" NCoef="0" IVar="-1" Cut="0.0000000000000000e+00" cType="1" res="1.4356451109051704e-02" rms="3.7847968935966492e-01" purity="6.5720635652542114e-01" nType="-99"/>
          <Node pos="r" depth="2" NCoef="0" IVar="-1" Cut="0.0000000000000000e+00" cType="1" res="-2.6202976703643799e-02" rms="3.6573508381843567e-01" purity="4.5654809474945068e-01" nType="-99"/>
        </Node>
        <Node pos="r" depth="1" NCoef="0" IVar="-1" Cut="0.0000000000000000e+00" cType="1" res="-1.0235176980495453e-01" rms="4.2694506049156189e-01" purity="2.2128339111804962e-01" nType="-99"/>
      </Node>
    </BinaryTree>
    <BinaryTree type="DecisionTree" boostWeight="1.0000000000000000e+00" itree="16">
      <Node pos="s" depth="0" NCoef="0" IVar="12" Cut="2.3007127761840820e+01" cType="0" res="-2.1136745810508728e-02" rms="3.7184327840805054e-01" purity="5.4099792242050171e-01" nType="0">
        <Node pos="l" depth="1" NCoef="0" IVar="8" Cut="3.1317893981933594e+01" cType="1" res="1.4828244457021356e-03" rms="3.6954927444458008e-01" purity="6.6461575031280518e-01" nType="0">
          <Node pos="l" depth="2" NCoef="0" IVar="-1" Cut="0.0000000000000000e+00" cType="1" res="5.2134534344077110e-03" rms="3.6587789654731750e-01" purity="6.7187178134918213e-01" nType="-99"/>
          <Node pos="r" depth="2" NCoef="0" IVar="-1" Cut="0.0000000000000000e+00" cType="1" res="-1.0248997062444687e-01" rms="4.4138705730438232e-01" purity="2.5192543864250183e-01" nType="-99"/>
        </Node>
        <Node pos="r" depth="1" NCoef="0" IVar="11" Cut="5.0744121551513672e+01" cType="0" res="-8.0454528331756592e-02" rms="3.7130472064018250e-01" purity="2.1682132780551910e-01" nType="0">
          <Node pos="l" depth="2" NCoef="0" IVar="-1" Cut="0.0000000000000000e+00" cType="1" res="-1.9953388720750809e-02" rms="3.7441554665565491e-01" purity="2.3849605023860931e-01" nType="-99"/>
          <Node pos="r" depth="2" NCoef="0" IVar="-1" Cut="0.0000000000000000e+00" cType="1" res="-4.5639608055353165e-02" rms="3.5308766365051270e-01" purity="1.5794029831886292e-01" nType="-99"/>
        </Node>
      </Node>
    </BinaryTree>
    <BinaryTree type="DecisionTree" boostWeight="1.0000000000000000e+00" itree="17">
      <Node pos="s" depth="0" NCoef="0" IVar="8" Cut="2.4164348602294922e+01" cType="1" res="-1.7529690638184547e-02" rms="3.7281718850135803e-01" purity="5.4354828596115112e-01" nType="0">
        <Node pos="l" depth="1" NCoef="0" IVar="0" Cut="3.9255889892578125e+01" cType="0" res="-1.0079153813421726e-02" rms="3.6886274814605713e-01" purity="5.5377310514450073e-01" nType="0">
          <Node pos="l" depth="2" NCoef="0" IVar="-1" Cut="0.0000000000000000e+00" cType="1" res="4.3881546705961227e-02" rms="3.5007983446121216e-01" purity="8.1576788425445557e-01" nType="-99"/>
          <Node pos="r" depth="2" NCoef="0" IVar="-1" Cut="0.0000000000000000e+00" cType="1" res="-1.7095509916543961e-02" rms="3.7888202071189880e-01" purity="3.6356979608535767e-01" nType="-99"/>
        </Node>
        <Node pos="r" depth="1" NCoef="0" IVar="2" Cut="2.2748065185546875e+02" cType="0" res="-1.7570742964744568e-01" rms="4.1840323805809021e-01" purity="3.2647132873535156e-01" nType="0">
          <Node pos="l" depth="2" NCoef="0" IVar="-1" Cut="0.0000000000000000e+00" cType="1" res="5.4010510444641113e-02" rms="4.1325840353965759e-01" purity="6.3124740123748779e-01" nType="-99"/>
          <Node pos="r" depth="2" NCoef="0" IVar="-1" Cut="0.0000000000000000e+00" cType="1" res="-9.3429535627365112e-02" rms="3.7017685174942017e-01" purity="1.9620901346206665e-01" nType="-99"/>
        </Node>
      </Node>
    </BinaryTree>
    <BinaryTree type="DecisionTree" boostWeight="1.0000000000000000e+00" itree="18">
      <Node pos="s" depth="0" NCoef="0" IVar="6" Cut="8.4033691883087158e-01" cType="1" res="-2.3604024201631546e-02" rms="3.7313997745513916e-01" purity="5.3629374504089355e-01" nType="0">
        <Node pos="l" depth="1" NCoef="0" IVar="11" Cut="4.7688072204589844e+01" cType="0" res="-1.1579812504351139e-02" rms="3.7261453270912170e-01" purity="5.7614147663116455e-01" nType="0">
          <Node pos="l" depth="2" NCoef="0" IVar="-1" Cut="0.0000000000000000e+00" cType="1" res="3.4015313722193241e-03" rms="3.7459409236907959e-01" purity="6.0912728309631348e-01" nType="-99"/>
          <Node pos="r" depth="2" NCoef="0" IVar="-1" Cut="0.0000000000000000e+00" cType="1" res="-3.3888503909111023e-02" rms="3.5914659500122070e-01" purity="4.5755773782730103e-01" nType="-99"/>
        </Node>
        <Node pos="r" depth="1" NCoef="0" IVar="11" Cut="1.9567980957031250e+02" cType="0" res="-1.0687297582626343e-01" rms="3.6607664823532104e-01" purity="2.6034420728683472e-01" nType="0">
          <Node pos="l" depth="2" NCoef="0" IVar="-1" Cut="0.0000000000000000e+00" cType="1" res="1.3253195583820343e-01" rms="3.3656477928161621e-01" purity="7.4323868751525879e-01" nType="-99"/>
          <Node pos="r" depth="2" NCoef="0" IVar="-1" Cut="0.0000000000000000e+00" cType="1" res="-4.3706376105546951e-02" rms="3.6146026849746704e-01" purity="2.2916755080223083e-01" nType="-99"/>
        </Node>
      </Node>
    </BinaryTree>
    <BinaryTree type="DecisionTree" boostWeight="1.0000000000000000e+00" itree="19">
      <Node pos="s" depth="0" NCoef="0" IVar="6" Cut="6.3642585277557373e-01" cType="1" res="-1.8220789730548859e-02" rms="3.7134805321693420e-01" purity="5.3946441411972046e-01" nType="0">
        <Node pos="l" depth="1" NCoef="0" IVar="11" Cut="6.7560806274414062e+01" cType="0" res="1.1522280052304268e-02" rms="3.5565820336341858e-01" purity="6.3659834861755371e-01" nType="0">
          <Node pos="l" depth="2" NCoef="0" IVar="-1" Cut="0.0000000000000000e+00" cType="1" res="7.8470647335052490e-02" rms="3.6184474825859070e-01" purity="7.7139347791671753e-01" nType="-99"/>
          <Node pos="r" depth="2" NCoef="0" IVar="-1" Cut="0.0000000000000000e+00" cType="1" res="-1.3582170940935612e-02" rms="3.4748476743698120e-01" purity="5.5784100294113159e-01" nType="-99"/>
        </Node>
        <Node pos="r" depth="1" NCoef="0" IVar="0" Cut="7.2576095581054688e+01" cType="0" res="-4.9371030181646347e-02" rms="3.8464114069938660e-01" purity="4.3773505091667175e-01" nType="0">
          <Node pos="l" depth="2" NCoef="0" IVar="-1" Cut="0.0000000000000000e+00" cType="1" res="1.6976992785930634e-01" rms="3.3781784772872925e-01" purity="8.7777191400527954e-01" nType="-99"/>
          <Node pos="r" depth="2" NCoef="0" IVar="-1" Cut="0.0000000000000000e+00" cType="1" res="-2.9172686859965324e-02" rms="3.8715979456901550e-01" purity="3.7985253334045410e-01" nType="-99"/>
        </Node>
      </Node>
    </BinaryTree>
    <BinaryTree type="DecisionTree" boostWeight="1.0000000000000000e+00" itree="20">
      <Node pos="s" depth="0" NCoef="0" IVar="12" Cut="2.1771390914916992e+01" cType="0" res="-1.9250642508268356e-02" rms="3.6816740036010742e-01" purity="5.3878998756408691e-01" nType="0">
        <Node pos="l" depth="1" NCoef="0" IVar="8" Cut="2.3651023864746094e+01" cType="1" res="-1.7278681043535471e-03" rms="3.6816489696502686e-01" purity="6.5434229373931885e-01" nType="0">
          <Node pos="l" depth="2" NCoef="0" IVar="-1" Cut="0.0000000000000000e+00" cType="1" res="5.2036335691809654e-03" rms="3.6270344257354736e-01" purity="6.6637551784515381e-01" nType="-99"/>
          <Node pos="r" depth="2" NCoef="0" IVar="-1" Cut="0.0000000000000000e+00" cType="1" res="-7.4412815272808075e-02" rms="4.3181985616683960e-01" purity="4.0622720122337341e-01" nType="-99"/>
        </Node>
        <Node pos="r" depth="1" NCoef="0" IVar="11" Cut="4.7835254669189453e+01" cType="0" res="-6.8593166768550873e-02" rms="3.6366623640060425e-01" purity="2.1340528130531311e-01" nType="0">
          <Node pos="l" depth="2" NCoef="0" IVar="-1" Cut="0.0000000000000000e+00" cType="1" res="-1.9332502037286758e-02" rms="3.7020060420036316e-01" purity="2.3556096851825714e-01" nType="-99"/>
          <Node pos="r" depth="2" NCoef="0" IVar="-1" Cut="0.0000000000000000e+00" cType="1" res="-4.1557949036359787e-02" rms="3.3544394373893738e-01" purity="1.4228025078773499e-01" nType="-99"/>
        </Node>
      </Node>
    </BinaryTree>
    <BinaryTree type="DecisionTree" boostWeight="1.0000000000000000e+00" itree="21">
      <Node pos="s" depth="0" NCoef="0" IVar="10" Cut="9.7583627700805664e+00" cType="1" res="-1.3765690848231316e-02" rms="3.6572614312171936e-01" purity="5.4287403821945190e-01" nType="0">
        <Node pos="l" depth="1" NCoef="0" IVar="11" Cut="5.1077022552490234e+01" cType="0" res="3.8057930767536163e-02" rms="3.5039451718330383e-01" purity="5.9951138496398926e-01" nType="0">
          <Node pos="l" depth="2" NCoef="0" IVar="-1" Cut="0.0000000000000000e+00" cType="1" res="9.4482779502868652e-02" rms="3.4194600582122803e-01" purity="7.2914063930511475e-01" nType="-99"/>
          <Node pos="r" depth="2" NCoef="0" IVar="-1" Cut="0.0000000000000000e+00" cType="1" res="6.1566894873976707e-04" rms="3.5021328926086426e-01" purity="5.2160370349884033e-01" nType="-99"/>
        </Node>
        <Node pos="r" depth="1" NCoef="0" IVar="11" Cut="1.7396896362304688e+02" cType="0" res="-3.0058465898036957e-02" rms="3.6891406774520874e-01" purity="5.2506792545318604e-01" nType="0">
          <Node pos="l" depth="2" NCoef="0" IVar="-1" Cut="0.0000000000000000e+00" cType="1" res="3.1363993883132935e-01" rms="2.4153719842433929e-01" purity="9.0934890508651733e-01" nType="-99"/>
          <Node pos="r" depth="2" NCoef="0" IVar="-1" Cut="0.0000000000000000e+00" cType="1" res="-2.0409004762768745e-02" rms="3.7144571542739868e-01" purity="5.1072418689727783e-01" nType="-99"/>
        </Node>
      </Node>
    </BinaryTree>
    <BinaryTree type="DecisionTree" boostWeight="1.0000000000000000e+00" itree="22">
      <Node pos="s" depth="0" NCoef="0" IVar="10" Cut="1.0361742973327637e+01" cType="1" res="-2.5137061253190041e-02" rms="3.7064543366432190e-01" purity="5.3180623054504395e-01" nType="0">
        <Node pos="l" depth="1" NCoef="0" IVar="11" Cut="5.5409267425537109e+01" cType="0" res="1.7192212864756584e-02" rms="3.5780808329582214e-01" purity="5.9159290790557861e-01" nType="0">
          <Node pos="l" depth="2" NCoef="0" IVar="-1" Cut="0.0000000000000000e+00" cType="1" res="8.3380773663520813e-02" rms="3.3051365613937378e-01" purity="7.2834187746047974e-01" nType="-99"/>
          <Node pos="r" depth="2" NCoef="0" IVar="-1" Cut="0.0000000000000000e+00" cType="1" res="-6.9808443076908588e-03" rms="3.6475396156311035e-01" purity="5.3380882740020752e-01" nType="-99"/>
        </Node>
        <Node pos="r" depth="1" NCoef="0" IVar="8" Cut="2.0641183853149414e+01" cType="1" res="-4.2921151965856552e-02" rms="3.7448343634605408e-01" purity="5.0668764114379883e-01" nType="0">
          <Node pos="l" depth="2" NCoef="0" IVar="-1" Cut="0.0000000000000000e+00" cType="1" res="-1.9387895241379738e-02" rms="3.7037247419357300e-01" purity="5.1817357540130615e-01" nType="-99"/>
          <Node pos="r" depth="2" NCoef="0" IVar="-1" Cut="0.0000000000000000e+00" cType="1" res="-6.2529750168323517e-02" rms="4.0086686611175537e-01" purity="3.9396685361862183e-01" nType="-99"/>
        </Node>
      </Node>
    </BinaryTree>
    <BinaryTree type="DecisionTree" boostWeight="1.0000000000000000e+00" itree="23">
      <Node pos="s" depth="0" NCoef="0" IVar="6" Cut="8.3435148000717163e-01" cType="1" res="-2.4191798642277718e-02" rms="3.6958190798759460e-01" purity="5.2826845645904541e-01" nType="0">
        <Node pos="l" depth="1" NCoef="0" IVar="9" Cut="6.7399681091308594e+01" cType="0" res="-1.2058994732797146e-02" rms="3.7083527445793152e-01" purity="5.7413172721862793e-01" nType="0">
          <Node pos="l" depth="2" NCoef="0" IVar="-1" Cut="0.0000000000000000e+00" cType="1" res="1.9853061065077782e-02" rms="3.7693145871162415e-01" purity="6.9932812452316284e-01" nType="-99"/>
          <Node pos="r" depth="2" NCoef="0" IVar="-1" Cut="0.0000000000000000e+00" cType="1" res="-2.1339191123843193e-02" rms="3.6380326747894287e-01" purity="4.7933343052864075e-01" nType="-99"/>
        </Node>
        <Node pos="r" depth="1" NCoef="0" IVar="12" Cut="8.9511131286621094e+01" cType="0" res="-9.8580010235309601e-02" rms="3.5279574990272522e-01" purity="2.4707300961017609e-01" nType="0">
          <Node pos="l" depth="2" NCoef="0" IVar="-1" Cut="0.0000000000000000e+00" cType="1" res="2.1833391487598419e-01" rms="3.4741252660751343e-01" purity="8.6187922954559326e-01" nType="-99"/>
          <Node pos="r" depth="2" NCoef="0" IVar="-1" Cut="0.0000000000000000e+00" cType="1" res="-4.1215099394321442e-02" rms="3.4929266571998596e-01" purity="2.1470710635185242e-01" nType="-99"/>
        </Node>
      </Node>
    </BinaryTree>
    <BinaryTree type="DecisionTree" boostWeight="1.0000000000000000e+00" itree="24">
      <Node pos="s" depth="0" NCoef="0" IVar="10" Cut="2.4324569702148438e+01" cType="1" res="-2.0539946854114532e-02" rms="3.6843466758728027e-01" purity="5.2912348508834839e-01" nType="0">
        <Node pos="l" depth="1" NCoef="0" IVar="12" Cut="1.6436054229736328e+01" cType="0" res="-1.2475847266614437e-02" rms="3.6348763108253479e-01" purity="5.3179281949996948e-01" nType="0">
          <Node pos="l" depth="2" NCoef="0" IVar="-1" Cut="0.0000000000000000e+00" cType="1" res="1.3809306256007403e-04" rms="3.6236196756362915e-01" purity="6.1070197820663452e-01" nType="-99"/>
          <Node pos="r" depth="2" NCoef="0" IVar="-1" Cut="0.0000000000000000e+00" cType="1" res="-2.4972388520836830e-02" rms="3.6339777708053589e-01" purity="2.0165584981441498e-01" nType="-99"/>
        </Node>
        <Node pos="r" depth="1" NCoef="0" IVar="12" Cut="5.1142768859863281e+01" cType="0" res="-1.4587736129760742e-01" rms="4.1868972778320312e-01" purity="4.8763558268547058e-01" nType="0">
          <Node pos="l" depth="2" NCoef="0" IVar="-1" Cut="0.0000000000000000e+00" cType="1" res="-1.7344164848327637e-01" rms="4.3186017870903015e-01" purity="5.6269168853759766e-01" nType="-99"/>
          <Node pos="r" depth="2" NCoef="0" IVar="-1" Cut="0.0000000000000000e+00" cType="1" res="-1.3645947910845280e-02" rms="3.7050336599349976e-01" purity="4.0269291400909424e-01" nType="-99"/>
        </Node>
      </Node>
    </BinaryTree>
    <BinaryTree type="DecisionTree" boostWeight="1.0000000000000000e+00" itree="25">
      <Node pos="s" depth="0" NCoef="0" IVar="2" Cut="1.3399649047851562e+02" cType="0" res="-1.3552168384194374e-02" rms="3.6107867956161499e-01" purity="5.2594506740570068e-01" nType="0">
        <Node pos="l" depth="1" NCoef="0" IVar="10" Cut="9.5296163558959961e+00" cType="1" res="-2.8708009049296379e-03" rms="3.6808466911315918e-01" purity="5.7721382379531860e-01" nType="0">
          <Node pos="l" depth="2" NCoef="0" IVar="-1" Cut="0.0000000000000000e+00" cType="1" res="3.5280752927064896e-02" rms="3.4003555774688721e-01" purity="6.4519339799880981e-01" nType="-99"/>
          <Node pos="r" depth="2" NCoef="0" IVar="-1" Cut="0.0000000000000000e+00" cType="1" res="-1.0543047450482845e-02" rms="3.7438079714775085e-01" purity="5.5804437398910522e-01" nType="-99"/>
        </Node>
        <Node pos="r" depth="1" NCoef="0" IVar="11" Cut="9.4177803039550781e+01" cType="0" res="-7.8113213181495667e-02" rms="3.0764070153236389e-01" purity="2.1606244146823883e-01" nType="0">
          <Node pos="l" depth="2" NCoef="0" IVar="-1" Cut="0.0000000000000000e+00" cType="1" res="1.7367362976074219e-02" rms="3.6305350065231323e-01" purity="3.9888802170753479e-01" nType="-99"/>
          <Node pos="r" depth="2" NCoef="0" IVar="-1" Cut="0.0000000000000000e+00" cType="1" res="-4.3556712567806244e-02" rms="2.8862661123275757e-01" purity="1.7575016617774963e-01" nType="-99"/>
        </Node>
      </Node>
    </BinaryTree>
    <BinaryTree type="DecisionTree" boostWeight="1.0000000000000000e+00" itree="26">
      <Node pos="s" depth="0" NCoef="0" IVar="10" Cut="2.7492424011230469e+01" cType="1" res="-1.0432731360197067e-02" rms="3.6448723077774048e-01" purity="5.3763484954833984e-01" nType="0">
        <Node pos="l" depth="1" NCoef="0" IVar="2" Cut="1.4590373229980469e+02" cType="0" res="-5.1162587478756905e-03" rms="3.6063596606254578e-01" purity="5.3911995887756348e-01" nType="0">
          <Node pos="l" depth="2" NCoef="0" IVar="-1" Cut="0.0000000000000000e+00" cType="1" res="6.7796260118484497e-03" rms="3.7092757225036621e-01" purity="6.2284702062606812e-01" nType="-99"/>
          <Node pos="r" depth="2" NCoef="0" IVar="-1" Cut="0.0000000000000000e+00" cType="1" res="-2.4367609992623329e-02" rms="3.2339629530906677e-01" purity="2.8651037812232971e-01" nType="-99"/>
        </Node>
        <Node pos="r" depth="1" NCoef="0" IVar="11" Cut="2.0279023742675781e+02" cType="0" res="-1.4768543839454651e-01" rms="4.3055704236030579e-01" purity="4.9929586052894592e-01" nType="0">
          <Node pos="l" depth="2" NCoef="0" IVar="-1" Cut="0.0000000000000000e+00" cType="1" res="3.9202785491943359e-01" rms="1.8353024125099182e-01" purity="9.4410604238510132e-01" nType="-99"/>
          <Node pos="r" depth="2" NCoef="0" IVar="-1" Cut="0.0000000000000000e+00" cType="1" res="-1.0710372030735016e-01" rms="4.4964012503623962e-01" purity="3.6209207773208618e-01" nType="-99"/>
        </Node>
      </Node>
    </BinaryTree>
    <BinaryTree type="DecisionTree" boostWeight="1.0000000000000000e+00" itree="27">
      <Node pos="s" depth="0" NCoef="0" IVar="5" Cut="2.7586799114942551e-02" cType="0" res="-1.4408762566745281e-02" rms="3.6506429314613342e-01" purity="5.3196251392364502e-01" nType="0">
        <Node pos="l" depth="1" NCoef="0" IVar="8" Cut="2.4238588333129883e+01" cType="1" res="1.7256004735827446e-02" rms="3.5970708727836609e-01" purity="6.6137742996215820e-01" nType="0">
          <Node pos="l" depth="2" NCoef="0" IVar="-1" Cut="0.0000000000000000e+00" cType="1" res="2.1667586639523506e-02" rms="3.5174316167831421e-01" purity="6.6860854625701904e-01" nType="-99"/>
          <Node pos="r" depth="2" NCoef="0" IVar="-1" Cut="0.0000000000000000e+00" cType="1" res="-1.1105573177337646e-01" rms="4.9045431613922119e-01" purity="4.2486459016799927e-01" nType="-99"/>
        </Node>
        <Node pos="r" depth="1" NCoef="0" IVar="1" Cut="5.1493410021066666e-02" cType="1" res="-3.3060539513826370e-02" rms="3.6690673232078552e-01" purity="4.5573207736015320e-01" nType="0">
          <Node pos="l" depth="2" NCoef="0" IVar="-1" Cut="0.0000000000000000e+00" cType="1" res="2.6259383186697960e-02" rms="3.5798272490501404e-01" purity="5.7138669490814209e-01" nType="-99"/>
          <Node pos="r" depth="2" NCoef="0" IVar="-1" Cut="0.0000000000000000e+00" cType="1" res="-2.4126887321472168e-02" rms="3.6691498756408691e-01" purity="4.3181580305099487e-01" nType="-99"/>
        </Node>
      </Node>
    </BinaryTree>
    <BinaryTree type="DecisionTree" boostWeight="1.0000000000000000e+00" itree="28">
      <Node pos="s" depth="0" NCoef="0" IVar="10" Cut="2.7719675064086914e+01" cType="1" res="-1.0127963498234749e-02" rms="3.6373588442802429e-01" purity="5.3578102588653564e-01" nType="0">
        <Node pos="l" depth="1" NCoef="0" IVar="9" Cut="6.9184143066406250e+01" cType="0" res="-5.4046530276536942e-03" rms="3.6135512590408325e-01" purity="5.3781992197036743e-01" nType="0">
          <Node pos="l" depth="2" NCoef="0" IVar="-1" Cut="0.0000000000000000e+00" cType="1" res="1.8472494557499886e-02" rms="3.6969566345214844e-01" purity="6.5398335456848145e-01" nType="-99"/>
          <Node pos="r" depth="2" NCoef="0" IVar="-1" Cut="0.0000000000000000e+00" cType="1" res="-1.4538811519742012e-02" rms="3.5400250554084778e-01" purity="4.5778423547744751e-01" nType="-99"/>
        </Node>
        <Node pos="r" depth="1" NCoef="0" IVar="12" Cut="5.8443256378173828e+01" cType="0" res="-1.3668943941593170e-01" rms="4.0242239832878113e-01" purity="4.8114916682243347e-01" nType="0">
          <Node pos="l" depth="2" NCoef="0" IVar="-1" Cut="0.0000000000000000e+00" cType="1" res="-1.5301027894020081e-01" rms="4.2867583036422729e-01" purity="5.5554133653640747e-01" nType="-99"/>
          <Node pos="r" depth="2" NCoef="0" IVar="-1" Cut="0.0000000000000000e+00" cType="1" res="-2.2201387211680412e-02" rms="3.5215756297111511e-01" purity="4.1757202148437500e-01" nType="-99"/>
        </Node>
      </Node>
    </BinaryTree>
    <BinaryTree type="DecisionTree" boostWeight="1.0000000000000000e+00" itree="29">
      <Node pos="s" depth="0" NCoef="0" IVar="8" Cut="2.3651023864746094e+01" cType="1" res="-1.3989365659654140e-02" rms="3.6794793605804443e-01" purity="5.3404223918914795e-01" nType="0">
        <Node pos="l" depth="1" NCoef="0" IVar="9" Cut="4.6936447143554688e+01" cType="0" res="-8.5851848125457764e-03" rms="3.6461219191551208e-01" purity="5.4321730136871338e-01" nType="0">
          <Node pos="l" depth="2" NCoef="0" IVar="-1" Cut="0.0000000000000000e+00" cType="1" res="2.4608650710433722e-03" rms="3.6555615067481995e-01" purity="5.8225935697555542e-01" nType="-99"/>
          <Node pos="r" depth="2" NCoef="0" IVar="-1" Cut="0.0000000000000000e+00" cType="1" res="-3.2003436237573624e-02" rms="3.5482758283615112e-01" purity="3.6374890804290771e-01" nType="-99"/>
        </Node>
        <Node pos="r" depth="1" NCoef="0" IVar="2" Cut="3.6467770385742188e+02" cType="0" res="-1.2483466416597366e-01" rms="4.1547679901123047e-01" purity="3.4585234522819519e-01" nType="0">
          <Node pos="l" depth="2" NCoef="0" IVar="-1" Cut="0.0000000000000000e+00" cType="1" res="2.9690907001495361e+00" rms="2.1220389008522034e-01" purity="1.0000000000000000e+00" nType="-99"/>
          <Node pos="r" depth="2" NCoef="0" IVar="-1" Cut="0.0000000000000000e+00" cType="1" res="-6.8130284547805786e-02" rms="4.0203160047531128e-01" purity="2.9420131444931030e-01" nType="-99"/>
        </Node>
      </Node>
    </BinaryTree>
    <BinaryTree type="DecisionTree" boostWeight="1.0000000000000000e+00" itree="30">
      <Node pos="s" depth="0" NCoef="0" IVar="8" Cut="2.3189468383789062e+01" cType="1" res="-1.2084127403795719e-02" rms="3.6899125576019287e-01" purity="5.3831660747528076e-01" nType="0">
        <Node pos="l" depth="1" NCoef="0" IVar="10" Cut="6.4089846611022949e+00" cType="1" res="-5.2888891659677029e-03" rms="3.6594602465629578e-01" purity="5.4824405908584595e-01" nType="0">
          <Node pos="l" depth="2" NCoef="0" IVar="-1" Cut="0.0000000000000000e+00" cType="1" res="3.0247154831886292e-01" rms="2.7473521232604980e-01" purity="8.3375656604766846e-01" nType="-99"/>
          <Node pos="r" depth="2" NCoef="0" IVar="-1" Cut="0.0000000000000000e+00" cType="1" res="-5.5543486960232258e-03" rms="3.6658683419227600e-01" purity="5.4278475046157837e-01" nType="-99"/>
        </Node>
        <Node pos="r" depth="1" NCoef="0" IVar="0" Cut="6.3042388916015625e+01" cType="0" res="-1.3806298375129700e-01" rms="4.0114799141883850e-01" purity="3.5426867008209229e-01" nType="0">
          <Node pos="l" depth="2" NCoef="0" IVar="-1" Cut="0.0000000000000000e+00" cType="1" res="-1.6123096644878387e-01" rms="4.5692306756973267e-01" purity="4.8909220099449158e-01" nType="-99"/>
          <Node pos="r" depth="2" NCoef="0" IVar="-1" Cut="0.0000000000000000e+00" cType="1" res="-3.2738327980041504e-02" rms="3.5333347320556641e-01" purity="2.9598382115364075e-01" nType="-99"/>
        </Node>
      </Node>
    </BinaryTree>
    <BinaryTree type="DecisionTree" boostWeight="1.0000000000000000e+00" itree="31">
      <Node pos="s" depth="0" NCoef="0" IVar="8" Cut="3.2165710449218750e+01" cType="1" res="-8.7270904332399368e-03" rms="3.5846272110939026e-01" purity="5.3082746267318726e-01" nType="0">
        <Node pos="l" depth="1" NCoef="0" IVar="11" Cut="8.3448997497558594e+01" cType="0" res="-5.9788441285490990e-03" rms="3.5729521512985229e-01" purity="5.3424018621444702e-01" nType="0">
          <Node pos="l" depth="2" NCoef="0" IVar="-1" Cut="0.0000000000000000e+00" cType="1" res="2.2836573421955109e-02" rms="3.5955369472503662e-01" purity="6.0787212848663330e-01" nType="-99"/>
          <Node pos="r" depth="2" NCoef="0" IVar="-1" Cut="0.0000000000000000e+00" cType="1" res="-1.2603578157722950e-02" rms="3.5515722632408142e-01" purity="5.0215077400207520e-01" nType="-99"/>
        </Node>
        <Node pos="r" depth="1" NCoef="0" IVar="-1" Cut="0.0000000000000000e+00" cType="1" res="-8.5003145039081573e-02" rms="3.8307225704193115e-01" purity="2.6090174913406372e-01" nType="-99"/>
      </Node>
    </BinaryTree>
    <BinaryTree type="DecisionTree" boostWeight="1.0000000000000000e+00" itree="32">
      <Node pos="s" depth="0" NCoef="0" IVar="8" Cut="2.3917867660522461e+01" cType="1" res="-5.2664810791611671e-03" rms="3.5681375861167908e-01" purity="5.3237986564636230e-01" nType="0">
        <Node pos="l" depth="1" NCoef="0" IVar="2" Cut="1.4165615844726562e+02" cType="0" res="4.4722735765390098e-04" rms="3.5406941175460815e-01" purity="5.4220557212829590e-01" nType="0">
          <Node pos="l" depth="2" NCoef="0" IVar="-1" Cut="0.0000000000000000e+00" cType="1" res="8.9525384828448296e-03" rms="3.6224529147148132e-01" purity="6.1914819478988647e-01" nType="-99"/>
          <Node pos="r" depth="2" NCoef="0" IVar="-1" Cut="0.0000000000000000e+00" cType="1" res="-2.3315239697694778e-02" rms="3.1785911321640015e-01" purity="2.5874072313308716e-01" nType="-99"/>
        </Node>
        <Node pos="r" depth="1" NCoef="0" IVar="0" Cut="5.6148372650146484e+01" cType="0" res="-1.2114433199167252e-01" rms="3.9088606834411621e-01" purity="3.3310860395431519e-01" nType="0">
          <Node pos="l" depth="2" NCoef="0" IVar="-1" Cut="0.0000000000000000e+00" cType="1" res="-1.1678060889244080e-01" rms="4.4428285956382751e-01" purity="4.5448270440101624e-01" nType="-99"/>
          <Node pos="r" depth="2" NCoef="0" IVar="-1" Cut="0.0000000000000000e+00" cType="1" res="-1.9581602886319160e-02" rms="3.2776612043380737e-01" purity="2.5807520747184753e-01" nType="-99"/>
        </Node>
      </Node>
    </BinaryTree>
    <BinaryTree type="DecisionTree" boostWeight="1.0000000000000000e+00" itree="33">
      <Node pos="s" depth="0" NCoef="0" IVar="12" Cut="1.9050092697143555e+01" cType="0" res="-3.4888021182268858e-03" rms="3.5428491234779358e-01" purity="5.3755897283554077e-01" nType="0">
        <Node pos="l" depth="1" NCoef="0" IVar="10" Cut="2.6465072631835938e+01" cType="1" res="1.1091453023254871e-02" rms="3.5121399164199829e-01" purity="6.3504093885421753e-01" nType="0">
          <Node pos="l" depth="2" NCoef="0" IVar="-1" Cut="0.0000000000000000e+00" cType="1" res="1.2289942242205143e-02" rms="3.4829539060592651e-01" purity="6.3890612125396729e-01" nType="-99"/>
          <Node pos="r" depth="2" NCoef="0" IVar="-1" Cut="0.0000000000000000e+00" cType="1" res="-5.8555066585540771e-02" rms="3.9378744363784790e-01" purity="5.5120229721069336e-01" nType="-99"/>
        </Node>
        <Node pos="r" depth="1" NCoef="0" IVar="11" Cut="5.0749767303466797e+01" cType="0" res="-5.2819821983575821e-02" rms="3.6013233661651611e-01" purity="2.0773732662200928e-01" nType="0">
          <Node pos="l" depth="2" NCoef="0" IVar="-1" Cut="0.0000000000000000e+00" cType="1" res="-1.3885348103940487e-02" rms="3.6608976125717163e-01" purity="2.3552197217941284e-01" nType="-99"/>
          <Node pos="r" depth="2" NCoef="0" IVar="-1" Cut="0.0000000000000000e+00" cType="1" res="-3.7552621215581894e-02" rms="3.4039071202278137e-01" purity="1.4103020727634430e-01" nType="-99"/>
        </Node>
      </Node>
    </BinaryTree>
    <BinaryTree type="DecisionTree" boostWeight="1.0000000000000000e+00" itree="34">
      <Node pos="s" depth="0" NCoef="0" IVar="2" Cut="1.5035008239746094e+02" cType="0" res="-7.7087073586881161e-03" rms="3.5804292559623718e-01" purity="5.3110545873641968e-01" nType="0">
        <Node pos="l" depth="1" NCoef="0" IVar="10" Cut="3.1309534072875977e+01" cType="1" res="4.6110013499855995e-03" rms="3.6714699864387512e-01" purity="6.1873352527618408e-01" nType="0">
          <Node pos="l" depth="2" NCoef="0" IVar="-1" Cut="0.0000000000000000e+00" cType="1" res="6.1864797025918961e-03" rms="3.6560353636741638e-01" purity="6.2357735633850098e-01" nType="-99"/>
          <Node pos="r" depth="2" NCoef="0" IVar="-1" Cut="0.0000000000000000e+00" cType="1" res="-7.4286818504333496e-02" rms="3.8785484433174133e-01" purity="4.5629122853279114e-01" nType="-99"/>
        </Node>
        <Node pos="r" depth="1" NCoef="0" IVar="11" Cut="1.1606934356689453e+02" cType="0" res="-3.8067534565925598e-02" rms="3.3261033892631531e-01" purity="3.1516808271408081e-01" nType="0">
          <Node pos="l" depth="2" NCoef="0" IVar="-1" Cut="0.0000000000000000e+00" cType="1" res="8.1729196012020111e-02" rms="3.6394619941711426e-01" purity="6.0245704650878906e-01" nType="-99"/>
          <Node pos="r" depth="2" NCoef="0" IVar="-1" Cut="0.0000000000000000e+00" cType="1" res="-2.5936344638466835e-02" rms="3.2676306366920471e-01" purity="2.8852799534797668e-01" nType="-99"/>
        </Node>
      </Node>
    </BinaryTree>
    <BinaryTree type="DecisionTree" boostWeight="1.0000000000000000e+00" itree="35">
      <Node pos="s" depth="0" NCoef="0" IVar="7" Cut="9.3794637918472290e-01" cType="1" res="-1.1431458406150341e-02" rms="3.6283418536186218e-01" purity="5.3630036115646362e-01" nType="0">
        <Node pos="l" depth="1" NCoef="0" IVar="1" Cut="4.5783821493387222e-02" cType="1" res="-3.2385846134275198e-03" rms="3.6233797669410706e-01" purity="5.6083506345748901e-01" nType="0">
          <Node pos="l" depth="2" NCoef="0" IVar="-1" Cut="0.0000000000000000e+00" cType="1" res="1.0863909125328064e-01" rms="3.0450338125228882e-01" purity="7.1484309434890747e-01" nType="-99"/>
          <Node pos="r" depth="2" NCoef="0" IVar="-1" Cut="0.0000000000000000e+00" cType="1" res="-5.8838203549385071e-03" rms="3.6447125673294067e-01" purity="5.5215239524841309e-01" nType="-99"/>
        </Node>
        <Node pos="r" depth="1" NCoef="0" IVar="3" Cut="-1.1551638841629028e+00" cType="1" res="-8.9215688407421112e-02" rms="3.5829773545265198e-01" purity="3.0336487293243408e-01" nType="0">
          <Node pos="l" depth="2" NCoef="0" IVar="-1" Cut="0.0000000000000000e+00" cType="1" res="5.0839539617300034e-03" rms="3.6259728670120239e-01" purity="4.6518138051033020e-01" nType="-99"/>
          <Node pos="r" depth="2" NCoef="0" IVar="-1" Cut="0.0000000000000000e+00" cType="1" res="-4.7169953584671021e-02" rms="3.5153767466545105e-01" purity="2.5460156798362732e-01" nType="-99"/>
        </Node>
      </Node>
    </BinaryTree>
    <BinaryTree type="DecisionTree" boostWeight="1.0000000000000000e+00" itree="36">
      <Node pos="s" depth="0" NCoef="0" IVar="11" Cut="5.6757347106933594e+01" cType="0" res="-4.2694327421486378e-03" rms="3.5642352700233459e-01" purity="5.3604847192764282e-01" nType="0">
        <Node pos="l" depth="1" NCoef="0" IVar="6" Cut="5.3075581789016724e-01" cType="1" res="1.3902276754379272e-02" rms="3.5123795270919800e-01" purity="5.7225137948989868e-01" nType="0">
          <Node pos="l" depth="2" NCoef="0" IVar="-1" Cut="0.0000000000000000e+00" cType="1" res="8.5590317845344543e-02" rms="3.2524320483207703e-01" purity="7.6909375190734863e-01" nType="-99"/>
          <Node pos="r" depth="2" NCoef="0" IVar="-1" Cut="0.0000000000000000e+00" cType="1" res="-4.4528590515255928e-03" rms="3.5772693157196045e-01" purity="5.0193762779235840e-01" nType="-99"/>
        </Node>
        <Node pos="r" depth="1" NCoef="0" IVar="10" Cut="1.0268328666687012e+01" cType="1" res="-3.4876372665166855e-02" rms="3.6294016242027283e-01" purity="4.7507125139236450e-01" nType="0">
          <Node pos="l" depth="2" NCoef="0" IVar="-1" Cut="0.0000000000000000e+00" cType="1" res="-2.4540000595152378e-03" rms="3.6529433727264404e-01" purity="5.5072987079620361e-01" nType="-99"/>
          <Node pos="r" depth="2" NCoef="0" IVar="-1" Cut="0.0000000000000000e+00" cType="1" res="-3.6101695150136948e-02" rms="3.5599198937416077e-01" purity="3.7845203280448914e-01" nType="-99"/>
        </Node>
      </Node>
    </BinaryTree>
    <BinaryTree type="DecisionTree" boostWeight="1.0000000000000000e+00" itree="37">
      <Node pos="s" depth="0" NCoef="0" IVar="12" Cut="1.6328792572021484e+01" cType="0" res="-5.7762819342315197e-03" rms="3.5460785031318665e-01" purity="5.3668767213821411e-01" nType="0">
        <Node pos="l" depth="1" NCoef="0" IVar="1" Cut="7.6555830240249634e-01" cType="0" res="5.7933907955884933e-03" rms="3.5366857051849365e-01" purity="6.2131464481353760e-01" nType="0">
          <Node pos="l" depth="2" NCoef="0" IVar="-1" Cut="0.0000000000000000e+00" cType="1" res="2.2293673455715179e-01" rms="2.7227324247360229e-01" purity="8.6548417806625366e-01" nType="-99"/>
          <Node pos="r" depth="2" NCoef="0" IVar="-1" Cut="0.0000000000000000e+00" cType="1" res="3.3301830990239978e-04" rms="3.5710883140563965e-01" purity="6.0712283849716187e-01" nType="-99"/>
        </Node>
        <Node pos="r" depth="1" NCoef="0" IVar="10" Cut="2.0223588943481445e+01" cType="1" res="-5.1700256764888763e-02" rms="3.5460835695266724e-01" purity="2.0077425241470337e-01" nType="0">
          <Node pos="l" depth="2" NCoef="0" IVar="-1" Cut="0.0000000000000000e+00" cType="1" res="-1.4346991665661335e-02" rms="3.5337933897972107e-01" purity="2.0405493676662445e-01" nType="-99"/>
          <Node pos="r" depth="2" NCoef="0" IVar="-1" Cut="0.0000000000000000e+00" cType="1" res="-5.7352282106876373e-02" rms="3.4302130341529846e-01" purity="1.8209788203239441e-01" nType="-99"/>
        </Node>
      </Node>
    </BinaryTree>
    <BinaryTree type="DecisionTree" boostWeight="1.0000000000000000e+00" itree="38">
      <Node pos="s" depth="0" NCoef="0" IVar="6" Cut="8.9145559072494507e-01" cType="1" res="-8.9893443509936333e-03" rms="3.5564815998077393e-01" purity="5.3482455015182495e-01" nType="0">
        <Node pos="l" depth="1" NCoef="0" IVar="11" Cut="9.4974906921386719e+01" cType="0" res="-3.9178631268441677e-03" rms="3.5684195160865784e-01" purity="5.5487853288650513e-01" nType="0">
          <Node pos="l" depth="2" NCoef="0" IVar="-1" Cut="0.0000000000000000e+00" cType="1" res="3.3096406608819962e-02" rms="3.6319673061370850e-01" purity="6.6434204578399658e-01" nType="-99"/>
          <Node pos="r" depth="2" NCoef="0" IVar="-1" Cut="0.0000000000000000e+00" cType="1" res="-9.5210541039705276e-03" rms="3.5425573587417603e-01" purity="5.2557247877120972e-01" nType="-99"/>
        </Node>
        <Node pos="r" depth="1" NCoef="0" IVar="3" Cut="-2.0005273818969727e-01" cType="0" res="-9.3551285564899445e-02" rms="3.2361051440238953e-01" purity="2.0044437050819397e-01" nType="0">
          <Node pos="l" depth="2" NCoef="0" IVar="-1" Cut="0.0000000000000000e+00" cType="1" res="-1.0834912769496441e-02" rms="2.9471930861473083e-01" purity="2.5501516461372375e-01" nType="-99"/>
          <Node pos="r" depth="2" NCoef="0" IVar="-1" Cut="0.0000000000000000e+00" cType="1" res="-6.0740824788808823e-02" rms="3.3396497368812561e-01" purity="1.5698979794979095e-01" nType="-99"/>
        </Node>
      </Node>
    </BinaryTree>
    <BinaryTree type="DecisionTree" boostWeight="1.0000000000000000e+00" itree="39">
      <Node pos="s" depth="0" NCoef="0" IVar="11" Cut="4.7241539001464844e+01" cType="0" res="-1.4260333962738514e-02" rms="3.5786908864974976e-01" purity="5.2731472253799438e-01" nType="0">
        <Node pos="l" depth="1" NCoef="0" IVar="10" Cut="1.2219829559326172e+01" cType="1" res="-5.0695738755166531e-03" rms="3.6130154132843018e-01" purity="5.5552715063095093e-01" nType="0">
          <Node pos="l" depth="2" NCoef="0" IVar="-1" Cut="0.0000000000000000e+00" cType="1" res="1.8777882680296898e-02" rms="3.5606563091278076e-01" purity="6.1119532585144043e-01" nType="-99"/>
          <Node pos="r" depth="2" NCoef="0" IVar="-1" Cut="0.0000000000000000e+00" cType="1" res="-1.5498814173042774e-02" rms="3.6333444714546204e-01" purity="5.1956343650817871e-01" nType="-99"/>
        </Node>
        <Node pos="r" depth="1" NCoef="0" IVar="12" Cut="8.5605155944824219e+01" cType="0" res="-5.0602003931999207e-02" rms="3.4154734015464783e-01" purity="4.1575843095779419e-01" nType="0">
          <Node pos="l" depth="2" NCoef="0" IVar="-1" Cut="0.0000000000000000e+00" cType="1" res="1.8366026878356934e+00" rms="5.5355235934257507e-02" purity="1.0000000000000000e+00" nType="-99"/>
          <Node pos="r" depth="2" NCoef="0" IVar="-1" Cut="0.0000000000000000e+00" cType="1" res="-3.0941426753997803e-02" rms="3.5464376211166382e-01" purity="3.5649779438972473e-01" nType="-99"/>
        </Node>
      </Node>
    </BinaryTree>
    <BinaryTree type="DecisionTree" boostWeight="1.0000000000000000e+00" itree="40">
      <Node pos="s" depth="0" NCoef="0" IVar="10" Cut="1.4710191726684570e+01" cType="1" res="-8.1850085407495499e-03" rms="3.5570302605628967e-01" purity="5.3400647640228271e-01" nType="0">
        <Node pos="l" depth="1" NCoef="0" IVar="11" Cut="1.0612167358398438e+02" cType="0" res="4.2335963808000088e-03" rms="3.5149005055427551e-01" purity="5.4839807748794556e-01" nType="0">
          <Node pos="l" depth="2" NCoef="0" IVar="-1" Cut="0.0000000000000000e+00" cType="1" res="2.0090897381305695e-01" rms="2.9019090533256531e-01" purity="8.0509167909622192e-01" nType="-99"/>
          <Node pos="r" depth="2" NCoef="0" IVar="-1" Cut="0.0000000000000000e+00" cType="1" res="-4.1168855386786163e-04" rms="3.5240960121154785e-01" purity="5.3955262899398804e-01" nType="-99"/>
        </Node>
        <Node pos="r" depth="1" NCoef="0" IVar="11" Cut="8.1921737670898438e+01" cType="0" res="-3.3974360674619675e-02" rms="3.6294138431549072e-01" purity="5.0411957502365112e-01" nType="0">
          <Node pos="l" depth="2" NCoef="0" IVar="-1" Cut="0.0000000000000000e+00" cType="1" res="-5.5393627844750881e-03" rms="3.5953792929649353e-01" purity="5.5284231901168823e-01" nType="-99"/>
          <Node pos="r" depth="2" NCoef="0" IVar="-1" Cut="0.0000000000000000e+00" cType="1" res="-4.9621835350990295e-02" rms="3.6308789253234863e-01" purity="3.7863206863403320e-01" nType="-99"/>
        </Node>
      </Node>
    </BinaryTree>
    <BinaryTree type="DecisionTree" boostWeight="1.0000000000000000e+00" itree="41">
      <Node pos="s" depth="0" NCoef="0" IVar="2" Cut="1.2581970214843750e+02" cType="0" res="-8.1617203250061721e-05" rms="3.4883540868759155e-01" purity="5.4131358861923218e-01" nType="0">
        <Node pos="l" depth="1" NCoef="0" IVar="8" Cut="2.4948848724365234e+01" cType="1" res="6.2738535925745964e-03" rms="3.5299751162528992e-01" purity="5.7561284303665161e-01" nType="0">
          <Node pos="l" depth="2" NCoef="0" IVar="-1" Cut="0.0000000000000000e+00" cType="1" res="7.2128642350435257e-03" rms="3.5144326090812683e-01" purity="5.8606046438217163e-01" nType="-99"/>
          <Node pos="r" depth="2" NCoef="0" IVar="-1" Cut="0.0000000000000000e+00" cType="1" res="-4.6025197952985764e-02" rms="3.7475410103797913e-01" purity="3.2635867595672607e-01" nType="-99"/>
        </Node>
        <Node pos="r" depth="1" NCoef="0" IVar="0" Cut="5.4701507568359375e+01" cType="0" res="-6.7551523447036743e-02" rms="2.9273620247840881e-01" purity="1.7719128727912903e-01" nType="0">
          <Node pos="l" depth="2" NCoef="0" IVar="-1" Cut="0.0000000000000000e+00" cType="1" res="-8.6390458047389984e-02" rms="3.9646926522254944e-01" purity="4.6352419257164001e-01" nType="-99"/>
          <Node pos="r" depth="2" NCoef="0" IVar="-1" Cut="0.0000000000000000e+00" cType="1" res="-2.5685248896479607e-02" rms="2.6972001791000366e-01" purity="1.3489525020122528e-01" nType="-99"/>
        </Node>
      </Node>
    </BinaryTree>
    <BinaryTree type="DecisionTree" boostWeight="1.0000000000000000e+00" itree="42">
      <Node pos="s" depth="0" NCoef="0" IVar="8" Cut="2.3208759307861328e+01" cType="1" res="-3.9289789274334908e-03" rms="3.5704645514488220e-01" purity="5.4426914453506470e-01" nType="0">
        <Node pos="l" depth="1" NCoef="0" IVar="1" Cut="5.0269328057765961e-02" cType="1" res="4.0355848614126444e-04" rms="3.5450297594070435e-01" purity="5.5410349369049072e-01" nType="0">
          <Node pos="l" depth="2" NCoef="0" IVar="-1" Cut="0.0000000000000000e+00" cType="1" res="4.3499838560819626e-02" rms="3.2796415686607361e-01" purity="5.9679609537124634e-01" nType="-99"/>
          <Node pos="r" depth="2" NCoef="0" IVar="-1" Cut="0.0000000000000000e+00" cType="1" res="-4.2830216698348522e-03" rms="3.5695812106132507e-01" purity="5.4898464679718018e-01" nType="-99"/>
        </Node>
        <Node pos="r" depth="1" NCoef="0" IVar="0" Cut="7.7733123779296875e+01" cType="0" res="-8.4901705384254456e-02" rms="3.9293640851974487e-01" purity="3.6047065258026123e-01" nType="0">
          <Node pos="l" depth="2" NCoef="0" IVar="-1" Cut="0.0000000000000000e+00" cType="1" res="-1.4264106750488281e-01" rms="4.7467967867851257e-01" purity="5.0420433282852173e-01" nType="-99"/>
          <Node pos="r" depth="2" NCoef="0" IVar="-1" Cut="0.0000000000000000e+00" cType="1" res="-2.0097415894269943e-02" rms="3.5260695219039917e-01" purity="3.2033306360244751e-01" nType="-99"/>
        </Node>
      </Node>
    </BinaryTree>
    <BinaryTree type="DecisionTree" boostWeight="1.0000000000000000e+00" itree="43">
      <Node pos="s" depth="0" NCoef="0" IVar="8" Cut="2.3901851654052734e+01" cType="1" res="-3.6678763572126627e-03" rms="3.5270440578460693e-01" purity="5.3952133655548096e-01" nType="0">
        <Node pos="l" depth="1" NCoef="0" IVar="11" Cut="1.1241494750976562e+02" cType="0" res="8.7655585957691073e-04" rms="3.5018891096115112e-01" purity="5.5080503225326538e-01" nType="0">
          <Node pos="l" depth="2" NCoef="0" IVar="-1" Cut="0.0000000000000000e+00" cType="1" res="5.6861221790313721e-02" rms="3.3577433228492737e-01" purity="7.2366553544998169e-01" nType="-99"/>
          <Node pos="r" depth="2" NCoef="0" IVar="-1" Cut="0.0000000000000000e+00" cType="1" res="-4.4514788314700127e-03" rms="3.5148558020591736e-01" purity="5.2629703283309937e-01" nType="-99"/>
        </Node>
        <Node pos="r" depth="1" NCoef="0" IVar="0" Cut="5.0403392791748047e+01" cType="0" res="-9.2527508735656738e-02" rms="3.8816666603088379e-01" purity="3.1888443231582642e-01" nType="0">
          <Node pos="l" depth="2" NCoef="0" IVar="-1" Cut="0.0000000000000000e+00" cType="1" res="-8.8720314204692841e-02" rms="4.5140662789344788e-01" purity="4.5824483036994934e-01" nType="-99"/>
          <Node pos="r" depth="2" NCoef="0" IVar="-1" Cut="0.0000000000000000e+00" cType="1" res="-1.6459308564662933e-02" rms="3.2573750615119934e-01" purity="2.2825445234775543e-01" nType="-99"/>
        </Node>
      </Node>
    </BinaryTree>
    <BinaryTree type="DecisionTree" boostWeight="1.0000000000000000e+00" itree="44">
      <Node pos="s" depth="0" NCoef="0" IVar="10" Cut="2.0194854736328125e+01" cType="1" res="-6.6382242366671562e-03" rms="3.5274517536163330e-01" purity="5.3451365232467651e-01" nType="0">
        <Node pos="l" depth="1" NCoef="0" IVar="11" Cut="6.7638496398925781e+01" cType="0" res="7.4777135159820318e-04" rms="3.5182762145996094e-01" purity="5.4294925928115845e-01" nType="0">
          <Node pos="l" depth="2" NCoef="0" IVar="-1" Cut="0.0000000000000000e+00" cType="1" res="2.2885439917445183e-02" rms="3.4224259853363037e-01" purity="6.0760468244552612e-01" nType="-99"/>
          <Node pos="r" depth="2" NCoef="0" IVar="-1" Cut="0.0000000000000000e+00" cType="1" res="-1.1263749562203884e-02" rms="3.5685265064239502e-01" purity="4.9939864873886108e-01" nType="-99"/>
        </Node>
        <Node pos="r" depth="1" NCoef="0" IVar="12" Cut="8.5730087280273438e+01" cType="0" res="-5.9346724301576614e-02" rms="3.5478886961936951e-01" purity="4.7431448101997375e-01" nType="0">
          <Node pos="l" depth="2" NCoef="0" IVar="-1" Cut="0.0000000000000000e+00" cType="1" res="-1.9292080402374268e-01" rms="4.2889758944511414e-01" purity="6.4368218183517456e-01" nType="-99"/>
          <Node pos="r" depth="2" NCoef="0" IVar="-1" Cut="0.0000000000000000e+00" cType="1" res="-1.8440604209899902e-02" rms="3.3311802148818970e-01" purity="4.4289672374725342e-01" nType="-99"/>
        </Node>
      </Node>
    </BinaryTree>
    <BinaryTree type="DecisionTree" boostWeight="1.0000000000000000e+00" itree="45">
      <Node pos="s" depth="0" NCoef="0" IVar="7" Cut="9.1095978021621704e-01" cType="1" res="-5.2126618102192879e-03" rms="3.5529258847236633e-01" purity="5.3885954618453979e-01" nType="0">
        <Node pos="l" depth="1" NCoef="0" IVar="1" Cut="1.3812528550624847e-01" cType="1" res="2.9388323891907930e-03" rms="3.5498660802841187e-01" purity="5.7386547327041626e-01" nType="0">
          <Node pos="l" depth="2" NCoef="0" IVar="-1" Cut="0.0000000000000000e+00" cType="1" res="4.3288931250572205e-02" rms="3.2445064187049866e-01" purity="6.4972013235092163e-01" nType="-99"/>
          <Node pos="r" depth="2" NCoef="0" IVar="-1" Cut="0.0000000000000000e+00" cType="1" res="-4.1273972019553185e-03" rms="3.5974484682083130e-01" purity="5.5961519479751587e-01" nType="-99"/>
        </Node>
        <Node pos="r" depth="1" NCoef="0" IVar="6" Cut="4.9011549353599548e-01" cType="1" res="-4.0197938680648804e-02" rms="3.5448047518730164e-01" purity="3.8861805200576782e-01" nType="0">
          <Node pos="l" depth="2" NCoef="0" IVar="-1" Cut="0.0000000000000000e+00" cType="1" res="8.4136426448822021e-02" rms="3.1420633196830750e-01" purity="6.6614246368408203e-01" nType="-99"/>
          <Node pos="r" depth="2" NCoef="0" IVar="-1" Cut="0.0000000000000000e+00" cType="1" res="-2.9971674084663391e-02" rms="3.5558602213859558e-01" purity="3.4311416745185852e-01" nType="-99"/>
        </Node>
      </Node>
    </BinaryTree>
    <BinaryTree type="DecisionTree" boostWeight="1.0000000000000000e+00" itree="46">
      <Node pos="s" depth="0" NCoef="0" IVar="5" Cut="2.5938909500837326e-02" cType="0" res="-2.2087204270064831e-03" rms="3.5137715935707092e-01" purity="5.4181641340255737e-01" nType="0">
        <Node pos="l" depth="1" NCoef="0" IVar="2" Cut="2.8091781616210938e+02" cType="0" res="2.0406901836395264e-02" rms="3.3791273832321167e-01" purity="6.5238833427429199e-01" nType="0">
          <Node pos="l" depth="2" NCoef="0" IVar="-1" Cut="0.0000000000000000e+00" cType="1" res="3.0163741111755371e-01" rms="2.6666679978370667e-01" purity="9.1253483295440674e-01" nType="-99"/>
          <Node pos="r" depth="2" NCoef="0" IVar="-1" Cut="0.0000000000000000e+00" cType="1" res="1.2117341160774231e-02" rms="3.3965504169464111e-01" purity="6.4068728685379028e-01" nType="-99"/>
        </Node>
        <Node pos="r" depth="1" NCoef="0" IVar="2" Cut="2.2718046569824219e+02" cType="1" res="-1.6930373385548592e-02" rms="3.5910668969154358e-01" purity="4.6983960270881653e-01" nType="0">
          <Node pos="l" depth="2" NCoef="0" IVar="-1" Cut="0.0000000000000000e+00" cType="1" res="-4.1220472194254398e-03" rms="3.4905338287353516e-01" purity="4.7325530648231506e-01" nType="-99"/>
          <Node pos="r" depth="2" NCoef="0" IVar="-1" Cut="0.0000000000000000e+00" cType="1" res="-3.6282368004322052e-02" rms="4.0660929679870605e-01" purity="4.5050618052482605e-01" nType="-99"/>
        </Node>
      </Node>
    </BinaryTree>
    <BinaryTree type="DecisionTree" boostWeight="1.0000000000000000e+00" itree="47">
      <Node pos="s" depth="0" NCoef="0" IVar="2" Cut="1.6670367431640625e+02" cType="0" res="-1.0074293240904808e-02" rms="3.5524702072143555e-01" purity="5.3506267070770264e-01" nType="0">
        <Node pos="l" depth="1" NCoef="0" IVar="7" Cut="8.3819419145584106e-01" cType="1" res="6.3577173277735710e-03" rms="3.7004181742668152e-01" purity="6.3616448640823364e-01" nType="0">
          <Node pos="l" depth="2" NCoef="0" IVar="-1" Cut="0.0000000000000000e+00" cType="1" res="3.6733891814947128e-02" rms="3.5159653425216675e-01" purity="7.2346591949462891e-01" nType="-99"/>
          <Node pos="r" depth="2" NCoef="0" IVar="-1" Cut="0.0000000000000000e+00" cType="1" res="-1.4825892634689808e-02" rms="3.8482472300529480e-01" purity="5.5027741193771362e-01" nType="-99"/>
        </Node>
        <Node pos="r" depth="1" NCoef="0" IVar="11" Cut="1.0203513336181641e+02" cType="0" res="-2.8167003765702248e-02" rms="3.3728450536727905e-01" purity="4.2374294996261597e-01" nType="0">
          <Node pos="l" depth="2" NCoef="0" IVar="-1" Cut="0.0000000000000000e+00" cType="1" res="2.7381848543882370e-02" rms="3.4782084822654724e-01" purity="6.0182219743728638e-01" nType="-99"/>
          <Node pos="r" depth="2" NCoef="0" IVar="-1" Cut="0.0000000000000000e+00" cType="1" res="-2.2804880514740944e-02" rms="3.3386328816413879e-01" purity="3.8983720541000366e-01" nType="-99"/>
        </Node>
      </Node>
    </BinaryTree>
    <BinaryTree type="DecisionTree" boostWeight="1.0000000000000000e+00" itree="48">
      <Node pos="s" depth="0" NCoef="0" IVar="2" Cut="2.2394123840332031e+02" cType="0" res="-9.6413344144821167e-03" rms="3.5408493876457214e-01" purity="5.3373593091964722e-01" nType="0">
        <Node pos="l" depth="1" NCoef="0" IVar="1" Cut="2.0297728478908539e-01" cType="0" res="-5.0480898469686508e-02" rms="3.9680591225624084e-01" purity="5.4042804241180420e-01" nType="0">
          <Node pos="l" depth="2" NCoef="0" IVar="-1" Cut="0.0000000000000000e+00" cType="1" res="-3.0217175371944904e-03" rms="3.9265733957290649e-01" purity="6.4911758899688721e-01" nType="-99"/>
          <Node pos="r" depth="2" NCoef="0" IVar="-1" Cut="0.0000000000000000e+00" cType="1" res="-5.3625378757715225e-02" rms="3.9131674170494080e-01" purity="3.5756096243858337e-01" nType="-99"/>
        </Node>
        <Node pos="r" depth="1" NCoef="0" IVar="2" Cut="1.6015348815917969e+02" cType="0" res="-2.3769438266754150e-03" rms="3.4542819857597351e-01" purity="5.3254556655883789e-01" nType="0">
          <Node pos="l" depth="2" NCoef="0" IVar="-1" Cut="0.0000000000000000e+00" cType="1" res="1.2111381627619267e-02" rms="3.5536289215087891e-01" purity="6.5365761518478394e-01" nType="-99"/>
          <Node pos="r" depth="2" NCoef="0" IVar="-1" Cut="0.0000000000000000e+00" cType="1" res="-1.3789908960461617e-02" rms="3.3190676569938660e-01" purity="3.8736340403556824e-01" nType="-99"/>
        </Node>
      </Node>
    </BinaryTree>
    <BinaryTree type="DecisionTree" boostWeight="1.0000000000000000e+00" itree="49">
      <Node pos="s" depth="0" NCoef="0" IVar="3" Cut="2.6141495704650879e+00" cType="0" res="-1.0568137280642986e-02" rms="3.5489922761917114e-01" purity="5.3176569938659668e-01" nType="0">
        <Node pos="l" depth="1" NCoef="0" IVar="12" Cut="5.7027118682861328e+01" cType="0" res="1.6224713623523712e-01" rms="2.3934702575206757e-01" purity="8.8233596086502075e-01" nType="0">
          <Node pos="l" depth="2" NCoef="0" IVar="-1" Cut="0.0000000000000000e+00" cType="1" res="2.0066571235656738e+00" rms="8.8168881833553314e-02" purity="1.0000000000000000e+00" nType="-99"/>
          <Node pos="r" depth="2" NCoef="0" IVar="-1" Cut="0.0000000000000000e+00" cType="1" res="3.9891240000724792e-01" rms="3.5309898853302002e-01" purity="6.6236615180969238e-01" nType="-99"/>
        </Node>
        <Node pos="r" depth="1" NCoef="0" IVar="8" Cut="1.3024988174438477e+01" cType="0" res="-1.3478799723088741e-02" rms="3.5580682754516602e-01" purity="5.2586114406585693e-01" nType="0">
          <Node pos="l" depth="2" NCoef="0" IVar="-1" Cut="0.0000000000000000e+00" cType="1" res="-2.2651996463537216e-02" rms="3.7915593385696411e-01" purity="5.5919712781906128e-01" nType="-99"/>
          <Node pos="r" depth="2" NCoef="0" IVar="-1" Cut="0.0000000000000000e+00" cType="1" res="3.6548890057019889e-04" rms="3.3838137984275818e-01" purity="5.0331115722656250e-01" nType="-99"/>
        </Node>
      </Node>
    </BinaryTree>
    <BinaryTree type="DecisionTree" boostWeight="1.0000000000000000e+00" itree="50">
      <Node pos="s" depth="0" NCoef="0" IVar="10" Cut="2.7992122650146484e+01" cType="1" res="-5.9326444752514362e-03" rms="3.5054409503936768e-01" purity="5.3602534532546997e-01" nType="0">
        <Node pos="l" depth="1" NCoef="0" IVar="11" Cut="5.1212619781494141e+01" cType="0" res="-2.5174540933221579e-03" rms="3.4839937090873718e-01" purity="5.3835833072662354e-01" nType="0">
          <Node pos="l" depth="2" NCoef="0" IVar="-1" Cut="0.0000000000000000e+00" cType="1" res="7.3302807286381721e-03" rms="3.4924653172492981e-01" purity="5.7342618703842163e-01" nType="-99"/>
          <Node pos="r" depth="2" NCoef="0" IVar="-1" Cut="0.0000000000000000e+00" cType="1" res="-1.9038319587707520e-02" rms="3.4433078765869141e-01" purity="4.5153835415840149e-01" nType="-99"/>
        </Node>
        <Node pos="r" depth="1" NCoef="0" IVar="12" Cut="8.3106376647949219e+01" cType="1" res="-9.3508094549179077e-02" rms="3.9160227775573730e-01" purity="4.7620174288749695e-01" nType="0">
          <Node pos="l" depth="2" NCoef="0" IVar="-1" Cut="0.0000000000000000e+00" cType="1" res="-1.0759015567600727e-02" rms="3.4205195307731628e-01" purity="4.9166926741600037e-01" nType="-99"/>
          <Node pos="r" depth="2" NCoef="0" IVar="-1" Cut="0.0000000000000000e+00" cType="1" res="-1.4435432851314545e-01" rms="4.4125887751579285e-01" purity="4.3051818013191223e-01" nType="-99"/>
        </Node>
      </Node>
    </BinaryTree>
    <BinaryTree type="DecisionTree" boostWeight="1.0000000000000000e+00" itree="51">
      <Node pos="s" depth="0" NCoef="0" IVar="12" Cut="1.6436054229736328e+01" cType="0" res="-7.7039310708642006e-03" rms="3.5200682282447815e-01" purity="5.3279560804367065e-01" nType="0">
        <Node pos="l" depth="1" NCoef="0" IVar="3" Cut="-2.6786248683929443e+00" cType="1" res="1.8829238251782954e-04" rms="3.5085168480873108e-01" purity="6.1092168092727661e-01" nType="0">
          <Node pos="l" depth="2" NCoef="0" IVar="-1" Cut="0.0000000000000000e+00" cType="1" res="4.0011310577392578e-01" rms="2.3005591332912445e-01" purity="8.9556103944778442e-01" nType="-99"/>
          <Node pos="r" depth="2" NCoef="0" IVar="-1" Cut="0.0000000000000000e+00" cType="1" res="-1.7285357462242246e-03" rms="3.5208848118782043e-01" purity="6.0591053962707520e-01" nType="-99"/>
        </Node>
        <Node pos="r" depth="1" NCoef="0" IVar="2" Cut="3.0876089477539062e+02" cType="0" res="-4.0568258613348007e-02" rms="3.5489466786384583e-01" purity="2.0746769011020660e-01" nType="0">
          <Node pos="l" depth="2" NCoef="0" IVar="-1" Cut="0.0000000000000000e+00" cType="1" res="-6.3888788223266602e-02" rms="3.7281790375709534e-01" purity="2.3978002369403839e-01" nType="-99"/>
          <Node pos="r" depth="2" NCoef="0" IVar="-1" Cut="0.0000000000000000e+00" cType="1" res="-1.3903508894145489e-02" rms="3.5162991285324097e-01" purity="2.0493893325328827e-01" nType="-99"/>
        </Node>
      </Node>
    </BinaryTree>
    <BinaryTree type="DecisionTree" boostWeight="1.0000000000000000e+00" itree="52">
      <Node pos="s" depth="0" NCoef="0" IVar="10" Cut="1.7041465759277344e+01" cType="1" res="-7.1968445554375648e-03" rms="3.5515192151069641e-01" purity="5.3937959671020508e-01" nType="0">
        <Node pos="l" depth="1" NCoef="0" IVar="0" Cut="1.0307261657714844e+02" cType="0" res="6.0418888460844755e-04" rms="3.5538220405578613e-01" purity="5.5381458997726440e-01" nType="0">
          <Node pos="l" depth="2" NCoef="0" IVar="-1" Cut="0.0000000000000000e+00" cType="1" res="-2.1910953521728516e-01" rms="4.2214575409889221e-01" purity="7.6384532451629639e-01" nType="-99"/>
          <Node pos="r" depth="2" NCoef="0" IVar="-1" Cut="0.0000000000000000e+00" cType="1" res="3.0576754361391068e-03" rms="3.5229375958442688e-01" purity="5.4688638448715210e-01" nType="-99"/>
        </Node>
        <Node pos="r" depth="1" NCoef="0" IVar="11" Cut="1.5246664428710938e+02" cType="0" res="-3.5359770059585571e-02" rms="3.5288715362548828e-01" purity="4.8726716637611389e-01" nType="0">
          <Node pos="l" depth="2" NCoef="0" IVar="-1" Cut="0.0000000000000000e+00" cType="1" res="5.3911853581666946e-02" rms="3.0448526144027710e-01" purity="7.7280658483505249e-01" nType="-99"/>
          <Node pos="r" depth="2" NCoef="0" IVar="-1" Cut="0.0000000000000000e+00" cType="1" res="-3.2348576933145523e-02" rms="3.6083093285560608e-01" purity="4.1600817441940308e-01" nType="-99"/>
        </Node>
      </Node>
    </BinaryTree>
    <BinaryTree type="DecisionTree" boostWeight="1.0000000000000000e+00" itree="53">
      <Node pos="s" depth="0" NCoef="0" IVar="11" Cut="7.6207511901855469e+01" cType="0" res="1.4892627950757742e-03" rms="3.4842678904533386e-01" purity="5.4019981622695923e-01" nType="0">
        <Node pos="l" depth="1" NCoef="0" IVar="7" Cut="9.0046519041061401e-01" cType="1" res="2.1296773105859756e-02" rms="3.4189921617507935e-01" purity="5.8688902854919434e-01" nType="0">
          <Node pos="l" depth="2" NCoef="0" IVar="-1" Cut="0.0000000000000000e+00" cType="1" res="3.5336654633283615e-02" rms="3.3628690242767334e-01" purity="6.5994662046432495e-01" nType="-99"/>
          <Node pos="r" depth="2" NCoef="0" IVar="-1" Cut="0.0000000000000000e+00" cType="1" res="-1.2535218149423599e-02" rms="3.5095080733299255e-01" purity="4.1619825363159180e-01" nType="-99"/>
        </Node>
        <Node pos="r" depth="1" NCoef="0" IVar="10" Cut="1.3160578727722168e+01" cType="1" res="-1.0518263094127178e-02" rms="3.5178244113922119e-01" purity="5.1189631223678589e-01" nType="0">
          <Node pos="l" depth="2" NCoef="0" IVar="-1" Cut="0.0000000000000000e+00" cType="1" res="3.4207941498607397e-03" rms="3.4875220060348511e-01" purity="5.4489499330520630e-01" nType="-99"/>
          <Node pos="r" depth="2" NCoef="0" IVar="-1" Cut="0.0000000000000000e+00" cType="1" res="-3.4898664802312851e-02" rms="3.5692191123962402e-01" purity="3.9500558376312256e-01" nType="-99"/>
        </Node>
      </Node>
    </BinaryTree>
    <BinaryTree type="DecisionTree" boostWeight="1.0000000000000000e+00" itree="54">
      <Node pos="s" depth="0" NCoef="0" IVar="6" Cut="9.3054813146591187e-01" cType="1" res="-7.8374370932579041e-03" rms="3.5117059946060181e-01" purity="5.3932058811187744e-01" nType="0">
        <Node pos="l" depth="1" NCoef="0" IVar="9" Cut="8.1099853515625000e+01" cType="0" res="-5.6171705946326256e-03" rms="3.5129249095916748e-01" purity="5.4670065641403198e-01" nType="0">
          <Node pos="l" depth="2" NCoef="0" IVar="-1" Cut="0.0000000000000000e+00" cType="1" res="1.4686320908367634e-02" rms="3.6295348405838013e-01" purity="6.5918260812759399e-01" nType="-99"/>
          <Node pos="r" depth="2" NCoef="0" IVar="-1" Cut="0.0000000000000000e+00" cType="1" res="-9.2971827834844589e-03" rms="3.4617614746093750e-01" purity="5.0241649150848389e-01" nType="-99"/>
        </Node>
        <Node pos="r" depth="1" NCoef="0" IVar="-1" Cut="0.0000000000000000e+00" cType="1" res="-4.7201778739690781e-02" rms="3.2607066631317139e-01" purity="1.6845980286598206e-01" nType="-99"/>
      </Node>
    </BinaryTree>
    <BinaryTree type="DecisionTree" boostWeight="1.0000000000000000e+00" itree="55">
      <Node pos="s" depth="0" NCoef="0" IVar="8" Cut="1.5142860412597656e+01" cType="0" res="-2.8125045355409384e-03" rms="3.4704926609992981e-01" purity="5.3551065921783447e-01" nType="0">
        <Node pos="l" depth="1" NCoef="0" IVar="0" Cut="6.8510787963867188e+01" cType="0" res="-3.7182569503784180e-02" rms="3.7546041607856750e-01" purity="5.4517710208892822e-01" nType="0">
          <Node pos="l" depth="2" NCoef="0" IVar="-1" Cut="0.0000000000000000e+00" cType="1" res="-1.1518822610378265e-01" rms="4.0487462282180786e-01" purity="7.1953290700912476e-01" nType="-99"/>
          <Node pos="r" depth="2" NCoef="0" IVar="-1" Cut="0.0000000000000000e+00" cType="1" res="-1.1261298321187496e-02" rms="3.6561888456344604e-01" purity="5.0274848937988281e-01" nType="-99"/>
        </Node>
        <Node pos="r" depth="1" NCoef="0" IVar="9" Cut="7.4844512939453125e+01" cType="0" res="8.5756564512848854e-03" rms="3.3633401989936829e-01" purity="5.3230786323547363e-01" nType="0">
          <Node pos="l" depth="2" NCoef="0" IVar="-1" Cut="0.0000000000000000e+00" cType="1" res="6.4835116267204285e-02" rms="3.2387551665306091e-01" purity="7.4867391586303711e-01" nType="-99"/>
          <Node pos="r" depth="2" NCoef="0" IVar="-1" Cut="0.0000000000000000e+00" cType="1" res="-2.7990157250314951e-03" rms="3.3791115880012512e-01" purity="4.8113951086997986e-01" nType="-99"/>
        </Node>
      </Node>
    </BinaryTree>
    <BinaryTree type="DecisionTree" boostWeight="1.0000000000000000e+00" itree="56">
      <Node pos="s" depth="0" NCoef="0" IVar="10" Cut="1.4710191726684570e+01" cType="1" res="-4.8117670230567455e-03" rms="3.5203933715820312e-01" purity="5.3688466548919678e-01" nType="0">
        <Node pos="l" depth="1" NCoef="0" IVar="9" Cut="5.8729515075683594e+01" cType="0" res="1.1279062367975712e-02" rms="3.4793114662170410e-01" purity="5.6232327222824097e-01" nType="0">
          <Node pos="l" depth="2" NCoef="0" IVar="-1" Cut="0.0000000000000000e+00" cType="1" res="2.9006952419877052e-02" rms="3.4488502144813538e-01" purity="6.7357861995697021e-01" nType="-99"/>
          <Node pos="r" depth="2" NCoef="0" IVar="-1" Cut="0.0000000000000000e+00" cType="1" res="-9.5779616385698318e-03" rms="3.4951609373092651e-01" purity="4.3197101354598999e-01" nType="-99"/>
        </Node>
        <Node pos="r" depth="1" NCoef="0" IVar="0" Cut="2.4322538375854492e+01" cType="0" res="-3.6271657794713974e-02" rms="3.5785189270973206e-01" purity="4.8714849352836609e-01" nType="0">
          <Node pos="l" depth="2" NCoef="0" IVar="-1" Cut="0.0000000000000000e+00" cType="1" res="-3.6539975553750992e-02" rms="3.6825001239776611e-01" purity="5.7478666305541992e-01" nType="-99"/>
          <Node pos="r" depth="2" NCoef="0" IVar="-1" Cut="0.0000000000000000e+00" cType="1" res="5.5810487829148769e-03" rms="3.2480639219284058e-01" purity="2.6075133681297302e-01" nType="-99"/>
        </Node>
      </Node>
    </BinaryTree>
    <BinaryTree type="DecisionTree" boostWeight="1.0000000000000000e+00" itree="57">
      <Node pos="s" depth="0" NCoef="0" IVar="10" Cut="1.1582192420959473e+01" cType="1" res="-2.8116528410464525e-03" rms="3.5095992684364319e-01" purity="5.4230540990829468e-01" nType="0">
        <Node pos="l" depth="1" NCoef="0" IVar="11" Cut="5.7872772216796875e+01" cType="0" res="1.7392596229910851e-02" rms="3.4529137611389160e-01" purity="5.9163898229598999e-01" nType="0">
          <Node pos="l" depth="2" NCoef="0" IVar="-1" Cut="0.0000000000000000e+00" cType="1" res="4.7998782247304916e-02" rms="3.2539370656013489e-01" purity="6.9823199510574341e-01" nType="-99"/>
          <Node pos="r" depth="2" NCoef="0" IVar="-1" Cut="0.0000000000000000e+00" cType="1" res="1.4521556440740824e-03" rms="3.5317221283912659e-01" purity="5.4184401035308838e-01" nType="-99"/>
        </Node>
        <Node pos="r" depth="1" NCoef="0" IVar="11" Cut="5.0864608764648438e+01" cType="0" res="-1.7019029706716537e-02" rms="3.5420227050781250e-01" purity="5.0761473178863525e-01" nType="0">
          <Node pos="l" depth="2" NCoef="0" IVar="-1" Cut="0.0000000000000000e+00" cType="1" res="-6.4517268911004066e-03" rms="3.5366243124008179e-01" purity="5.2400332689285278e-01" nType="-99"/>
          <Node pos="r" depth="2" NCoef="0" IVar="-1" Cut="0.0000000000000000e+00" cType="1" res="-4.5197039842605591e-02" rms="3.4992215037345886e-01" purity="3.2993859052658081e-01" nType="-99"/>
        </Node>
      </Node>
    </BinaryTree>
    <BinaryTree type="DecisionTree" boostWeight="1.0000000000000000e+00" itree="58">
      <Node pos="s" depth="0" NCoef="0" IVar="1" Cut="1.9826014339923859e-01" cType="0" res="-5.3697829134762287e-03" rms="3.5178580880165100e-01" purity="5.3959333896636963e-01" nType="0">
        <Node pos="l" depth="1" NCoef="0" IVar="0" Cut="5.4981685638427734e+01" cType="0" res="-1.9028915092349052e-02" rms="3.5995578765869141e-01" purity="5.3994530439376831e-01" nType="0">
          <Node pos="l" depth="2" NCoef="0" IVar="-1" Cut="0.0000000000000000e+00" cType="1" res="-7.5143627822399139e-02" rms="3.8253286480903625e-01" purity="7.6402711868286133e-01" nType="-99"/>
          <Node pos="r" depth="2" NCoef="0" IVar="-1" Cut="0.0000000000000000e+00" cType="1" res="-1.2248804559931159e-03" rms="3.4888431429862976e-01" purity="4.4819447398185730e-01" nType="-99"/>
        </Node>
        <Node pos="r" depth="1" NCoef="0" IVar="2" Cut="2.2878300476074219e+02" cType="1" res="2.0228533074259758e-02" rms="3.3444091677665710e-01" purity="5.3893375396728516e-01" nType="0">
          <Node pos="l" depth="2" NCoef="0" IVar="-1" Cut="0.0000000000000000e+00" cType="1" res="2.7906050905585289e-02" rms="3.2354232668876648e-01" purity="5.6355118751525879e-01" nType="-99"/>
          <Node pos="r" depth="2" NCoef="0" IVar="-1" Cut="0.0000000000000000e+00" cType="1" res="-3.9525549858808517e-02" rms="3.7927407026290894e-01" purity="3.8328498601913452e-01" nType="-99"/>
        </Node>
      </Node>
    </BinaryTree>
    <BinaryTree type="DecisionTree" boostWeight="1.0000000000000000e+00" itree="59">
      <Node pos="s" depth="0" NCoef="0" IVar="11" Cut="1.3776013183593750e+02" cType="0" res="-2.6879718061536551e-03" rms="3.4797361493110657e-01" purity="5.3267818689346313e-01" nType="0">
        <Node pos="l" depth="1" NCoef="0" IVar="7" Cut="7.3221021890640259e-01" cType="0" res="5.2113447338342667e-02" rms="3.2122769951820374e-01" purity="7.2218847274780273e-01" nType="0">
          <Node pos="l" depth="2" NCoef="0" IVar="-1" Cut="0.0000000000000000e+00" cType="1" res="8.0501042306423187e-02" rms="3.0175516009330750e-01" purity="7.3483294248580933e-01" nType="-99"/>
          <Node pos="r" depth="2" NCoef="0" IVar="-1" Cut="0.0000000000000000e+00" cType="1" res="-1.0441476106643677e-01" rms="4.3403261899948120e-01" purity="5.7694005966186523e-01" nType="-99"/>
        </Node>
        <Node pos="r" depth="1" NCoef="0" IVar="6" Cut="6.8375009298324585e-01" cType="1" res="-6.9392966106534004e-03" rms="3.4960418939590454e-01" purity="5.1797658205032349e-01" nType="0">
          <Node pos="l" depth="2" NCoef="0" IVar="-1" Cut="0.0000000000000000e+00" cType="1" res="5.0916620530188084e-03" rms="3.4620812535285950e-01" purity="6.1754059791564941e-01" nType="-99"/>
          <Node pos="r" depth="2" NCoef="0" IVar="-1" Cut="0.0000000000000000e+00" cType="1" res="-1.5366762876510620e-02" rms="3.5399150848388672e-01" purity="3.5467958450317383e-01" nType="-99"/>
        </Node>
      </Node>
    </BinaryTree>
    <BinaryTree type="DecisionTree" boostWeight="1.0000000000000000e+00" itree="60">
      <Node pos="s" depth="0" NCoef="0" IVar="5" Cut="8.2758478820323944e-02" cType="0" res="6.7895749816671014e-04" rms="3.4464818239212036e-01" purity="5.4143929481506348e-01" nType="0">
        <Node pos="l" depth="1" NCoef="0" IVar="7" Cut="7.5884175300598145e-01" cType="1" res="4.6499483287334442e-02" rms="3.1225124001502991e-01" purity="7.4790453910827637e-01" nType="0">
          <Node pos="l" depth="2" NCoef="0" IVar="-1" Cut="0.0000000000000000e+00" cType="1" res="1.1775668710470200e-01" rms="2.6401004195213318e-01" purity="7.9947888851165771e-01" nType="-99"/>
          <Node pos="r" depth="2" NCoef="0" IVar="-1" Cut="0.0000000000000000e+00" cType="1" res="4.8701735213398933e-03" rms="3.6671698093414307e-01" purity="6.7389792203903198e-01" nType="-99"/>
        </Node>
        <Node pos="r" depth="1" NCoef="0" IVar="0" Cut="6.2144809722900391e+01" cType="0" res="-5.9017660096287727e-03" rms="3.4855985641479492e-01" purity="5.1178687810897827e-01" nType="0">
          <Node pos="l" depth="2" NCoef="0" IVar="-1" Cut="0.0000000000000000e+00" cType="1" res="7.4366942048072815e-02" rms="3.0919948220252991e-01" purity="8.6724948883056641e-01" nType="-99"/>
          <Node pos="r" depth="2" NCoef="0" IVar="-1" Cut="0.0000000000000000e+00" cType="1" res="-8.6104590445756912e-03" rms="3.5561379790306091e-01" purity="4.3653115630149841e-01" nType="-99"/>
        </Node>
      </Node>
    </BinaryTree>
    <BinaryTree type="DecisionTree" boostWeight="1.0000000000000000e+00" itree="61">
      <Node pos="s" depth="0" NCoef="0" IVar="12" Cut="2.9580308914184570e+01" cType="0" res="-7.6814154163002968e-03" rms="3.4495198726654053e-01" purity="5.3249299526214600e-01" nType="0">
        <Node pos="l" depth="1" NCoef="0" IVar="0" Cut="1.1436789512634277e+01" cType="0" res="3.2583852298557758e-03" rms="3.3662521839141846e-01" purity="6.8745577335357666e-01" nType="0">
          <Node pos="l" depth="2" NCoef="0" IVar="-1" Cut="0.0000000000000000e+00" cType="1" res="-1.9196233479306102e-03" rms="3.3361423015594482e-01" purity="6.9063222408294678e-01" nType="-99"/>
          <Node pos="r" depth="2" NCoef="0" IVar="-1" Cut="0.0000000000000000e+00" cType="1" res="1.6575978696346283e-01" rms="3.8261473178863525e-01" purity="5.6593513488769531e-01" nType="-99"/>
        </Node>
        <Node pos="r" depth="1" NCoef="0" IVar="0" Cut="2.0552843093872070e+01" cType="0" res="-2.8784779831767082e-02" rms="3.5953253507614136e-01" purity="2.3356264829635620e-01" nType="0">
          <Node pos="l" depth="2" NCoef="0" IVar="-1" Cut="0.0000000000000000e+00" cType="1" res="-2.6071551255881786e-03" rms="3.9575943350791931e-01" purity="3.2634007930755615e-01" nType="-99"/>
          <Node pos="r" depth="2" NCoef="0" IVar="-1" Cut="0.0000000000000000e+00" cType="1" res="-2.3900480940937996e-02" rms="3.1384345889091492e-01" purity="1.3335247337818146e-01" nType="-99"/>
        </Node>
      </Node>
    </BinaryTree>
    <BinaryTree type="DecisionTree" boostWeight="1.0000000000000000e+00" itree="62">
      <Node pos="s" depth="0" NCoef="0" IVar="10" Cut="2.7719675064086914e+01" cType="1" res="-8.6245443671941757e-03" rms="3.4808969497680664e-01" purity="5.3199249505996704e-01" nType="0">
        <Node pos="l" depth="1" NCoef="0" IVar="11" Cut="8.1110649108886719e+01" cType="0" res="-5.9576421044766903e-03" rms="3.4667342901229858e-01" purity="5.3437566757202148e-01" nType="0">
          <Node pos="l" depth="2" NCoef="0" IVar="-1" Cut="0.0000000000000000e+00" cType="1" res="1.3898715376853943e-02" rms="3.4397846460342407e-01" purity="6.0552746057510376e-01" nType="-99"/>
          <Node pos="r" depth="2" NCoef="0" IVar="-1" Cut="0.0000000000000000e+00" cType="1" res="-1.0241817682981491e-02" rms="3.4735819697380066e-01" purity="5.0371032953262329e-01" nType="-99"/>
        </Node>
        <Node pos="r" depth="1" NCoef="0" IVar="11" Cut="1.5982057189941406e+02" cType="0" res="-7.4836678802967072e-02" rms="3.7554642558097839e-01" purity="4.7282382845878601e-01" nType="0">
          <Node pos="l" depth="2" NCoef="0" IVar="-1" Cut="0.0000000000000000e+00" cType="1" res="2.1622793748974800e-02" rms="2.7531325817108154e-01" purity="7.2815263271331787e-01" nType="-99"/>
          <Node pos="r" depth="2" NCoef="0" IVar="-1" Cut="0.0000000000000000e+00" cType="1" res="-6.5629012882709503e-02" rms="4.2574808001518250e-01" purity="2.5380817055702209e-01" nType="-99"/>
        </Node>
      </Node>
    </BinaryTree>
    <BinaryTree type="DecisionTree" boostWeight="1.0000000000000000e+00" itree="63">
      <Node pos="s" depth="0" NCoef="0" IVar="10" Cut="1.9451465606689453e+01" cType="1" res="4.8689381219446659e-04" rms="3.4447041153907776e-01" purity="5.4407125711441040e-01" nType="0">
        <Node pos="l" depth="1" NCoef="0" IVar="7" Cut="9.1041386127471924e-01" cType="1" res="7.4417199939489365e-03" rms="3.4232091903686523e-01" purity="5.5256658792495728e-01" nType="0">
