<?xml version="1.0"?>
<MethodSetup Method="BDT::qcdBDTGrad_ele_with_met_top_mass_bjet_pt_isotropy_aplanarity">
  <GeneralInfo>
    <Info name="TMVA Release" value="4.1.2 [262402]"/>
    <Info name="ROOT Release" value="5.32/00 [335872]"/>
    <Info name="Creator" value="andres"/>
    <Info name="Date" value="Fri Mar 14 03:17:05 2014"/>
    <Info name="Host" value="Linux lxbuild168.cern.ch 2.6.18-308.16.1.el5 #1 SMP Thu Oct 4 14:02:28 CEST 2012 x86_64 x86_64 x86_64 GNU/Linux"/>
    <Info name="Dir" value="/home/andres/single_top/stpol/src/qcd_mva"/>
    <Info name="Training events" value="155786"/>
    <Info name="TrainingTime" value="1.57387969e+01"/>
    <Info name="AnalysisType" value="Classification"/>
  </GeneralInfo>
  <Options>
    <Option name="V" modified="Yes">True</Option>
    <Option name="VerbosityLevel" modified="No">Verbose</Option>
    <Option name="VarTransform" modified="No">None</Option>
    <Option name="H" modified="Yes">False</Option>
    <Option name="CreateMVAPdfs" modified="No">False</Option>
    <Option name="IgnoreNegWeightsInTraining" modified="No">False</Option>
    <Option name="NTrees" modified="Yes">50</Option>
    <Option name="RenormByClass" modified="No">False</Option>
    <Option name="BoostType" modified="Yes">Grad</Option>
    <Option name="AdaBoostR2Loss" modified="No">quadratic</Option>
    <Option name="UseBaggedGrad" modified="Yes">False</Option>
    <Option name="GradBaggingFraction" modified="No">6.000000e-01</Option>
    <Option name="Shrinkage" modified="Yes">1.000000e-01</Option>
    <Option name="AdaBoostBeta" modified="No">1.000000e+00</Option>
    <Option name="UseRandomisedTrees" modified="No">False</Option>
    <Option name="UseNvars" modified="No">2</Option>
    <Option name="UsePoissonNvars" modified="No">True</Option>
    <Option name="UseNTrainEvents" modified="No">155786</Option>
    <Option name="UseWeightedTrees" modified="No">True</Option>
    <Option name="UseYesNoLeaf" modified="No">True</Option>
    <Option name="NodePurityLimit" modified="No">5.000000e-01</Option>
    <Option name="SeparationType" modified="Yes">crossentropy</Option>
    <Option name="nEventsMin" modified="Yes">250</Option>
    <Option name="nCuts" modified="Yes">200</Option>
    <Option name="UseFisherCuts" modified="No">False</Option>
    <Option name="MinLinCorrForFisher" modified="No">8.000000e-01</Option>
    <Option name="UseExclusiveVars" modified="No">False</Option>
    <Option name="PruneStrength" modified="Yes">7.000000e+00</Option>
    <Option name="PruneMethod" modified="Yes">costcomplexity</Option>
    <Option name="PruneBeforeBoost" modified="No">False</Option>
    <Option name="PruningValFraction" modified="No">5.000000e-01</Option>
    <Option name="NNodesMax" modified="No">100000</Option>
    <Option name="MaxDepth" modified="Yes">2</Option>
    <Option name="DoBoostMonitor" modified="No">False</Option>
    <Option name="NegWeightTreatment" modified="No">ignorenegweights</Option>
  </Options>
  <Variables NVar="5">
    <Variable VarIndex="0" Expression="met" Label="met" Title="met" Unit="" Internal="met" Type="D" Min="2.29342636e-02" Max="5.19555725e+02"/>
    <Variable VarIndex="1" Expression="top_mass" Label="top_mass" Title="top_mass" Unit="" Internal="top_mass" Type="D" Min="9.24740753e+01" Max="1.84196875e+03"/>
    <Variable VarIndex="2" Expression="bjet_pt" Label="bjet_pt" Title="bjet_pt" Unit="" Internal="bjet_pt" Type="D" Min="4.00002251e+01" Max="1.07159680e+03"/>
    <Variable VarIndex="3" Expression="isotropy" Label="isotropy" Title="isotropy" Unit="" Internal="isotropy" Type="D" Min="1.13109306e-01" Max="9.96003032e-01"/>
    <Variable VarIndex="4" Expression="aplanarity" Label="aplanarity" Title="aplanarity" Unit="" Internal="aplanarity" Type="D" Min="1.44118291e-08" Max="4.49248105e-01"/>
  </Variables>
  <Spectators NSpec="0"/>
  <Classes NClass="2">
    <Class Name="Background" Index="0"/>
    <Class Name="Signal" Index="1"/>
  </Classes>
  <Transformations NTransformations="0"/>
  <MVAPdfs/>
  <Weights NTrees="50" AnalysisType="1">
    <BinaryTree type="DecisionTree" boostWeight="1.0000000000000000e+00" itree="0">
      <Node pos="s" depth="0" NCoef="0" IVar="0" Cut="3.8794036865234375e+01" cType="0" res="-1.1749332398176193e-01" rms="4.8599928617477417e-01" purity="3.8250666856765747e-01" nType="0">
        <Node pos="l" depth="1" NCoef="0" IVar="0" Cut="5.3145343780517578e+01" cType="0" res="2.5002717971801758e-01" rms="4.3299698829650879e-01" purity="7.5002717971801758e-01" nType="0">
          <Node pos="l" depth="2" NCoef="0" IVar="-1" Cut="0.0000000000000000e+00" cType="1" res="6.0199148952960968e-02" rms="3.3763235807418823e-01" purity="8.6878770589828491e-01" nType="-99"/>
          <Node pos="r" depth="2" NCoef="0" IVar="-1" Cut="0.0000000000000000e+00" cType="1" res="1.6786446794867516e-02" rms="4.9052950739860535e-01" purity="5.9685456752777100e-01" nType="-99"/>
        </Node>
        <Node pos="r" depth="1" NCoef="0" IVar="1" Cut="2.1529376220703125e+02" cType="1" res="-2.8246358036994934e-01" rms="4.1257038712501526e-01" purity="2.1753641963005066e-01" nType="0">
          <Node pos="l" depth="2" NCoef="0" IVar="-1" Cut="0.0000000000000000e+00" cType="1" res="-4.0013115853071213e-02" rms="4.5184302330017090e-01" purity="2.8590217232704163e-01" nType="-99"/>
          <Node pos="r" depth="2" NCoef="0" IVar="-1" Cut="0.0000000000000000e+00" cType="1" res="-8.0405578017234802e-02" rms="2.7965694665908813e-01" purity="8.5522018373012543e-02" nType="-99"/>
        </Node>
      </Node>
    </BinaryTree>
    <BinaryTree type="DecisionTree" boostWeight="1.0000000000000000e+00" itree="1">
      <Node pos="s" depth="0" NCoef="0" IVar="0" Cut="3.6209297180175781e+01" cType="0" res="-1.0533612966537476e-01" rms="4.7309485077857971e-01" purity="3.8250666856765747e-01" nType="0">
        <Node pos="l" depth="1" NCoef="0" IVar="0" Cut="5.0637928009033203e+01" cType="0" res="2.0527698099613190e-01" rms="4.4272211194038391e-01" purity="7.2121554613113403e-01" nType="0">
          <Node pos="l" depth="2" NCoef="0" IVar="-1" Cut="0.0000000000000000e+00" cType="1" res="5.3718686103820801e-02" rms="3.5136482119560242e-01" purity="8.5502493381500244e-01" nType="-99"/>
          <Node pos="r" depth="2" NCoef="0" IVar="-1" Cut="0.0000000000000000e+00" cType="1" res="8.8027026504278183e-03" rms="4.9547359347343445e-01" purity="5.5075919628143311e-01" nType="-99"/>
        </Node>
        <Node pos="r" depth="1" NCoef="0" IVar="1" Cut="2.0679631042480469e+02" cType="1" res="-2.6818913221359253e-01" rms="4.0161809325218201e-01" purity="2.0492315292358398e-01" nType="0">
          <Node pos="l" depth="2" NCoef="0" IVar="-1" Cut="0.0000000000000000e+00" cType="1" res="-3.8428295403718948e-02" rms="4.4664040207862854e-01" purity="2.7525052428245544e-01" nType="-99"/>
          <Node pos="r" depth="2" NCoef="0" IVar="-1" Cut="0.0000000000000000e+00" cType="1" res="-7.2756409645080566e-02" rms="2.8410452604293823e-01" purity="8.8918536901473999e-02" nType="-99"/>
        </Node>
      </Node>
    </BinaryTree>
    <BinaryTree type="DecisionTree" boostWeight="1.0000000000000000e+00" itree="2">
      <Node pos="s" depth="0" NCoef="0" IVar="0" Cut="4.1378776550292969e+01" cType="0" res="-9.4431661069393158e-02" rms="4.6189850568771362e-01" purity="3.8250666856765747e-01" nType="0">
        <Node pos="l" depth="1" NCoef="0" IVar="1" Cut="2.2303338623046875e+02" cType="1" res="2.3663748800754547e-01" rms="4.0996691584587097e-01" purity="7.7841693162918091e-01" nType="0">
          <Node pos="l" depth="2" NCoef="0" IVar="-1" Cut="0.0000000000000000e+00" cType="1" res="5.0836924463510513e-02" rms="3.5938510298728943e-01" purity="8.4289377927780151e-01" nType="-99"/>
          <Node pos="r" depth="2" NCoef="0" IVar="-1" Cut="0.0000000000000000e+00" cType="1" res="7.4054128490388393e-03" rms="4.8443961143493652e-01" purity="5.8660233020782471e-01" nType="-99"/>
        </Node>
        <Node pos="r" depth="1" NCoef="0" IVar="0" Cut="2.6770288467407227e+01" cType="0" res="-2.2220419347286224e-01" rms="4.1496646404266357e-01" purity="2.2970943152904510e-01" nType="0">
          <Node pos="l" depth="2" NCoef="0" IVar="-1" Cut="0.0000000000000000e+00" cType="1" res="-1.5900168567895889e-02" rms="4.7764581441879272e-01" purity="3.7494665384292603e-01" nType="-99"/>
          <Node pos="r" depth="2" NCoef="0" IVar="-1" Cut="0.0000000000000000e+00" cType="1" res="-5.5402074009180069e-02" rms="3.6560845375061035e-01" purity="1.6223521530628204e-01" nType="-99"/>
        </Node>
      </Node>
    </BinaryTree>
    <BinaryTree type="DecisionTree" boostWeight="1.0000000000000000e+00" itree="3">
      <Node pos="s" depth="0" NCoef="0" IVar="0" Cut="4.3963520050048828e+01" cType="0" res="-8.4724389016628265e-02" rms="4.5222172141075134e-01" purity="3.8250666856765747e-01" nType="0">
        <Node pos="l" depth="1" NCoef="0" IVar="1" Cut="2.2303338623046875e+02" cType="1" res="2.4047066271305084e-01" rms="3.8962340354919434e-01" purity="8.0515068769454956e-01" nType="0">
          <Node pos="l" depth="2" NCoef="0" IVar="-1" Cut="0.0000000000000000e+00" cType="1" res="5.0169896334409714e-02" rms="3.3909282088279724e-01" purity="8.6426693201065063e-01" nType="-99"/>
          <Node pos="r" depth="2" NCoef="0" IVar="-1" Cut="0.0000000000000000e+00" cType="1" res="1.2868885882198811e-02" rms="4.7700858116149902e-01" purity="6.2754935026168823e-01" nType="-99"/>
        </Node>
        <Node pos="r" depth="1" NCoef="0" IVar="0" Cut="2.8223608016967773e+01" cType="0" res="-1.9359220564365387e-01" rms="4.1819986701011658e-01" purity="2.4101516604423523e-01" nType="0">
          <Node pos="l" depth="2" NCoef="0" IVar="-1" Cut="0.0000000000000000e+00" cType="1" res="-1.0465280152857304e-02" rms="4.8367121815681458e-01" purity="4.0759623050689697e-01" nType="-99"/>
          <Node pos="r" depth="2" NCoef="0" IVar="-1" Cut="0.0000000000000000e+00" cType="1" res="-4.9726545810699463e-02" rms="3.7093770503997803e-01" purity="1.6852189600467682e-01" nType="-99"/>
        </Node>
      </Node>
    </BinaryTree>
    <BinaryTree type="DecisionTree" boostWeight="1.0000000000000000e+00" itree="4">
      <Node pos="s" depth="0" NCoef="0" IVar="0" Cut="4.3963520050048828e+01" cType="0" res="-7.5998343527317047e-02" rms="4.4398397207260132e-01" purity="3.8250666856765747e-01" nType="0">
        <Node pos="l" depth="1" NCoef="0" IVar="0" Cut="6.0527351379394531e+01" cType="0" res="2.2059985995292664e-01" rms="3.8786131143569946e-01" purity="8.0515068769454956e-01" nType="0">
          <Node pos="l" depth="2" NCoef="0" IVar="-1" Cut="0.0000000000000000e+00" cType="1" res="5.1251340657472610e-02" rms="2.9638049006462097e-01" purity="9.0047514438629150e-01" nType="-99"/>
          <Node pos="r" depth="2" NCoef="0" IVar="-1" Cut="0.0000000000000000e+00" cType="1" res="2.2540723904967308e-02" rms="4.4936379790306091e-01" purity="7.0234763622283936e-01" nType="-99"/>
        </Node>
        <Node pos="r" depth="1" NCoef="0" IVar="1" Cut="2.2419009399414062e+02" cType="1" res="-1.7529259622097015e-01" rms="4.1646263003349304e-01" purity="2.4101516604423523e-01" nType="0">
          <Node pos="l" depth="2" NCoef="0" IVar="-1" Cut="0.0000000000000000e+00" cType="1" res="-2.2472534328699112e-02" rms="4.5270138978958130e-01" purity="3.0866384506225586e-01" nType="-99"/>
          <Node pos="r" depth="2" NCoef="0" IVar="-1" Cut="0.0000000000000000e+00" cType="1" res="-6.2364883720874786e-02" rms="2.7823436260223389e-01" purity="8.7449550628662109e-02" nType="-99"/>
        </Node>
      </Node>
    </BinaryTree>
    <BinaryTree type="DecisionTree" boostWeight="1.0000000000000000e+00" itree="5">
      <Node pos="s" depth="0" NCoef="0" IVar="0" Cut="3.6209297180175781e+01" cType="0" res="-6.8142212927341461e-02" rms="4.3695878982543945e-01" purity="3.8250666856765747e-01" nType="0">
        <Node pos="l" depth="1" NCoef="0" IVar="1" Cut="2.1432942199707031e+02" cType="1" res="1.5232406556606293e-01" rms="4.2638698220252991e-01" purity="7.2121554613113403e-01" nType="0">
          <Node pos="l" depth="2" NCoef="0" IVar="-1" Cut="0.0000000000000000e+00" cType="1" res="3.8927633315324783e-02" rms="3.8448908925056458e-01" purity="8.0064654350280762e-01" nType="-99"/>
          <Node pos="r" depth="2" NCoef="0" IVar="-1" Cut="0.0000000000000000e+00" cType="1" res="-3.2279656734317541e-03" rms="4.7430679202079773e-01" purity="5.2424710988998413e-01" nType="-99"/>
        </Node>
        <Node pos="r" depth="1" NCoef="0" IVar="2" Cut="5.9103065490722656e+01" cType="0" res="-1.8373166024684906e-01" rms="3.9607298374176025e-01" purity="2.0492315292358398e-01" nType="0">
          <Node pos="l" depth="2" NCoef="0" IVar="-1" Cut="0.0000000000000000e+00" cType="1" res="-2.1830020472407341e-02" rms="4.3430882692337036e-01" purity="2.7326032519340515e-01" nType="-99"/>
          <Node pos="r" depth="2" NCoef="0" IVar="-1" Cut="0.0000000000000000e+00" cType="1" res="-5.3572323173284531e-02" rms="3.3138021826744080e-01" purity="1.3022685050964355e-01" nType="-99"/>
        </Node>
      </Node>
    </BinaryTree>
    <BinaryTree type="DecisionTree" boostWeight="1.0000000000000000e+00" itree="6">
      <Node pos="s" depth="0" NCoef="0" IVar="0" Cut="3.3624557495117188e+01" cType="0" res="-6.1135273426771164e-02" rms="4.3042537569999695e-01" purity="3.8250666856765747e-01" nType="0">
        <Node pos="l" depth="1" NCoef="0" IVar="0" Cut="5.5382797241210938e+01" cType="0" res="1.2485928088426590e-01" rms="4.3238902091979980e-01" purity="6.8837952613830566e-01" nType="0">
          <Node pos="l" depth="2" NCoef="0" IVar="-1" Cut="0.0000000000000000e+00" cType="1" res="4.3744366616010666e-02" rms="3.1951910257339478e-01" purity="8.8024276494979858e-01" nType="-99"/>
          <Node pos="r" depth="2" NCoef="0" IVar="-1" Cut="0.0000000000000000e+00" cType="1" res="6.2836618162691593e-03" rms="4.7795239090919495e-01" purity="5.5087995529174805e-01" nType="-99"/>
        </Node>
        <Node pos="r" depth="1" NCoef="0" IVar="2" Cut="5.6374088287353516e+01" cType="0" res="-1.7639444768428802e-01" rms="3.8664430379867554e-01" purity="1.9295997917652130e-01" nType="0">
          <Node pos="l" depth="2" NCoef="0" IVar="-1" Cut="0.0000000000000000e+00" cType="1" res="-2.3743340745568275e-02" rms="4.2460981011390686e-01" purity="2.5286582112312317e-01" nType="-99"/>
          <Node pos="r" depth="2" NCoef="0" IVar="-1" Cut="0.0000000000000000e+00" cType="1" res="-5.3039163351058960e-02" rms="3.1390282511711121e-01" purity="1.1419725418090820e-01" nType="-99"/>
        </Node>
      </Node>
    </BinaryTree>
    <BinaryTree type="DecisionTree" boostWeight="1.0000000000000000e+00" itree="7">
      <Node pos="s" depth="0" NCoef="0" IVar="0" Cut="4.6548259735107422e+01" cType="0" res="-5.4718147963285446e-02" rms="4.2484995722770691e-01" purity="3.8250666856765747e-01" nType="0">
        <Node pos="l" depth="1" NCoef="0" IVar="1" Cut="2.8396105957031250e+02" cType="1" res="1.9243988394737244e-01" rms="3.6729773879051208e-01" purity="8.2683938741683960e-01" nType="0">
          <Node pos="l" depth="2" NCoef="0" IVar="-1" Cut="0.0000000000000000e+00" cType="1" res="3.9791360497474670e-02" rms="3.3873566985130310e-01" purity="8.6102485656738281e-01" nType="-99"/>
          <Node pos="r" depth="2" NCoef="0" IVar="-1" Cut="0.0000000000000000e+00" cType="1" res="7.7112886356189847e-04" rms="4.7879126667976379e-01" purity="5.9817707538604736e-01" nType="-99"/>
        </Node>
        <Node pos="r" depth="1" NCoef="0" IVar="1" Cut="2.0708906555175781e+02" cType="1" res="-1.2701269984245300e-01" rms="4.1320455074310303e-01" purity="2.5253787636756897e-01" nType="0">
          <Node pos="l" depth="2" NCoef="0" IVar="-1" Cut="0.0000000000000000e+00" cType="1" res="-1.2309435755014420e-02" rms="4.5187592506408691e-01" purity="3.3382481336593628e-01" nType="-99"/>
          <Node pos="r" depth="2" NCoef="0" IVar="-1" Cut="0.0000000000000000e+00" cType="1" res="-5.0675369799137115e-02" rms="3.0757194757461548e-01" purity="1.1392433941364288e-01" nType="-99"/>
        </Node>
      </Node>
    </BinaryTree>
    <BinaryTree type="DecisionTree" boostWeight="1.0000000000000000e+00" itree="8">
      <Node pos="s" depth="0" NCoef="0" IVar="0" Cut="3.1039817810058594e+01" cType="0" res="-4.9058936536312103e-02" rms="4.2002555727958679e-01" purity="3.8250666856765747e-01" nType="0">
        <Node pos="l" depth="1" NCoef="0" IVar="1" Cut="2.2303338623046875e+02" cType="1" res="9.6891239285469055e-02" rms="4.3198922276496887e-01" purity="6.5403175354003906e-01" nType="0">
          <Node pos="l" depth="2" NCoef="0" IVar="-1" Cut="0.0000000000000000e+00" cType="1" res="2.9064763337373734e-02" rms="4.0921321511268616e-01" purity="7.3536050319671631e-01" nType="-99"/>
          <Node pos="r" depth="2" NCoef="0" IVar="-1" Cut="0.0000000000000000e+00" cType="1" res="-1.3233765959739685e-02" rms="4.4788691401481628e-01" purity="4.2803418636322021e-01" nType="-99"/>
        </Node>
        <Node pos="r" depth="1" NCoef="0" IVar="2" Cut="5.9103065490722656e+01" cType="0" res="-1.5730220079421997e-01" rms="3.7596142292022705e-01" purity="1.8113136291503906e-01" nType="0">
          <Node pos="l" depth="2" NCoef="0" IVar="-1" Cut="0.0000000000000000e+00" cType="1" res="-2.0481325685977936e-02" rms="4.1899362206459045e-01" purity="2.4564579129219055e-01" nType="-99"/>
          <Node pos="r" depth="2" NCoef="0" IVar="-1" Cut="0.0000000000000000e+00" cType="1" res="-4.8353359103202820e-02" rms="3.1182527542114258e-01" purity="1.1255084723234177e-01" nType="-99"/>
        </Node>
      </Node>
    </BinaryTree>
    <BinaryTree type="DecisionTree" boostWeight="1.0000000000000000e+00" itree="9">
      <Node pos="s" depth="0" NCoef="0" IVar="0" Cut="4.3963520050048828e+01" cType="0" res="-4.4000323861837387e-02" rms="4.1549670696258545e-01" purity="3.8250666856765747e-01" nType="0">
        <Node pos="l" depth="1" NCoef="0" IVar="0" Cut="6.2893478393554688e+01" cType="0" res="1.5493145585060120e-01" rms="3.7929841876029968e-01" purity="8.0515068769454956e-01" nType="0">
          <Node pos="l" depth="2" NCoef="0" IVar="-1" Cut="0.0000000000000000e+00" cType="1" res="4.2997624725103378e-02" rms="2.8471979498863220e-01" purity="9.0741735696792603e-01" nType="-99"/>
          <Node pos="r" depth="2" NCoef="0" IVar="-1" Cut="0.0000000000000000e+00" cType="1" res="1.5539561398327351e-02" rms="4.3557041883468628e-01" purity="7.1336925029754639e-01" nType="-99"/>
        </Node>
        <Node pos="r" depth="1" NCoef="0" IVar="1" Cut="1.9861798095703125e+02" cType="1" res="-1.1059810966253281e-01" rms="4.0569132566452026e-01" purity="2.4101516604423523e-01" nType="0">
          <Node pos="l" depth="2" NCoef="0" IVar="-1" Cut="0.0000000000000000e+00" cType="1" res="-9.8716793581843376e-03" rms="4.4861817359924316e-01" purity="3.2491028308868408e-01" nType="-99"/>
          <Node pos="r" depth="2" NCoef="0" IVar="-1" Cut="0.0000000000000000e+00" cType="1" res="-4.4400885701179504e-02" rms="3.1493052840232849e-01" purity="1.2136771529912949e-01" nType="-99"/>
        </Node>
      </Node>
    </BinaryTree>
    <BinaryTree type="DecisionTree" boostWeight="1.0000000000000000e+00" itree="10">
      <Node pos="s" depth="0" NCoef="0" IVar="0" Cut="3.3624557495117188e+01" cType="0" res="-3.9362531155347824e-02" rms="4.1181391477584839e-01" purity="3.8250666856765747e-01" nType="0">
        <Node pos="l" depth="1" NCoef="0" IVar="1" Cut="2.4044128417968750e+02" cType="1" res="9.7857475280761719e-02" rms="4.2090308666229248e-01" purity="6.8837952613830566e-01" nType="0">
          <Node pos="l" depth="2" NCoef="0" IVar="-1" Cut="0.0000000000000000e+00" cType="1" res="2.7098884806036949e-02" rms="4.0051272511482239e-01" purity="7.5521296262741089e-01" nType="-99"/>
          <Node pos="r" depth="2" NCoef="0" IVar="-1" Cut="0.0000000000000000e+00" cType="1" res="-1.3254674151539803e-02" rms="4.4884431362152100e-01" purity="4.4233807921409607e-01" nType="-99"/>
        </Node>
        <Node pos="r" depth="1" NCoef="0" IVar="2" Cut="6.4561019897460938e+01" cType="0" res="-1.2439655512571335e-01" rms="3.8210114836692810e-01" purity="1.9295997917652130e-01" nType="0">
          <Node pos="l" depth="2" NCoef="0" IVar="-1" Cut="0.0000000000000000e+00" cType="1" res="-1.2048841454088688e-02" rms="4.2655962705612183e-01" purity="2.6743975281715393e-01" nType="-99"/>
          <Node pos="r" depth="2" NCoef="0" IVar="-1" Cut="0.0000000000000000e+00" cType="1" res="-4.0095135569572449e-02" rms="3.3408439159393311e-01" purity="1.3509233295917511e-01" nType="-99"/>
        </Node>
      </Node>
    </BinaryTree>
    <BinaryTree type="DecisionTree" boostWeight="1.0000000000000000e+00" itree="11">
      <Node pos="s" depth="0" NCoef="0" IVar="0" Cut="4.9132999420166016e+01" cType="0" res="-3.5259854048490524e-02" rms="4.0838459134101868e-01" purity="3.8250666856765747e-01" nType="0">
        <Node pos="l" depth="1" NCoef="0" IVar="3" Cut="7.7133554220199585e-01" cType="1" res="1.6036108136177063e-01" rms="3.4847933053970337e-01" purity="8.4555554389953613e-01" nType="0">
          <Node pos="l" depth="2" NCoef="0" IVar="-1" Cut="0.0000000000000000e+00" cType="1" res="3.6376364529132843e-02" rms="3.1711477041244507e-01" purity="8.7726867198944092e-01" nType="-99"/>
          <Node pos="r" depth="2" NCoef="0" IVar="-1" Cut="0.0000000000000000e+00" cType="1" res="3.9943209849298000e-03" rms="4.4433349370956421e-01" purity="6.9424706697463989e-01" nType="-99"/>
        </Node>
        <Node pos="r" depth="1" NCoef="0" IVar="1" Cut="2.1561338806152344e+02" cType="1" res="-8.5540711879730225e-02" rms="4.0751403570175171e-01" purity="2.6348826289176941e-01" nType="0">
          <Node pos="l" depth="2" NCoef="0" IVar="-1" Cut="0.0000000000000000e+00" cType="1" res="-7.1382881142199039e-03" rms="4.4344034790992737e-01" purity="3.4108513593673706e-01" nType="-99"/>
          <Node pos="r" depth="2" NCoef="0" IVar="-1" Cut="0.0000000000000000e+00" cType="1" res="-4.4297173619270325e-02" rms="2.9895639419555664e-01" purity="1.0805130004882812e-01" nType="-99"/>
        </Node>
      </Node>
    </BinaryTree>
    <BinaryTree type="DecisionTree" boostWeight="1.0000000000000000e+00" itree="12">
      <Node pos="s" depth="0" NCoef="0" IVar="0" Cut="2.8455076217651367e+01" cType="0" res="-3.1529914587736130e-02" rms="4.0542188286781311e-01" purity="3.8250666856765747e-01" nType="0">
        <Node pos="l" depth="1" NCoef="0" IVar="3" Cut="7.5002270936965942e-01" cType="1" res="6.8342939019203186e-02" rms="4.2506051063537598e-01" purity="6.1931729316711426e-01" nType="0">
          <Node pos="l" depth="2" NCoef="0" IVar="-1" Cut="0.0000000000000000e+00" cType="1" res="2.2163962945342064e-02" rms="4.1017088294029236e-01" purity="6.7670506238937378e-01" nType="-99"/>
          <Node pos="r" depth="2" NCoef="0" IVar="-1" Cut="0.0000000000000000e+00" cType="1" res="-1.6686344519257545e-02" rms="4.3634822964668274e-01" purity="4.3450227379798889e-01" nType="-99"/>
        </Node>
        <Node pos="r" depth="1" NCoef="0" IVar="2" Cut="5.3645111083984375e+01" cType="0" res="-1.2130844593048096e-01" rms="3.6425152420997620e-01" purity="1.6963091492652893e-01" nType="0">
          <Node pos="l" depth="2" NCoef="0" IVar="-1" Cut="0.0000000000000000e+00" cType="1" res="-1.8000960350036621e-02" rms="4.0090194344520569e-01" purity="2.1928521990776062e-01" nType="-99"/>
          <Node pos="r" depth="2" NCoef="0" IVar="-1" Cut="0.0000000000000000e+00" cType="1" res="-4.6074170619249344e-02" rms="2.8360602259635925e-01" purity="9.0216688811779022e-02" nType="-99"/>
        </Node>
      </Node>
    </BinaryTree>
    <BinaryTree type="DecisionTree" boostWeight="1.0000000000000000e+00" itree="13">
      <Node pos="s" depth="0" NCoef="0" IVar="0" Cut="2.5870336532592773e+01" cType="0" res="-2.8173455968499184e-02" rms="4.0252184867858887e-01" purity="3.8250666856765747e-01" nType="0">
        <Node pos="l" depth="1" NCoef="0" IVar="1" Cut="2.0562547302246094e+02" cType="1" res="5.4013483226299286e-02" rms="4.2483282089233398e-01" purity="5.8459669351577759e-01" nType="0">
          <Node pos="l" depth="2" NCoef="0" IVar="-1" Cut="0.0000000000000000e+00" cType="1" res="2.2575782611966133e-02" rms="4.1578492522239685e-01" purity="6.8339514732360840e-01" nType="-99"/>
          <Node pos="r" depth="2" NCoef="0" IVar="-1" Cut="0.0000000000000000e+00" cType="1" res="-1.2678806670010090e-02" rms="4.1719952225685120e-01" purity="3.9485895633697510e-01" nType="-99"/>
        </Node>
        <Node pos="r" depth="1" NCoef="0" IVar="2" Cut="6.1832042694091797e+01" cType="0" res="-1.1915842443704605e-01" rms="3.5472902655601501e-01" purity="1.5878307819366455e-01" nType="0">
          <Node pos="l" depth="2" NCoef="0" IVar="-1" Cut="0.0000000000000000e+00" cType="1" res="-1.6271337866783142e-02" rms="4.0244504809379578e-01" purity="2.2160769999027252e-01" nType="-99"/>
          <Node pos="r" depth="2" NCoef="0" IVar="-1" Cut="0.0000000000000000e+00" cType="1" res="-4.0444545447826385e-02" rms="3.0109968781471252e-01" purity="1.0425511002540588e-01" nType="-99"/>
        </Node>
      </Node>
    </BinaryTree>
    <BinaryTree type="DecisionTree" boostWeight="1.0000000000000000e+00" itree="14">
      <Node pos="s" depth="0" NCoef="0" IVar="0" Cut="4.9132999420166016e+01" cType="0" res="-2.5237487629055977e-02" rms="3.9996537566184998e-01" purity="3.8250666856765747e-01" nType="0">
        <Node pos="l" depth="1" NCoef="0" IVar="0" Cut="6.7858879089355469e+01" cType="0" res="1.3758358359336853e-01" rms="3.4588345885276794e-01" purity="8.4555554389953613e-01" nType="0">
          <Node pos="l" depth="2" NCoef="0" IVar="-1" Cut="0.0000000000000000e+00" cType="1" res="3.9916120469570160e-02" rms="2.6834467053413391e-01" purity="9.1802704334259033e-01" nType="-99"/>
          <Node pos="r" depth="2" NCoef="0" IVar="-1" Cut="0.0000000000000000e+00" cType="1" res="1.6504250466823578e-02" rms="3.9511275291442871e-01" purity="7.8005123138427734e-01" nType="-99"/>
        </Node>
        <Node pos="r" depth="1" NCoef="0" IVar="1" Cut="1.9856474304199219e+02" cType="1" res="-6.7087732255458832e-02" rms="4.0221220254898071e-01" purity="2.6348826289176941e-01" nType="0">
          <Node pos="l" depth="2" NCoef="0" IVar="-1" Cut="0.0000000000000000e+00" cType="1" res="-2.7703808154910803e-03" rms="4.4110625982284546e-01" purity="3.5215812921524048e-01" nType="-99"/>
          <Node pos="r" depth="2" NCoef="0" IVar="-1" Cut="0.0000000000000000e+00" cType="1" res="-3.5688444972038269e-02" rms="3.2266315817832947e-01" purity="1.3536725938320160e-01" nType="-99"/>
        </Node>
      </Node>
    </BinaryTree>
    <BinaryTree type="DecisionTree" boostWeight="1.0000000000000000e+00" itree="15">
      <Node pos="s" depth="0" NCoef="0" IVar="0" Cut="3.1039817810058594e+01" cType="0" res="-2.2492818534374237e-02" rms="3.9778080582618713e-01" purity="3.8250666856765747e-01" nType="0">
        <Node pos="l" depth="1" NCoef="0" IVar="3" Cut="7.2366768121719360e-01" cType="1" res="6.5839260816574097e-02" rms="4.1656619310379028e-01" purity="6.5403175354003906e-01" nType="0">
          <Node pos="l" depth="2" NCoef="0" IVar="-1" Cut="0.0000000000000000e+00" cType="1" res="2.2114399820566177e-02" rms="3.9698567986488342e-01" purity="7.1713608503341675e-01" nType="-99"/>
          <Node pos="r" depth="2" NCoef="0" IVar="-1" Cut="0.0000000000000000e+00" cType="1" res="-1.1398255825042725e-02" rms="4.4045656919479370e-01" purity="4.8986101150512695e-01" nType="-99"/>
        </Node>
        <Node pos="r" depth="1" NCoef="0" IVar="2" Cut="5.3645111083984375e+01" cType="0" res="-8.8003888726234436e-02" rms="3.6987242102622986e-01" purity="1.8113136291503906e-01" nType="0">
          <Node pos="l" depth="2" NCoef="0" IVar="-1" Cut="0.0000000000000000e+00" cType="1" res="-1.1444044299423695e-02" rms="4.0566319227218628e-01" purity="2.3271901905536652e-01" nType="-99"/>
          <Node pos="r" depth="2" NCoef="0" IVar="-1" Cut="0.0000000000000000e+00" cType="1" res="-3.9885435253381729e-02" rms="2.9205176234245300e-01" purity="9.7645260393619537e-02" nType="-99"/>
        </Node>
      </Node>
    </BinaryTree>
    <BinaryTree type="DecisionTree" boostWeight="1.0000000000000000e+00" itree="16">
      <Node pos="s" depth="0" NCoef="0" IVar="0" Cut="5.1717739105224609e+01" cType="0" res="-2.0031554624438286e-02" rms="3.9576447010040283e-01" purity="3.8250666856765747e-01" nType="0">
        <Node pos="l" depth="1" NCoef="0" IVar="0" Cut="7.2666603088378906e+01" cType="0" res="1.3114140927791595e-01" rms="3.3178633451461792e-01" purity="8.6112570762634277e-01" nType="0">
          <Node pos="l" depth="2" NCoef="0" IVar="-1" Cut="0.0000000000000000e+00" cType="1" res="3.9160806685686111e-02" rms="2.5730746984481812e-01" purity="9.2539668083190918e-01" nType="-99"/>
          <Node pos="r" depth="2" NCoef="0" IVar="-1" Cut="0.0000000000000000e+00" cType="1" res="1.8436720594763756e-02" rms="3.7305310368537903e-01" purity="8.1188261508941650e-01" nType="-99"/>
        </Node>
        <Node pos="r" depth="1" NCoef="0" IVar="1" Cut="2.4118635559082031e+02" cType="1" res="-5.4223872721195221e-02" rms="4.0102311968803406e-01" purity="2.7425256371498108e-01" nType="0">
          <Node pos="l" depth="2" NCoef="0" IVar="-1" Cut="0.0000000000000000e+00" cType="1" res="-3.9265733212232590e-03" rms="4.2913421988487244e-01" purity="3.3628401160240173e-01" nType="-99"/>
          <Node pos="r" depth="2" NCoef="0" IVar="-1" Cut="0.0000000000000000e+00" cType="1" res="-4.3174799531698227e-02" rms="2.7507355809211731e-01" purity="8.9299358427524567e-02" nType="-99"/>
        </Node>
      </Node>
    </BinaryTree>
    <BinaryTree type="DecisionTree" boostWeight="1.0000000000000000e+00" itree="17">
      <Node pos="s" depth="0" NCoef="0" IVar="0" Cut="2.3285596847534180e+01" cType="0" res="-1.7819700762629509e-02" rms="3.9393624663352966e-01" purity="3.8250666856765747e-01" nType="0">
        <Node pos="l" depth="1" NCoef="0" IVar="1" Cut="2.0562547302246094e+02" cType="1" res="4.0015716105699539e-02" rms="4.1671457886695862e-01" purity="5.5009222030639648e-01" nType="0">
          <Node pos="l" depth="2" NCoef="0" IVar="-1" Cut="0.0000000000000000e+00" cType="1" res="1.8726056441664696e-02" rms="4.1711285710334778e-01" purity="6.4959859848022461e-01" nType="-99"/>
          <Node pos="r" depth="2" NCoef="0" IVar="-1" Cut="0.0000000000000000e+00" cType="1" res="-1.2194119393825531e-02" rms="3.9846894145011902e-01" purity="3.6298102140426636e-01" nType="-99"/>
        </Node>
        <Node pos="r" depth="1" NCoef="0" IVar="2" Cut="6.7290000915527344e+01" cType="0" res="-9.8338894546031952e-02" rms="3.4400284290313721e-01" purity="1.4919199049472809e-01" nType="0">
          <Node pos="l" depth="2" NCoef="0" IVar="-1" Cut="0.0000000000000000e+00" cType="1" res="-1.1799327097833157e-02" rms="3.9540079236030579e-01" purity="2.1570043265819550e-01" nType="-99"/>
          <Node pos="r" depth="2" NCoef="0" IVar="-1" Cut="0.0000000000000000e+00" cType="1" res="-3.5261459648609161e-02" rms="3.0279666185379028e-01" purity="1.0716846585273743e-01" nType="-99"/>
        </Node>
      </Node>
    </BinaryTree>
    <BinaryTree type="DecisionTree" boostWeight="1.0000000000000000e+00" itree="18">
      <Node pos="s" depth="0" NCoef="0" IVar="0" Cut="5.6887218475341797e+01" cType="0" res="-1.5928324311971664e-02" rms="3.9219576120376587e-01" purity="3.8250666856765747e-01" nType="0">
        <Node pos="l" depth="1" NCoef="0" IVar="0" Cut="7.7604309082031250e+01" cType="0" res="1.3705585896968842e-01" rms="3.0520620942115784e-01" purity="8.8706618547439575e-01" nType="0">
          <Node pos="l" depth="2" NCoef="0" IVar="-1" Cut="0.0000000000000000e+00" cType="1" res="3.8658324629068375e-02" rms="2.4891172349452972e-01" purity="9.3122512102127075e-01" nType="-99"/>
          <Node pos="r" depth="2" NCoef="0" IVar="-1" Cut="0.0000000000000000e+00" cType="1" res="2.2996556013822556e-02" rms="3.3891421556472778e-01" purity="8.5251361131668091e-01" nType="-99"/>
        </Node>
        <Node pos="r" depth="1" NCoef="0" IVar="2" Cut="5.6374088287353516e+01" cType="0" res="-4.2949270457029343e-02" rms="3.9958593249320984e-01" purity="2.9338845610618591e-01" nType="0">
          <Node pos="l" depth="2" NCoef="0" IVar="-1" Cut="0.0000000000000000e+00" cType="1" res="1.8814542563632131e-03" rms="4.2320922017097473e-01" purity="3.6399614810943604e-01" nType="-99"/>
          <Node pos="r" depth="2" NCoef="0" IVar="-1" Cut="0.0000000000000000e+00" cType="1" res="-2.9691822826862335e-02" rms="3.4906443953514099e-01" purity="1.9045570492744446e-01" nType="-99"/>
        </Node>
      </Node>
    </BinaryTree>
    <BinaryTree type="DecisionTree" boostWeight="1.0000000000000000e+00" itree="19">
      <Node pos="s" depth="0" NCoef="0" IVar="3" Cut="7.5441521406173706e-01" cType="1" res="-1.4122044667601585e-02" rms="3.9058470726013184e-01" purity="3.8250666856765747e-01" nType="0">
        <Node pos="l" depth="1" NCoef="0" IVar="0" Cut="2.1814342498779297e+01" cType="0" res="2.5113942101597786e-02" rms="3.9856424927711487e-01" purity="4.4404140114784241e-01" nType="0">
          <Node pos="l" depth="2" NCoef="0" IVar="-1" Cut="0.0000000000000000e+00" cType="1" res="1.5395413152873516e-02" rms="4.0860992670059204e-01" purity="5.9084403514862061e-01" nType="-99"/>
          <Node pos="r" depth="2" NCoef="0" IVar="-1" Cut="0.0000000000000000e+00" cType="1" res="-1.6978222876787186e-02" rms="3.6307808756828308e-01" purity="1.7199902236461639e-01" nType="-99"/>
        </Node>
        <Node pos="r" depth="1" NCoef="0" IVar="0" Cut="6.9810920715332031e+01" cType="0" res="-1.1283153295516968e-01" rms="3.5085305571556091e-01" purity="2.2769819200038910e-01" nType="0">
          <Node pos="l" depth="2" NCoef="0" IVar="-1" Cut="0.0000000000000000e+00" cType="1" res="2.7774345129728317e-02" rms="3.3471035957336426e-01" purity="8.6410617828369141e-01" nType="-99"/>
          <Node pos="r" depth="2" NCoef="0" IVar="-1" Cut="0.0000000000000000e+00" cType="1" res="-3.2738469541072845e-02" rms="3.4473407268524170e-01" purity="1.7918162047863007e-01" nType="-99"/>
        </Node>
      </Node>
    </BinaryTree>
    <BinaryTree type="DecisionTree" boostWeight="1.0000000000000000e+00" itree="20">
      <Node pos="s" depth="0" NCoef="0" IVar="4" Cut="2.6820795610547066e-02" cType="0" res="-1.2485634535551071e-02" rms="3.8880673050880432e-01" purity="3.8250666856765747e-01" nType="0">
        <Node pos="l" depth="1" NCoef="0" IVar="2" Cut="5.8208408355712891e+01" cType="0" res="6.8482592701911926e-02" rms="4.0963399410247803e-01" purity="5.4550093412399292e-01" nType="0">
          <Node pos="l" depth="2" NCoef="0" IVar="-1" Cut="0.0000000000000000e+00" cType="1" res="2.6829410344362259e-02" rms="4.0884178876876831e-01" purity="6.3762617111206055e-01" nType="-99"/>
          <Node pos="r" depth="2" NCoef="0" IVar="-1" Cut="0.0000000000000000e+00" cType="1" res="-4.8049986362457275e-03" rms="3.9369541406631470e-01" purity="4.1808643937110901e-01" nType="-99"/>
        </Node>
        <Node pos="r" depth="1" NCoef="0" IVar="1" Cut="2.0562547302246094e+02" cType="1" res="-5.3122680634260178e-02" rms="3.7132591009140015e-01" purity="3.0070167779922485e-01" nType="0">
          <Node pos="l" depth="2" NCoef="0" IVar="-1" Cut="0.0000000000000000e+00" cType="1" res="-5.9512484585866332e-04" rms="4.0646412968635559e-01" purity="4.0543696284294128e-01" nType="-99"/>
          <Node pos="r" depth="2" NCoef="0" IVar="-1" Cut="0.0000000000000000e+00" cType="1" res="-3.4041196107864380e-02" rms="3.0161067843437195e-01" purity="1.5389639139175415e-01" nType="-99"/>
        </Node>
      </Node>
    </BinaryTree>
    <BinaryTree type="DecisionTree" boostWeight="1.0000000000000000e+00" itree="21">
      <Node pos="s" depth="0" NCoef="0" IVar="0" Cut="4.6548259735107422e+01" cType="0" res="-1.1051342822611332e-02" rms="3.8713008165359497e-01" purity="3.8250666856765747e-01" nType="0">
        <Node pos="l" depth="1" NCoef="0" IVar="3" Cut="8.3715814352035522e-01" cType="1" res="9.1737613081932068e-02" rms="3.5082921385765076e-01" purity="8.2683938741683960e-01" nType="0">
          <Node pos="l" depth="2" NCoef="0" IVar="-1" Cut="0.0000000000000000e+00" cType="1" res="2.3555522784590721e-02" rms="3.3572098612785339e-01" purity="8.4788250923156738e-01" nType="-99"/>
          <Node pos="r" depth="2" NCoef="0" IVar="-1" Cut="0.0000000000000000e+00" cType="1" res="-1.4500920660793781e-02" rms="4.5488360524177551e-01" purity="5.9767538309097290e-01" nType="-99"/>
        </Node>
        <Node pos="r" depth="1" NCoef="0" IVar="2" Cut="6.4561019897460938e+01" cType="0" res="-4.1117455810308456e-02" rms="3.9205995202064514e-01" purity="2.5253787636756897e-01" nType="0">
          <Node pos="l" depth="2" NCoef="0" IVar="-1" Cut="0.0000000000000000e+00" cType="1" res="4.7212201170623302e-03" rms="4.2400547862052917e-01" purity="3.3682188391685486e-01" nType="-99"/>
          <Node pos="r" depth="2" NCoef="0" IVar="-1" Cut="0.0000000000000000e+00" cType="1" res="-2.3911906406283379e-02" rms="3.5517156124114990e-01" purity="1.8234962224960327e-01" nType="-99"/>
        </Node>
      </Node>
    </BinaryTree>
    <BinaryTree type="DecisionTree" boostWeight="1.0000000000000000e+00" itree="22">
      <Node pos="s" depth="0" NCoef="0" IVar="3" Cut="7.1927517652511597e-01" cType="1" res="-9.7302710637450218e-03" rms="3.8585671782493591e-01" purity="3.8250666856765747e-01" nType="0">
        <Node pos="l" depth="1" NCoef="0" IVar="1" Cut="2.5912472534179688e+02" cType="1" res="3.0113944783806801e-02" rms="3.9498439431190491e-01" purity="4.5383629202842712e-01" nType="0">
          <Node pos="l" depth="2" NCoef="0" IVar="-1" Cut="0.0000000000000000e+00" cType="1" res="1.3288553804159164e-02" rms="4.0521186590194702e-01" purity="5.0729042291641235e-01" nType="-99"/>
          <Node pos="r" depth="2" NCoef="0" IVar="-1" Cut="0.0000000000000000e+00" cType="1" res="-2.7889797464013100e-02" rms="3.0742412805557251e-01" purity="1.9695608317852020e-01" nType="-99"/>
        </Node>
        <Node pos="r" depth="1" NCoef="0" IVar="0" Cut="6.7226181030273438e+01" cType="0" res="-8.4374867379665375e-02" rms="3.5635253787040710e-01" purity="2.4887695908546448e-01" nType="0">
          <Node pos="l" depth="2" NCoef="0" IVar="-1" Cut="0.0000000000000000e+00" cType="1" res="2.5540800765156746e-02" rms="3.3386930823326111e-01" purity="8.6266744136810303e-01" nType="-99"/>
          <Node pos="r" depth="2" NCoef="0" IVar="-1" Cut="0.0000000000000000e+00" cType="1" res="-2.6134900748729706e-02" rms="3.5270571708679199e-01" purity="1.9547235965728760e-01" nType="-99"/>
        </Node>
      </Node>
    </BinaryTree>
    <BinaryTree type="DecisionTree" boostWeight="1.0000000000000000e+00" itree="23">
      <Node pos="s" depth="0" NCoef="0" IVar="0" Cut="2.0700857162475586e+01" cType="0" res="-8.6452905088663101e-03" rms="3.8434687256813049e-01" purity="3.8250666856765747e-01" nType="0">
        <Node pos="l" depth="1" NCoef="0" IVar="1" Cut="2.1432942199707031e+02" cType="1" res="3.0132118612527847e-02" rms="4.0554952621459961e-01" purity="5.1793634891510010e-01" nType="0">
          <Node pos="l" depth="2" NCoef="0" IVar="-1" Cut="0.0000000000000000e+00" cType="1" res="1.5218548476696014e-02" rms="4.1277104616165161e-01" purity="6.1075633764266968e-01" nType="-99"/>
          <Node pos="r" depth="2" NCoef="0" IVar="-1" Cut="0.0000000000000000e+00" cType="1" res="-1.3772809877991676e-02" rms="3.7420284748077393e-01" purity="3.1412729620933533e-01" nType="-99"/>
        </Node>
        <Node pos="r" depth="1" NCoef="0" IVar="4" Cut="9.0020574629306793e-02" cType="0" res="-7.8182362020015717e-02" rms="3.3190017938613892e-01" purity="1.3964912295341492e-01" nType="0">
          <Node pos="l" depth="2" NCoef="0" IVar="-1" Cut="0.0000000000000000e+00" cType="1" res="1.6040189191699028e-02" rms="4.5625665783882141e-01" purity="3.2736966013908386e-01" nType="-99"/>
          <Node pos="r" depth="2" NCoef="0" IVar="-1" Cut="0.0000000000000000e+00" cType="1" res="-2.4841208010911942e-02" rms="3.2273170351982117e-01" purity="1.3029760122299194e-01" nType="-99"/>
        </Node>
      </Node>
    </BinaryTree>
    <BinaryTree type="DecisionTree" boostWeight="1.0000000000000000e+00" itree="24">
      <Node pos="s" depth="0" NCoef="0" IVar="2" Cut="6.0529510498046875e+01" cType="0" res="-7.6614990830421448e-03" rms="3.8321015238761902e-01" purity="3.8250666856765747e-01" nType="0">
        <Node pos="l" depth="1" NCoef="0" IVar="1" Cut="1.9434246826171875e+02" cType="1" res="3.9752874523401260e-02" rms="4.0170279145240784e-01" purity="4.6099612116813660e-01" nType="0">
          <Node pos="l" depth="2" NCoef="0" IVar="-1" Cut="0.0000000000000000e+00" cType="1" res="2.8458094224333763e-02" rms="4.1757380962371826e-01" purity="6.4338165521621704e-01" nType="-99"/>
          <Node pos="r" depth="2" NCoef="0" IVar="-1" Cut="0.0000000000000000e+00" cType="1" res="-9.7539005801081657e-03" rms="3.6958092451095581e-01" purity="3.0961689352989197e-01" nType="-99"/>
        </Node>
        <Node pos="r" depth="1" NCoef="0" IVar="0" Cut="5.6969924926757812e+01" cType="0" res="-6.2111150473356247e-02" rms="3.5303640365600586e-01" purity="2.9237109422683716e-01" nType="0">
          <Node pos="l" depth="2" NCoef="0" IVar="-1" Cut="0.0000000000000000e+00" cType="1" res="2.3627197369933128e-02" rms="3.0160331726074219e-01" purity="8.8746857643127441e-01" nType="-99"/>
          <Node pos="r" depth="2" NCoef="0" IVar="-1" Cut="0.0000000000000000e+00" cType="1" res="-2.2374467924237251e-02" rms="3.5444211959838867e-01" purity="2.0646783709526062e-01" nType="-99"/>
        </Node>
      </Node>
    </BinaryTree>
    <BinaryTree type="DecisionTree" boostWeight="1.0000000000000000e+00" itree="25">
      <Node pos="s" depth="0" NCoef="0" IVar="3" Cut="7.7198523283004761e-01" cType="1" res="-6.7396364174783230e-03" rms="3.8140973448753357e-01" purity="3.8250666856765747e-01" nType="0">
        <Node pos="l" depth="1" NCoef="0" IVar="2" Cut="5.1057422637939453e+01" cType="0" res="2.1695503965020180e-02" rms="3.9025482535362244e-01" purity="4.3862739205360413e-01" nType="0">
          <Node pos="l" depth="2" NCoef="0" IVar="-1" Cut="0.0000000000000000e+00" cType="1" res="1.2540291994810104e-02" rms="4.0019333362579346e-01" purity="4.9629980325698853e-01" nType="-99"/>
          <Node pos="r" depth="2" NCoef="0" IVar="-1" Cut="0.0000000000000000e+00" cType="1" res="-1.6076346859335899e-02" rms="3.5174497961997986e-01" purity="2.9712837934494019e-01" nType="-99"/>
        </Node>
        <Node pos="r" depth="1" NCoef="0" IVar="0" Cut="7.4980400085449219e+01" cType="0" res="-9.0773403644561768e-02" rms="3.4036916494369507e-01" purity="2.1665433049201965e-01" nType="0">
          <Node pos="l" depth="2" NCoef="0" IVar="-1" Cut="0.0000000000000000e+00" cType="1" res="2.7274027466773987e-02" rms="3.2298412919044495e-01" purity="8.7576299905776978e-01" nType="-99"/>
          <Node pos="r" depth="2" NCoef="0" IVar="-1" Cut="0.0000000000000000e+00" cType="1" res="-2.8357814997434616e-02" rms="3.3664029836654663e-01" purity="1.7480488121509552e-01" nType="-99"/>
        </Node>
      </Node>
    </BinaryTree>
    <BinaryTree type="DecisionTree" boostWeight="1.0000000000000000e+00" itree="26">
      <Node pos="s" depth="0" NCoef="0" IVar="0" Cut="5.9471961975097656e+01" cType="0" res="-5.9179011732339859e-03" rms="3.8016682863235474e-01" purity="3.8250666856765747e-01" nType="0">
        <Node pos="l" depth="1" NCoef="0" IVar="0" Cut="8.6941711425781250e+01" cType="0" res="1.1124273389577866e-01" rms="2.9077205061912537e-01" purity="8.9698690176010132e-01" nType="0">
          <Node pos="l" depth="2" NCoef="0" IVar="-1" Cut="0.0000000000000000e+00" cType="1" res="3.6154877394437790e-02" rms="2.3988755047321320e-01" purity="9.3679922819137573e-01" nType="-99"/>
          <Node pos="r" depth="2" NCoef="0" IVar="-1" Cut="0.0000000000000000e+00" cType="1" res="2.2470431402325630e-02" rms="3.1106281280517578e-01" purity="8.7684828042984009e-01" nType="-99"/>
        </Node>
        <Node pos="r" depth="1" NCoef="0" IVar="1" Cut="1.9180845642089844e+02" cType="1" res="-2.4272259324789047e-02" rms="3.8914743065834045e-01" purity="3.0190834403038025e-01" nType="0">
          <Node pos="l" depth="2" NCoef="0" IVar="-1" Cut="0.0000000000000000e+00" cType="1" res="4.5970724895596504e-03" rms="4.2064121365547180e-01" purity="3.9865869283676147e-01" nType="-99"/>
          <Node pos="r" depth="2" NCoef="0" IVar="-1" Cut="0.0000000000000000e+00" cType="1" res="-2.2508498281240463e-02" rms="3.3651712536811829e-01" purity="1.7875975370407104e-01" nType="-99"/>
        </Node>
      </Node>
    </BinaryTree>
    <BinaryTree type="DecisionTree" boostWeight="1.0000000000000000e+00" itree="27">
      <Node pos="s" depth="0" NCoef="0" IVar="2" Cut="6.5661834716796875e+01" cType="0" res="-5.1405169069766998e-03" rms="3.7922421097755432e-01" purity="3.8250666856765747e-01" nType="0">
        <Node pos="l" depth="1" NCoef="0" IVar="1" Cut="2.0301417541503906e+02" cType="1" res="4.4344980269670486e-02" rms="3.9874884486198425e-01" purity="4.6734455227851868e-01" nType="0">
          <Node pos="l" depth="2" NCoef="0" IVar="-1" Cut="0.0000000000000000e+00" cType="1" res="2.7538923546671867e-02" rms="4.1467660665512085e-01" purity="6.5676850080490112e-01" nType="-99"/>
          <Node pos="r" depth="2" NCoef="0" IVar="-1" Cut="0.0000000000000000e+00" cType="1" res="-9.1707510873675346e-03" rms="3.6536589264869690e-01" purity="2.9097238183021545e-01" nType="-99"/>
        </Node>
        <Node pos="r" depth="1" NCoef="0" IVar="3" Cut="6.5790951251983643e-01" cType="1" res="-4.7286629676818848e-02" rms="3.5638782382011414e-01" purity="3.1025141477584839e-01" nType="0">
          <Node pos="l" depth="2" NCoef="0" IVar="-1" Cut="0.0000000000000000e+00" cType="1" res="-7.8813976142555475e-04" rms="3.7777796387672424e-01" purity="3.9532598853111267e-01" nType="-99"/>
          <Node pos="r" depth="2" NCoef="0" IVar="-1" Cut="0.0000000000000000e+00" cType="1" res="-3.0400434508919716e-02" rms="3.1608876585960388e-01" purity="1.9650319218635559e-01" nType="-99"/>
        </Node>
      </Node>
    </BinaryTree>
    <BinaryTree type="DecisionTree" boostWeight="1.0000000000000000e+00" itree="28">
      <Node pos="s" depth="0" NCoef="0" IVar="0" Cut="2.3285596847534180e+01" cType="0" res="-4.5167817734181881e-03" rms="3.7765836715698242e-01" purity="3.8250666856765747e-01" nType="0">
        <Node pos="l" depth="1" NCoef="0" IVar="1" Cut="3.1007290649414062e+02" cType="1" res="3.3188246190547943e-02" rms="4.0022572875022888e-01" purity="5.5009222030639648e-01" nType="0">
          <Node pos="l" depth="2" NCoef="0" IVar="-1" Cut="0.0000000000000000e+00" cType="1" res="1.1474821716547012e-02" rms="4.0385088324546814e-01" purity="5.9032082557678223e-01" nType="-99"/>
          <Node pos="r" depth="2" NCoef="0" IVar="-1" Cut="0.0000000000000000e+00" cType="1" res="-2.6588626205921173e-02" rms="3.3883687853813171e-01" purity="2.4267631769180298e-01" nType="-99"/>
        </Node>
        <Node pos="r" depth="1" NCoef="0" IVar="4" Cut="5.1440335810184479e-02" cType="0" res="-5.7010196149349213e-02" rms="3.3682492375373840e-01" purity="1.4919199049472809e-01" nType="0">
          <Node pos="l" depth="2" NCoef="0" IVar="-1" Cut="0.0000000000000000e+00" cType="1" res="5.7817162014544010e-03" rms="4.2979544401168823e-01" purity="2.7763700485229492e-01" nType="-99"/>
          <Node pos="r" depth="2" NCoef="0" IVar="-1" Cut="0.0000000000000000e+00" cType="1" res="-2.0981248468160629e-02" rms="3.2123726606369019e-01" purity="1.3243092596530914e-01" nType="-99"/>
        </Node>
      </Node>
    </BinaryTree>
    <BinaryTree type="DecisionTree" boostWeight="1.0000000000000000e+00" itree="29">
      <Node pos="s" depth="0" NCoef="0" IVar="2" Cut="5.5397190093994141e+01" cType="0" res="-3.9122076705098152e-03" rms="3.7683373689651489e-01" purity="3.8250666856765747e-01" nType="0">
        <Node pos="l" depth="1" NCoef="0" IVar="1" Cut="1.8821755981445312e+02" cType="1" res="2.8849022462964058e-02" rms="3.9310887455940247e-01" purity="4.4916191697120667e-01" nType="0">
          <Node pos="l" depth="2" NCoef="0" IVar="-1" Cut="0.0000000000000000e+00" cType="1" res="2.1988784894347191e-02" rms="4.1528648138046265e-01" purity="6.1356759071350098e-01" nType="-99"/>
          <Node pos="r" depth="2" NCoef="0" IVar="-1" Cut="0.0000000000000000e+00" cType="1" res="-7.1033844724297523e-03" rms="3.6501449346542358e-01" purity="3.2102835178375244e-01" nType="-99"/>
        </Node>
        <Node pos="r" depth="1" NCoef="0" IVar="0" Cut="5.6969924926757812e+01" cType="0" res="-5.8366648852825165e-02" rms="3.4121248126029968e-01" purity="2.7171495556831360e-01" nType="0">
          <Node pos="l" depth="2" NCoef="0" IVar="-1" Cut="0.0000000000000000e+00" cType="1" res="2.0517170429229736e-02" rms="3.0339461565017700e-01" purity="8.8414663076400757e-01" nType="-99"/>
          <Node pos="r" depth="2" NCoef="0" IVar="-1" Cut="0.0000000000000000e+00" cType="1" res="-2.1909896284341812e-02" rms="3.4205931425094604e-01" purity="1.8733957409858704e-01" nType="-99"/>
        </Node>
      </Node>
    </BinaryTree>
    <BinaryTree type="DecisionTree" boostWeight="1.0000000000000000e+00" itree="30">
      <Node pos="s" depth="0" NCoef="0" IVar="3" Cut="7.8955525159835815e-01" cType="1" res="-3.3929392229765654e-03" rms="3.7564259767532349e-01" purity="3.8250666856765747e-01" nType="0">
        <Node pos="l" depth="1" NCoef="0" IVar="1" Cut="2.6964593505859375e+02" cType="1" res="1.8890926614403725e-02" rms="3.8448634743690491e-01" purity="4.3297752737998962e-01" nType="0">
          <Node pos="l" depth="2" NCoef="0" IVar="-1" Cut="0.0000000000000000e+00" cType="1" res="9.1759720817208290e-03" rms="3.9606776833534241e-01" purity="4.8099768161773682e-01" nType="-99"/>
          <Node pos="r" depth="2" NCoef="0" IVar="-1" Cut="0.0000000000000000e+00" cType="1" res="-2.3219272494316101e-02" rms="2.9959678649902344e-01" purity="1.8690282106399536e-01" nType="-99"/>
        </Node>
        <Node pos="r" depth="1" NCoef="0" IVar="0" Cut="7.4980400085449219e+01" cType="0" res="-8.1984914839267731e-02" rms="3.3086326718330383e-01" purity="2.0450323820114136e-01" nType="0">
          <Node pos="l" depth="2" NCoef="0" IVar="-1" Cut="0.0000000000000000e+00" cType="1" res="2.2941313683986664e-02" rms="3.3314055204391479e-01" purity="8.6658823490142822e-01" nType="-99"/>
          <Node pos="r" depth="2" NCoef="0" IVar="-1" Cut="0.0000000000000000e+00" cType="1" res="-2.6992961764335632e-02" rms="3.2744729518890381e-01" purity="1.6459912061691284e-01" nType="-99"/>
        </Node>
      </Node>
    </BinaryTree>
    <BinaryTree type="DecisionTree" boostWeight="1.0000000000000000e+00" itree="31">
      <Node pos="s" depth="0" NCoef="0" IVar="2" Cut="7.0794151306152344e+01" cType="0" res="-2.9655420221388340e-03" rms="3.7476012110710144e-01" purity="3.8250666856765747e-01" nType="0">
        <Node pos="l" depth="1" NCoef="0" IVar="1" Cut="1.9434246826171875e+02" cType="1" res="4.7571115195751190e-02" rms="3.9414000511169434e-01" purity="4.6756359934806824e-01" nType="0">
          <Node pos="l" depth="2" NCoef="0" IVar="-1" Cut="0.0000000000000000e+00" cType="1" res="2.9570238664746284e-02" rms="4.0697544813156128e-01" purity="6.9272625446319580e-01" nType="-99"/>
          <Node pos="r" depth="2" NCoef="0" IVar="-1" Cut="0.0000000000000000e+00" cType="1" res="-3.0992734245955944e-03" rms="3.7363639473915100e-01" purity="3.2094258069992065e-01" nType="-99"/>
        </Node>
        <Node pos="r" depth="1" NCoef="0" IVar="3" Cut="6.5353000164031982e-01" cType="1" res="-3.5759136080741882e-02" rms="3.5783088207244873e-01" purity="3.2731264829635620e-01" nType="0">
          <Node pos="l" depth="2" NCoef="0" IVar="-1" Cut="0.0000000000000000e+00" cType="1" res="9.5438817515969276e-04" rms="3.7842106819152832e-01" purity="4.1570028662681580e-01" nType="-99"/>
          <Node pos="r" depth="2" NCoef="0" IVar="-1" Cut="0.0000000000000000e+00" cType="1" res="-2.6066275313496590e-02" rms="3.2079225778579712e-01" purity="2.0918205380439758e-01" nType="-99"/>
        </Node>
      </Node>
    </BinaryTree>
    <BinaryTree type="DecisionTree" boostWeight="1.0000000000000000e+00" itree="32">
      <Node pos="s" depth="0" NCoef="0" IVar="0" Cut="5.9471961975097656e+01" cType="0" res="-2.5617035571485758e-03" rms="3.7354239821434021e-01" purity="3.8250666856765747e-01" nType="0">
        <Node pos="l" depth="1" NCoef="0" IVar="0" Cut="8.6941711425781250e+01" cType="0" res="9.8228462040424347e-02" rms="2.8956335783004761e-01" purity="8.9698690176010132e-01" nType="0">
          <Node pos="l" depth="2" NCoef="0" IVar="-1" Cut="0.0000000000000000e+00" cType="1" res="3.4951891750097275e-02" rms="2.4111740291118622e-01" purity="9.3679922819137573e-01" nType="-99"/>
          <Node pos="r" depth="2" NCoef="0" IVar="-1" Cut="0.0000000000000000e+00" cType="1" res="2.0288318395614624e-02" rms="3.0883502960205078e-01" purity="8.7684828042984009e-01" nType="-99"/>
        </Node>
        <Node pos="r" depth="1" NCoef="0" IVar="1" Cut="2.4391879272460938e+02" cType="1" res="-1.8351467326283455e-02" rms="3.8264483213424683e-01" purity="3.0190834403038025e-01" nType="0">
          <Node pos="l" depth="2" NCoef="0" IVar="-1" Cut="0.0000000000000000e+00" cType="1" res="8.8395184138789773e-04" rms="4.0750694274902344e-01" purity="3.6528268456459045e-01" nType="-99"/>
          <Node pos="r" depth="2" NCoef="0" IVar="-1" Cut="0.0000000000000000e+00" cType="1" res="-2.9815046116709709e-02" rms="2.7862724661827087e-01" purity="1.0079944878816605e-01" nType="-99"/>
        </Node>
      </Node>
    </BinaryTree>
    <BinaryTree type="DecisionTree" boostWeight="1.0000000000000000e+00" itree="33">
      <Node pos="s" depth="0" NCoef="0" IVar="0" Cut="1.8116115570068359e+01" cType="0" res="-2.1193719003349543e-03" rms="3.7286630272865295e-01" purity="3.8250666856765747e-01" nType="0">
        <Node pos="l" depth="1" NCoef="0" IVar="2" Cut="5.0264987945556641e+01" cType="0" res="2.3244958370923996e-02" rms="3.9077663421630859e-01" purity="4.8800382018089294e-01" nType="0">
          <Node pos="l" depth="2" NCoef="0" IVar="-1" Cut="0.0000000000000000e+00" cType="1" res="1.1295648291707039e-02" rms="3.9483535289764404e-01" purity="5.3525054454803467e-01" nType="-99"/>
          <Node pos="r" depth="2" NCoef="0" IVar="-1" Cut="0.0000000000000000e+00" cType="1" res="-1.3777914457023144e-02" rms="3.6824703216552734e-01" purity="3.4731027483940125e-01" nType="-99"/>
        </Node>
        <Node pos="r" depth="1" NCoef="0" IVar="2" Cut="7.8205909729003906e+01" cType="0" res="-6.2665224075317383e-02" rms="3.1808796525001526e-01" purity="1.3067999482154846e-01" nType="0">
          <Node pos="l" depth="2" NCoef="0" IVar="-1" Cut="0.0000000000000000e+00" cType="1" res="-6.9019244983792305e-03" rms="3.6743262410163879e-01" purity="1.9361101090908051e-01" nType="-99"/>
          <Node pos="r" depth="2" NCoef="0" IVar="-1" Cut="0.0000000000000000e+00" cType="1" res="-2.5699978694319725e-02" rms="2.9660972952842712e-01" purity="1.0754160583019257e-01" nType="-99"/>
        </Node>
      </Node>
    </BinaryTree>
    <BinaryTree type="DecisionTree" boostWeight="1.0000000000000000e+00" itree="34">
      <Node pos="s" depth="0" NCoef="0" IVar="4" Cut="3.3525992184877396e-02" cType="0" res="-1.7529649194329977e-03" rms="3.7212291359901428e-01" purity="3.8250666856765747e-01" nType="0">
        <Node pos="l" depth="1" NCoef="0" IVar="2" Cut="6.3174182891845703e+01" cType="0" res="5.7948589324951172e-02" rms="3.9784178137779236e-01" purity="5.6555485725402832e-01" nType="0">
          <Node pos="l" depth="2" NCoef="0" IVar="-1" Cut="0.0000000000000000e+00" cType="1" res="2.3225968703627586e-02" rms="3.9558902382850647e-01" purity="6.7044866085052490e-01" nType="-99"/>
          <Node pos="r" depth="2" NCoef="0" IVar="-1" Cut="0.0000000000000000e+00" cType="1" res="1.6461100894957781e-03" rms="3.9336553215980530e-01" purity="4.6285319328308105e-01" nType="-99"/>
        </Node>
        <Node pos="r" depth="1" NCoef="0" IVar="1" Cut="1.8821755981445312e+02" cType="1" res="-2.5307979434728622e-02" rms="3.5874965786933899e-01" purity="3.1028574705123901e-01" nType="0">
          <Node pos="l" depth="2" NCoef="0" IVar="-1" Cut="0.0000000000000000e+00" cType="1" res="2.9725120402872562e-03" rms="3.9196616411209106e-01" purity="4.1694372892379761e-01" nType="-99"/>
          <Node pos="r" depth="2" NCoef="0" IVar="-1" Cut="0.0000000000000000e+00" cType="1" res="-1.9023207947611809e-02" rms="3.1874799728393555e-01" purity="2.0578970015048981e-01" nType="-99"/>
        </Node>
      </Node>
    </BinaryTree>
    <BinaryTree type="DecisionTree" boostWeight="1.0000000000000000e+00" itree="35">
      <Node pos="s" depth="0" NCoef="0" IVar="0" Cut="6.2056701660156250e+01" cType="0" res="-1.4084841823205352e-03" rms="3.7142053246498108e-01" purity="3.8250666856765747e-01" nType="0">
        <Node pos="l" depth="1" NCoef="0" IVar="0" Cut="8.9370628356933594e+01" cType="0" res="9.4186462461948395e-02" rms="2.7994960546493530e-01" purity="9.0531927347183228e-01" nType="0">
          <Node pos="l" depth="2" NCoef="0" IVar="-1" Cut="0.0000000000000000e+00" cType="1" res="3.3928308635950089e-02" rms="2.3927760124206543e-01" purity="9.3787771463394165e-01" nType="-99"/>
          <Node pos="r" depth="2" NCoef="0" IVar="-1" Cut="0.0000000000000000e+00" cType="1" res="2.0880650728940964e-02" rms="2.9645591974258423e-01" purity="8.8888084888458252e-01" nType="-99"/>
        </Node>
        <Node pos="r" depth="1" NCoef="0" IVar="2" Cut="7.0018974304199219e+01" cType="0" res="-1.4774609357118607e-02" rms="3.8056212663650513e-01" purity="3.0940678715705872e-01" nType="0">
          <Node pos="l" depth="2" NCoef="0" IVar="-1" Cut="0.0000000000000000e+00" cType="1" res="7.7378158457577229e-03" rms="4.0281778573989868e-01" purity="3.9701524376869202e-01" nType="-99"/>
          <Node pos="r" depth="2" NCoef="0" IVar="-1" Cut="0.0000000000000000e+00" cType="1" res="-1.2484857812523842e-02" rms="3.6213061213493347e-01" purity="2.5249442458152771e-01" nType="-99"/>
        </Node>
      </Node>
    </BinaryTree>
    <BinaryTree type="DecisionTree" boostWeight="1.0000000000000000e+00" itree="36">
      <Node pos="s" depth="0" NCoef="0" IVar="3" Cut="8.0273276567459106e-01" cType="1" res="-1.0920058703050017e-03" rms="3.7084016203880310e-01" purity="3.8250666856765747e-01" nType="0">
        <Node pos="l" depth="1" NCoef="0" IVar="0" Cut="1.9397821426391602e+01" cType="0" res="1.6618242487311363e-02" rms="3.7941479682922363e-01" purity="4.2840301990509033e-01" nType="0">
          <Node pos="l" depth="2" NCoef="0" IVar="-1" Cut="0.0000000000000000e+00" cType="1" res="9.7351372241973877e-03" rms="3.9201715588569641e-01" purity="5.4541611671447754e-01" nType="-99"/>
          <Node pos="r" depth="2" NCoef="0" IVar="-1" Cut="0.0000000000000000e+00" cType="1" res="-1.2869968079030514e-02" rms="3.4150567650794983e-01" purity="1.5624007582664490e-01" nType="-99"/>
        </Node>
        <Node pos="r" depth="1" NCoef="0" IVar="0" Cut="9.0488845825195312e+01" cType="0" res="-7.2677053511142731e-02" rms="3.2423335313796997e-01" purity="1.9699305295944214e-01" nType="0">
          <Node pos="l" depth="2" NCoef="0" IVar="-1" Cut="0.0000000000000000e+00" cType="1" res="2.5582449510693550e-02" rms="3.0433431267738342e-01" purity="8.9460831880569458e-01" nType="-99"/>
          <Node pos="r" depth="2" NCoef="0" IVar="-1" Cut="0.0000000000000000e+00" cType="1" res="-2.4619396775960922e-02" rms="3.2290288805961609e-01" purity="1.6900071501731873e-01" nType="-99"/>
        </Node>
      </Node>
    </BinaryTree>
    <BinaryTree type="DecisionTree" boostWeight="1.0000000000000000e+00" itree="37">
      <Node pos="s" depth="0" NCoef="0" IVar="4" Cut="5.1406513899564743e-02" cType="0" res="-8.1674638204276562e-04" rms="3.7021961808204651e-01" purity="3.8250666856765747e-01" nType="0">
        <Node pos="l" depth="1" NCoef="0" IVar="2" Cut="5.1587375640869141e+01" cType="0" res="6.9078415632247925e-02" rms="3.9447188377380371e-01" purity="6.1225008964538574e-01" nType="0">
          <Node pos="l" depth="2" NCoef="0" IVar="-1" Cut="0.0000000000000000e+00" cType="1" res="2.0764797925949097e-02" rms="3.9407458901405334e-01" purity="6.7338597774505615e-01" nType="-99"/>
          <Node pos="r" depth="2" NCoef="0" IVar="-1" Cut="0.0000000000000000e+00" cType="1" res="-5.2771903574466705e-04" rms="3.8661128282546997e-01" purity="4.4950497150421143e-01" nType="-99"/>
        </Node>
        <Node pos="r" depth="1" NCoef="0" IVar="1" Cut="2.8396105957031250e+02" cType="1" res="-1.6972655430436134e-02" rms="3.6247158050537109e-01" purity="3.2940268516540527e-01" nType="0">
          <Node pos="l" depth="2" NCoef="0" IVar="-1" Cut="0.0000000000000000e+00" cType="1" res="-3.4289999166503549e-04" rms="3.7914183735847473e-01" purity="3.7451529502868652e-01" nType="-99"/>
          <Node pos="r" depth="2" NCoef="0" IVar="-1" Cut="0.0000000000000000e+00" cType="1" res="-2.9300417751073837e-02" rms="2.6642453670501709e-01" purity="1.3040664792060852e-01" nType="-99"/>
        </Node>
      </Node>
    </BinaryTree>
    <BinaryTree type="DecisionTree" boostWeight="1.0000000000000000e+00" itree="38">
      <Node pos="s" depth="0" NCoef="0" IVar="2" Cut="6.5661834716796875e+01" cType="0" res="-6.0683337505906820e-04" rms="3.6968144774436951e-01" purity="3.8250666856765747e-01" nType="0">
        <Node pos="l" depth="1" NCoef="0" IVar="1" Cut="1.8567074584960938e+02" cType="1" res="3.5358279943466187e-02" rms="3.8798138499259949e-01" purity="4.6734455227851868e-01" nType="0">
          <Node pos="l" depth="2" NCoef="0" IVar="-1" Cut="0.0000000000000000e+00" cType="1" res="2.4302663281559944e-02" rms="4.0720501542091370e-01" purity="6.8346494436264038e-01" nType="-99"/>
          <Node pos="r" depth="2" NCoef="0" IVar="-1" Cut="0.0000000000000000e+00" cType="1" res="-1.8857928225770593e-03" rms="3.7009960412979126e-01" purity="3.4739294648170471e-01" nType="-99"/>
        </Node>
        <Node pos="r" depth="1" NCoef="0" IVar="0" Cut="5.1801368713378906e+01" cType="0" res="-3.1237820163369179e-02" rms="3.5045066475868225e-01" purity="3.1025141477584839e-01" nType="0">
          <Node pos="l" depth="2" NCoef="0" IVar="-1" Cut="0.0000000000000000e+00" cType="1" res="1.5494405291974545e-02" rms="3.1703862547874451e-01" purity="8.6241245269775391e-01" nType="-99"/>
          <Node pos="r" depth="2" NCoef="0" IVar="-1" Cut="0.0000000000000000e+00" cType="1" res="-1.3869542628526688e-02" rms="3.5407292842864990e-01" purity="2.0480614900588989e-01" nType="-99"/>
        </Node>
      </Node>
    </BinaryTree>
    <BinaryTree type="DecisionTree" boostWeight="1.0000000000000000e+00" itree="39">
      <Node pos="s" depth="0" NCoef="0" IVar="3" Cut="8.3348029851913452e-01" cType="1" res="-4.0340912528336048e-04" rms="3.6894556879997253e-01" purity="3.8250666856765747e-01" nType="0">
        <Node pos="l" depth="1" NCoef="0" IVar="2" Cut="7.4952400207519531e+01" cType="0" res="1.2959483079612255e-02" rms="3.7606620788574219e-01" purity="4.1799989342689514e-01" nType="0">
          <Node pos="l" depth="2" NCoef="0" IVar="-1" Cut="0.0000000000000000e+00" cType="1" res="1.4890966005623341e-02" rms="3.9107066392898560e-01" purity="5.1579123735427856e-01" nType="-99"/>
          <Node pos="r" depth="2" NCoef="0" IVar="-1" Cut="0.0000000000000000e+00" cType="1" res="-3.1125356908887625e-03" rms="3.6601036787033081e-01" purity="3.6984348297119141e-01" nType="-99"/>
        </Node>
        <Node pos="r" depth="1" NCoef="0" IVar="1" Cut="1.3505722045898438e+02" cType="0" res="-7.8367792069911957e-02" rms="3.1312844157218933e-01" purity="1.7542549967765808e-01" nType="0">
          <Node pos="l" depth="2" NCoef="0" IVar="-1" Cut="0.0000000000000000e+00" cType="1" res="-1.9865242764353752e-02" rms="3.2025998830795288e-01" purity="1.9077759981155396e-01" nType="-99"/>
          <Node pos="r" depth="2" NCoef="0" IVar="-1" Cut="0.0000000000000000e+00" cType="1" res="-4.9440767616033554e-02" rms="2.6029449701309204e-01" purity="9.8772972822189331e-02" nType="-99"/>
        </Node>
      </Node>
    </BinaryTree>
    <BinaryTree type="DecisionTree" boostWeight="1.0000000000000000e+00" itree="40">
      <Node pos="s" depth="0" NCoef="0" IVar="0" Cut="2.8455076217651367e+01" cType="0" res="-2.7106958441436291e-04" rms="3.6834266781806946e-01" purity="3.8250666856765747e-01" nType="0">
        <Node pos="l" depth="1" NCoef="0" IVar="3" Cut="6.9731259346008301e-01" cType="1" res="3.2633297145366669e-02" rms="3.8941252231597900e-01" purity="6.1931729316711426e-01" nType="0">
          <Node pos="l" depth="2" NCoef="0" IVar="-1" Cut="0.0000000000000000e+00" cType="1" res="1.3659877702593803e-02" rms="3.8011482357978821e-01" purity="6.9038683176040649e-01" nType="-99"/>
          <Node pos="r" depth="2" NCoef="0" IVar="-1" Cut="0.0000000000000000e+00" cType="1" res="-5.1781861111521721e-03" rms="4.0200886130332947e-01" purity="4.7559183835983276e-01" nType="-99"/>
        </Node>
        <Node pos="r" depth="1" NCoef="0" IVar="1" Cut="1.8622175598144531e+02" cType="1" res="-2.9849734157323837e-02" rms="3.4565308690071106e-01" purity="1.6963091492652893e-01" nType="0">
          <Node pos="l" depth="2" NCoef="0" IVar="-1" Cut="0.0000000000000000e+00" cType="1" res="-1.5127797378227115e-03" rms="3.9277604222297668e-01" purity="2.3486861586570740e-01" nType="-99"/>
          <Node pos="r" depth="2" NCoef="0" IVar="-1" Cut="0.0000000000000000e+00" cType="1" res="-2.1083438768982887e-02" rms="2.8598886728286743e-01" purity="1.0134838521480560e-01" nType="-99"/>
        </Node>
      </Node>
    </BinaryTree>
    <BinaryTree type="DecisionTree" boostWeight="1.0000000000000000e+00" itree="41">
      <Node pos="s" depth="0" NCoef="0" IVar="2" Cut="5.0264865875244141e+01" cType="0" res="-8.2108774222433567e-05" rms="3.6792233586311340e-01" purity="3.8250666856765747e-01" nType="0">
        <Node pos="l" depth="1" NCoef="0" IVar="1" Cut="1.8821755981445312e+02" cType="1" res="1.8721172586083412e-02" rms="3.8048419356346130e-01" purity="4.3327230215072632e-01" nType="0">
          <Node pos="l" depth="2" NCoef="0" IVar="-1" Cut="0.0000000000000000e+00" cType="1" res="1.4827563427388668e-02" rms="4.0549203753471375e-01" purity="5.7269144058227539e-01" nType="-99"/>
          <Node pos="r" depth="2" NCoef="0" IVar="-1" Cut="0.0000000000000000e+00" cType="1" res="-5.8810114860534668e-03" rms="3.5221704840660095e-01" purity="3.1006386876106262e-01" nType="-99"/>
        </Node>
        <Node pos="r" depth="1" NCoef="0" IVar="0" Cut="6.2174915313720703e+01" cType="0" res="-5.0230156630277634e-02" rms="3.2685735821723938e-01" purity="2.4711555242538452e-01" nType="0">
          <Node pos="l" depth="2" NCoef="0" IVar="-1" Cut="0.0000000000000000e+00" cType="1" res="1.9325349479913712e-02" rms="2.8524336218833923e-01" purity="8.9879953861236572e-01" nType="-99"/>
          <Node pos="r" depth="2" NCoef="0" IVar="-1" Cut="0.0000000000000000e+00" cType="1" res="-1.9569341093301773e-02" rms="3.2863256335258484e-01" purity="1.8093784153461456e-01" nType="-99"/>
        </Node>
      </Node>
    </BinaryTree>
    <BinaryTree type="DecisionTree" boostWeight="1.0000000000000000e+00" itree="42">
      <Node pos="s" depth="0" NCoef="0" IVar="0" Cut="1.8116115570068359e+01" cType="0" res="1.8753160475171171e-05" rms="3.6730539798736572e-01" purity="3.8250666856765747e-01" nType="0">
        <Node pos="l" depth="1" NCoef="0" IVar="1" Cut="3.1007290649414062e+02" cType="1" res="1.9036792218685150e-02" rms="3.8516518473625183e-01" purity="4.8800382018089294e-01" nType="0">
          <Node pos="l" depth="2" NCoef="0" IVar="-1" Cut="0.0000000000000000e+00" cType="1" res="7.7829104848206043e-03" rms="3.9298516511917114e-01" purity="5.2729219198226929e-01" nType="-99"/>
          <Node pos="r" depth="2" NCoef="0" IVar="-1" Cut="0.0000000000000000e+00" cType="1" res="-2.2294690832495689e-02" rms="3.0587843060493469e-01" purity="1.9994880259037018e-01" nType="-99"/>
        </Node>
        <Node pos="r" depth="1" NCoef="0" IVar="4" Cut="9.0020574629306793e-02" cType="0" res="-4.5378204435110092e-02" rms="3.1608480215072632e-01" purity="1.3067999482154846e-01" nType="0">
          <Node pos="l" depth="2" NCoef="0" IVar="-1" Cut="0.0000000000000000e+00" cType="1" res="1.1211135424673557e-02" rms="4.4486325979232788e-01" purity="3.1973499059677124e-01" nType="-99"/>
          <Node pos="r" depth="2" NCoef="0" IVar="-1" Cut="0.0000000000000000e+00" cType="1" res="-1.7869053408503532e-02" rms="3.0773043632507324e-01" purity="1.2147337198257446e-01" nType="-99"/>
        </Node>
      </Node>
    </BinaryTree>
    <BinaryTree type="DecisionTree" boostWeight="1.0000000000000000e+00" itree="43">
      <Node pos="s" depth="0" NCoef="0" IVar="0" Cut="6.4641441345214844e+01" cType="0" res="1.2401386629790068e-04" rms="3.6688539385795593e-01" purity="3.8250666856765747e-01" nType="0">
        <Node pos="l" depth="1" NCoef="0" IVar="0" Cut="8.9538101196289062e+01" cType="0" res="8.2253046333789825e-02" rms="2.7306988835334778e-01" purity="9.1122770309448242e-01" nType="0">
          <Node pos="l" depth="2" NCoef="0" IVar="-1" Cut="0.0000000000000000e+00" cType="1" res="3.1927201896905899e-02" rms="2.3958349227905273e-01" purity="9.3801492452621460e-01" nType="-99"/>
          <Node pos="r" depth="2" NCoef="0" IVar="-1" Cut="0.0000000000000000e+00" cType="1" res="1.9127266481518745e-02" rms="2.8909987211227417e-01" purity="8.9551919698715210e-01" nType="-99"/>
        </Node>
        <Node pos="r" depth="1" NCoef="0" IVar="1" Cut="2.3513694763183594e+02" cType="1" res="-1.0106110945343971e-02" rms="3.7568396329879761e-01" purity="3.1664836406707764e-01" nType="0">
          <Node pos="l" depth="2" NCoef="0" IVar="-1" Cut="0.0000000000000000e+00" cType="1" res="2.0417247433215380e-03" rms="4.0044131875038147e-01" purity="3.8682344555854797e-01" nType="-99"/>
          <Node pos="r" depth="2" NCoef="0" IVar="-1" Cut="0.0000000000000000e+00" cType="1" res="-2.2775791585445404e-02" rms="2.8767758607864380e-01" purity="1.1686161905527115e-01" nType="-99"/>
        </Node>
      </Node>
    </BinaryTree>
    <BinaryTree type="DecisionTree" boostWeight="1.0000000000000000e+00" itree="44">
      <Node pos="s" depth="0" NCoef="0" IVar="2" Cut="7.0794151306152344e+01" cType="0" res="2.5702468701638281e-04" rms="3.6648032069206238e-01" purity="3.8250666856765747e-01" nType="0">
        <Node pos="l" depth="1" NCoef="0" IVar="1" Cut="2.0301417541503906e+02" cType="1" res="3.6795642226934433e-02" rms="3.8450947403907776e-01" purity="4.6756359934806824e-01" nType="0">
          <Node pos="l" depth="2" NCoef="0" IVar="-1" Cut="0.0000000000000000e+00" cType="1" res="2.0550511777400970e-02" rms="4.0433439612388611e-01" purity="6.7522263526916504e-01" nType="-99"/>
          <Node pos="r" depth="2" NCoef="0" IVar="-1" Cut="0.0000000000000000e+00" cType="1" res="-2.4283928796648979e-03" rms="3.6109074950218201e-01" purity="2.9631257057189941e-01" nType="-99"/>
        </Node>
        <Node pos="r" depth="1" NCoef="0" IVar="3" Cut="6.4039140939712524e-01" cType="1" res="-2.3453142493963242e-02" rms="3.5226878523826599e-01" purity="3.2731264829635620e-01" nType="0">
          <Node pos="l" depth="2" NCoef="0" IVar="-1" Cut="0.0000000000000000e+00" cType="1" res="2.4028038606047630e-03" rms="3.7376132607460022e-01" purity="4.1802605986595154e-01" nType="-99"/>
          <Node pos="r" depth="2" NCoef="0" IVar="-1" Cut="0.0000000000000000e+00" cType="1" res="-2.0478110760450363e-02" rms="3.1963738799095154e-01" purity="2.1637062728404999e-01" nType="-99"/>
        </Node>
      </Node>
    </BinaryTree>
    <BinaryTree type="DecisionTree" boostWeight="1.0000000000000000e+00" itree="45">
      <Node pos="s" depth="0" NCoef="0" IVar="3" Cut="8.3348029851913452e-01" cType="1" res="3.2641453435644507e-04" rms="3.6581587791442871e-01" purity="3.8250666856765747e-01" nType="0">
        <Node pos="l" depth="1" NCoef="0" IVar="2" Cut="4.6553756713867188e+01" cType="0" res="1.1567219160497189e-02" rms="3.7316343188285828e-01" purity="4.1799989342689514e-01" nType="0">
          <Node pos="l" depth="2" NCoef="0" IVar="-1" Cut="0.0000000000000000e+00" cType="1" res="6.8023046478629112e-03" rms="3.8132756948471069e-01" purity="4.5619815587997437e-01" nType="-99"/>
          <Node pos="r" depth="2" NCoef="0" IVar="-1" Cut="0.0000000000000000e+00" cType="1" res="-1.6584435477852821e-02" rms="3.2772776484489441e-01" purity="2.5168979167938232e-01" nType="-99"/>
        </Node>
        <Node pos="r" depth="1" NCoef="0" IVar="1" Cut="1.3505722045898438e+02" cType="0" res="-6.5256871283054352e-02" rms="3.1161499023437500e-01" purity="1.7542549967765808e-01" nType="0">
          <Node pos="l" depth="2" NCoef="0" IVar="-1" Cut="0.0000000000000000e+00" cType="1" res="-1.6945956274867058e-02" rms="3.1889024376869202e-01" purity="1.9077759981155396e-01" nType="-99"/>
          <Node pos="r" depth="2" NCoef="0" IVar="-1" Cut="0.0000000000000000e+00" cType="1" res="-4.6562723815441132e-02" rms="2.5988695025444031e-01" purity="9.8772972822189331e-02" nType="-99"/>
        </Node>
      </Node>
    </BinaryTree>
    <BinaryTree type="DecisionTree" boostWeight="1.0000000000000000e+00" itree="46">
      <Node pos="s" depth="0" NCoef="0" IVar="0" Cut="6.2056701660156250e+01" cType="0" res="3.7825448089279234e-04" rms="3.6533632874488831e-01" purity="3.8250666856765747e-01" nType="0">
        <Node pos="l" depth="1" NCoef="0" IVar="0" Cut="8.9370628356933594e+01" cType="0" res="7.1945004165172577e-02" rms="2.7813673019409180e-01" purity="9.0531927347183228e-01" nType="0">
          <Node pos="l" depth="2" NCoef="0" IVar="-1" Cut="0.0000000000000000e+00" cType="1" res="3.0779978260397911e-02" rms="2.3913481831550598e-01" purity="9.3787771463394165e-01" nType="-99"/>
          <Node pos="r" depth="2" NCoef="0" IVar="-1" Cut="0.0000000000000000e+00" cType="1" res="1.6766786575317383e-02" rms="2.9422593116760254e-01" purity="8.8888084888458252e-01" nType="-99"/>
        </Node>
        <Node pos="r" depth="1" NCoef="0" IVar="1" Cut="3.0471417236328125e+02" cType="1" res="-9.6282381564378738e-03" rms="3.7483301758766174e-01" purity="3.0940678715705872e-01" nType="0">
          <Node pos="l" depth="2" NCoef="0" IVar="-1" Cut="0.0000000000000000e+00" cType="1" res="3.9802349056117237e-04" rms="3.9038258790969849e-01" purity="3.4625846147537231e-01" nType="-99"/>
          <Node pos="r" depth="2" NCoef="0" IVar="-1" Cut="0.0000000000000000e+00" cType="1" res="-3.4251209348440170e-02" rms="2.3702280223369598e-01" purity="6.7412532866001129e-02" nType="-99"/>
        </Node>
      </Node>
    </BinaryTree>
    <BinaryTree type="DecisionTree" boostWeight="1.0000000000000000e+00" itree="47">
      <Node pos="s" depth="0" NCoef="0" IVar="2" Cut="7.5926475524902344e+01" cType="0" res="4.8382394015789032e-04" rms="3.6496549844741821e-01" purity="3.8250666856765747e-01" nType="0">
        <Node pos="l" depth="1" NCoef="0" IVar="1" Cut="1.9434246826171875e+02" cType="1" res="3.8236916065216064e-02" rms="3.8217726349830627e-01" purity="4.6390259265899658e-01" nType="0">
          <Node pos="l" depth="2" NCoef="0" IVar="-1" Cut="0.0000000000000000e+00" cType="1" res="2.3310650140047073e-02" rms="3.9725601673126221e-01" purity="7.1055728197097778e-01" nType="-99"/>
          <Node pos="r" depth="2" NCoef="0" IVar="-1" Cut="0.0000000000000000e+00" cType="1" res="2.9961988911963999e-04" rms="3.6816465854644775e-01" purity="3.2295989990234375e-01" nType="-99"/>
        </Node>
        <Node pos="r" depth="1" NCoef="0" IVar="3" Cut="6.1774939298629761e-01" cType="1" res="-1.8557369709014893e-02" rms="3.5444673895835876e-01" purity="3.4145373106002808e-01" nType="0">
          <Node pos="l" depth="2" NCoef="0" IVar="-1" Cut="0.0000000000000000e+00" cType="1" res="3.5365622024983168e-03" rms="3.7452992796897888e-01" purity="4.3676379323005676e-01" nType="-99"/>
          <Node pos="r" depth="2" NCoef="0" IVar="-1" Cut="0.0000000000000000e+00" cType="1" res="-1.6757315024733543e-02" rms="3.2843673229217529e-01" purity="2.4020603299140930e-01" nType="-99"/>
        </Node>
      </Node>
    </BinaryTree>
    <BinaryTree type="DecisionTree" boostWeight="1.0000000000000000e+00" itree="48">
      <Node pos="s" depth="0" NCoef="0" IVar="0" Cut="1.8116115570068359e+01" cType="0" res="5.2245688857510686e-04" rms="3.6438921093940735e-01" purity="3.8250666856765747e-01" nType="0">
        <Node pos="l" depth="1" NCoef="0" IVar="3" Cut="7.0170509815216064e-01" cType="1" res="1.7069214954972267e-02" rms="3.8201677799224854e-01" purity="4.8800382018089294e-01" nType="0">
          <Node pos="l" depth="2" NCoef="0" IVar="-1" Cut="0.0000000000000000e+00" cType="1" res="9.3627078458666801e-03" rms="3.8572388887405396e-01" purity="5.6326127052307129e-01" nType="-99"/>
          <Node pos="r" depth="2" NCoef="0" IVar="-1" Cut="0.0000000000000000e+00" cType="1" res="-6.0279052704572678e-03" rms="3.7191641330718994e-01" purity="3.4864503145217896e-01" nType="-99"/>
        </Node>
        <Node pos="r" depth="1" NCoef="0" IVar="4" Cut="9.0020574629306793e-02" cType="0" res="-3.8975436240434647e-02" rms="3.1489476561546326e-01" purity="1.3067999482154846e-01" nType="0">
          <Node pos="l" depth="2" NCoef="0" IVar="-1" Cut="0.0000000000000000e+00" cType="1" res="8.6866402998566628e-03" rms="4.4376698136329651e-01" purity="3.1973499059677124e-01" nType="-99"/>
          <Node pos="r" depth="2" NCoef="0" IVar="-1" Cut="0.0000000000000000e+00" cType="1" res="-1.5968346968293190e-02" rms="3.0675879120826721e-01" purity="1.2147337198257446e-01" nType="-99"/>
        </Node>
      </Node>
    </BinaryTree>
    <BinaryTree type="DecisionTree" boostWeight="1.0000000000000000e+00" itree="49">
      <Node pos="s" depth="0" NCoef="0" IVar="2" Cut="7.5926475524902344e+01" cType="0" res="5.9376645367592573e-04" rms="3.6409142613410950e-01" purity="3.8250666856765747e-01" nType="0">
        <Node pos="l" depth="1" NCoef="0" IVar="1" Cut="2.2902932739257812e+02" cType="1" res="3.5242274403572083e-02" rms="3.8130754232406616e-01" purity="4.6390259265899658e-01" nType="0">
          <Node pos="l" depth="2" NCoef="0" IVar="-1" Cut="0.0000000000000000e+00" cType="1" res="1.7943508923053741e-02" rms="4.0440192818641663e-01" purity="6.3070893287658691e-01" nType="-99"/>
          <Node pos="r" depth="2" NCoef="0" IVar="-1" Cut="0.0000000000000000e+00" cType="1" res="-4.6107503585517406e-03" rms="3.4449020028114319e-01" purity="2.6125466823577881e-01" nType="-99"/>
        </Node>
        <Node pos="r" depth="1" NCoef="0" IVar="0" Cut="4.6626464843750000e+01" cType="0" res="-1.6881596297025681e-02" rms="3.5380685329437256e-01" purity="3.4145373106002808e-01" nType="0">
          <Node pos="l" depth="2" NCoef="0" IVar="-1" Cut="0.0000000000000000e+00" cType="1" res="1.1386315338313580e-02" rms="3.2939860224723816e-01" purity="8.3351504802703857e-01" nType="-99"/>
          <Node pos="r" depth="2" NCoef="0" IVar="-1" Cut="0.0000000000000000e+00" cType="1" res="-9.4316508620977402e-03" rms="3.5836920142173767e-01" purity="2.1388019621372223e-01" nType="-99"/>
        </Node>
      </Node>
    </BinaryTree>
  </Weights>
</MethodSetup>
