<?xml version="1.0"?>
<MethodSetup Method="BDT::qcdBDT_mixed__mu">
  <GeneralInfo>
    <Info name="TMVA Release" value="4.1.2 [262402]"/>
    <Info name="ROOT Release" value="5.32/00 [335872]"/>
    <Info name="Creator" value="andres"/>
    <Info name="Date" value="Mon Dec  8 17:18:19 2014"/>
    <Info name="Host" value="Linux lxbuild170.cern.ch 2.6.18-348.4.1.el5 #1 SMP Wed Apr 17 07:11:13 CEST 2013 x86_64 x86_64 x86_64 GNU/Linux"/>
    <Info name="Dir" value="/home/andres/single_top/stpol_pdf/src/qcd_mva"/>
    <Info name="Training events" value="56041"/>
    <Info name="TrainingTime" value="3.01782584e+00"/>
    <Info name="AnalysisType" value="Classification"/>
  </GeneralInfo>
  <Options>
    <Option name="V" modified="Yes">True</Option>
    <Option name="VerbosityLevel" modified="No">Verbose</Option>
    <Option name="VarTransform" modified="No">None</Option>
    <Option name="H" modified="Yes">False</Option>
    <Option name="CreateMVAPdfs" modified="No">False</Option>
    <Option name="IgnoreNegWeightsInTraining" modified="No">False</Option>
    <Option name="NTrees" modified="Yes">50</Option>
    <Option name="RenormByClass" modified="No">False</Option>
    <Option name="BoostType" modified="Yes">Grad</Option>
    <Option name="AdaBoostR2Loss" modified="No">quadratic</Option>
    <Option name="UseBaggedGrad" modified="Yes">False</Option>
    <Option name="GradBaggingFraction" modified="No">6.000000e-01</Option>
    <Option name="Shrinkage" modified="Yes">6.000000e-01</Option>
    <Option name="AdaBoostBeta" modified="No">1.000000e+00</Option>
    <Option name="UseRandomisedTrees" modified="No">False</Option>
    <Option name="UseNvars" modified="No">2</Option>
    <Option name="UsePoissonNvars" modified="No">True</Option>
    <Option name="UseNTrainEvents" modified="No">56041</Option>
    <Option name="UseWeightedTrees" modified="No">True</Option>
    <Option name="UseYesNoLeaf" modified="No">True</Option>
    <Option name="NodePurityLimit" modified="No">5.000000e-01</Option>
    <Option name="SeparationType" modified="Yes">crossentropy</Option>
    <Option name="nEventsMin" modified="Yes">250</Option>
    <Option name="nCuts" modified="Yes">200</Option>
    <Option name="UseFisherCuts" modified="No">False</Option>
    <Option name="MinLinCorrForFisher" modified="No">8.000000e-01</Option>
    <Option name="UseExclusiveVars" modified="No">False</Option>
    <Option name="PruneStrength" modified="No">0.000000e+00</Option>
    <Option name="PruneMethod" modified="No">nopruning</Option>
    <Option name="PruneBeforeBoost" modified="No">False</Option>
    <Option name="PruningValFraction" modified="No">5.000000e-01</Option>
    <Option name="NNodesMax" modified="No">100000</Option>
    <Option name="MaxDepth" modified="Yes">2</Option>
    <Option name="DoBoostMonitor" modified="No">False</Option>
    <Option name="NegWeightTreatment" modified="No">ignorenegweights</Option>
  </Options>
  <Variables NVar="5">
    <Variable VarIndex="0" Expression="mtw" Label="mtw" Title="mtw" Unit="" Internal="mtw" Type="D" Min="2.48525478e-03" Max="2.65867706e+02"/>
    <Variable VarIndex="1" Expression="met" Label="met" Title="met" Unit="" Internal="met" Type="D" Min="2.91991413e-01" Max="6.47597900e+02"/>
    <Variable VarIndex="2" Expression="isotropy" Label="isotropy" Title="isotropy" Unit="" Internal="isotropy" Type="D" Min="1.14991054e-01" Max="9.90650535e-01"/>
    <Variable VarIndex="3" Expression="top_mass" Label="top_mass" Title="top_mass" Unit="" Internal="top_mass" Type="D" Min="9.24884949e+01" Max="1.27414453e+03"/>
    <Variable VarIndex="4" Expression="ljet_pt" Label="ljet_pt" Title="ljet_pt" Unit="" Internal="ljet_pt" Type="D" Min="4.00004082e+01" Max="7.67410522e+02"/>
  </Variables>
  <Spectators NSpec="0"/>
  <Classes NClass="2">
    <Class Name="Background" Index="0"/>
    <Class Name="Signal" Index="1"/>
  </Classes>
  <Transformations NTransformations="0"/>
  <MVAPdfs/>
  <Weights NTrees="50" AnalysisType="1">
    <BinaryTree type="DecisionTree" boostWeight="1.0000000000000000e+00" itree="0">
      <Node pos="s" depth="0" NCoef="0" IVar="0" Cut="5.6879123687744141e+01" cType="0" res="-1.7789478600025177e-01" rms="4.6728304028511047e-01" purity="3.2210519909858704e-01" nType="0">
        <Node pos="l" depth="1" NCoef="0" IVar="2" Cut="7.9025083780288696e-01" cType="1" res="1.7913612723350525e-01" rms="4.6680858731269836e-01" purity="6.7913615703582764e-01" nType="0">
          <Node pos="l" depth="2" NCoef="0" IVar="-1" Cut="0.0000000000000000e+00" cType="1" res="1.0766090154647827e+00" rms="4.3692263960838318e-01" purity="7.4310201406478882e-01" nType="-99"/>
          <Node pos="r" depth="2" NCoef="0" IVar="-1" Cut="0.0000000000000000e+00" cType="1" res="-2.2246481478214264e-01" rms="4.8648986220359802e-01" purity="3.8455474376678467e-01" nType="-99"/>
        </Node>
        <Node pos="r" depth="1" NCoef="0" IVar="1" Cut="4.3087902069091797e+01" cType="0" res="-3.2814967632293701e-01" rms="3.7725031375885010e-01" purity="1.7185032367706299e-01" nType="0">
          <Node pos="l" depth="2" NCoef="0" IVar="-1" Cut="0.0000000000000000e+00" cType="1" res="-2.6018900796771049e-02" rms="4.9987259507179260e-01" purity="4.8871350288391113e-01" nType="-99"/>
          <Node pos="r" depth="2" NCoef="0" IVar="-1" Cut="0.0000000000000000e+00" cType="1" res="-5.1412236690521240e-01" rms="3.2896071672439575e-01" purity="1.2345671653747559e-01" nType="-99"/>
        </Node>
      </Node>
    </BinaryTree>
    <BinaryTree type="DecisionTree" boostWeight="1.0000000000000000e+00" itree="1">
      <Node pos="s" depth="0" NCoef="0" IVar="3" Cut="1.4539846801757812e+02" cType="0" res="-1.2281621247529984e-01" rms="3.8845956325531006e-01" purity="3.2210519909858704e-01" nType="0">
        <Node pos="l" depth="1" NCoef="0" IVar="3" Cut="2.2402035522460938e+02" cType="1" res="-9.1884255409240723e-02" rms="4.0886339545249939e-01" purity="3.7666705250740051e-01" nType="0">
          <Node pos="l" depth="2" NCoef="0" IVar="-1" Cut="0.0000000000000000e+00" cType="1" res="-1.8300612270832062e-01" rms="4.1432890295982361e-01" purity="4.1757482290267944e-01" nType="-99"/>
          <Node pos="r" depth="2" NCoef="0" IVar="-1" Cut="0.0000000000000000e+00" cType="1" res="-3.6622270941734314e-01" rms="3.7175530195236206e-01" purity="2.1550077199935913e-01" nType="-99"/>
        </Node>
        <Node pos="r" depth="1" NCoef="0" IVar="4" Cut="1.7517700195312500e+02" cType="0" res="-2.1157535910606384e-01" rms="3.0593284964561462e-01" purity="1.6554021835327148e-01" nType="0">
          <Node pos="l" depth="2" NCoef="0" IVar="-1" Cut="0.0000000000000000e+00" cType="1" res="1.3080947399139404e+00" rms="4.2720749974250793e-01" purity="7.7013760805130005e-01" nType="-99"/>
          <Node pos="r" depth="2" NCoef="0" IVar="-1" Cut="0.0000000000000000e+00" cType="1" res="-4.0197736024856567e-01" rms="3.0042138695716858e-01" purity="1.5904408693313599e-01" nType="-99"/>
        </Node>
      </Node>
    </BinaryTree>
    <BinaryTree type="DecisionTree" boostWeight="1.0000000000000000e+00" itree="2">
      <Node pos="s" depth="0" NCoef="0" IVar="4" Cut="2.1009132385253906e+02" cType="0" res="-3.7259496748447418e-02" rms="3.8611820340156555e-01" purity="3.2210519909858704e-01" nType="0">
        <Node pos="l" depth="1" NCoef="0" IVar="3" Cut="2.0252459716796875e+02" cType="1" res="3.2977530360221863e-01" rms="4.0352985262870789e-01" purity="7.8257131576538086e-01" nType="0">
          <Node pos="l" depth="2" NCoef="0" IVar="-1" Cut="0.0000000000000000e+00" cType="1" res="4.8751893043518066e+00" rms="3.5345965623855591e-01" purity="9.0671664476394653e-01" nType="-99"/>
          <Node pos="r" depth="2" NCoef="0" IVar="-1" Cut="0.0000000000000000e+00" cType="1" res="7.0965099334716797e-01" rms="4.6440821886062622e-01" purity="5.3507441282272339e-01" nType="-99"/>
        </Node>
        <Node pos="r" depth="1" NCoef="0" IVar="0" Cut="2.6456735610961914e+01" cType="0" res="-4.1028756648302078e-02" rms="3.8412028551101685e-01" purity="3.1737646460533142e-01" nType="0">
          <Node pos="l" depth="2" NCoef="0" IVar="-1" Cut="0.0000000000000000e+00" cType="1" res="-4.7755613923072815e-02" rms="4.2639404535293579e-01" purity="4.4273075461387634e-01" nType="-99"/>
          <Node pos="r" depth="2" NCoef="0" IVar="-1" Cut="0.0000000000000000e+00" cType="1" res="-1.9894152879714966e-01" rms="2.9370433092117310e-01" purity="1.0582309216260910e-01" nType="-99"/>
        </Node>
      </Node>
    </BinaryTree>
    <BinaryTree type="DecisionTree" boostWeight="1.0000000000000000e+00" itree="3">
      <Node pos="s" depth="0" NCoef="0" IVar="3" Cut="1.5127735900878906e+02" cType="0" res="-1.3189738616347313e-02" rms="3.8351032137870789e-01" purity="3.2210519909858704e-01" nType="0">
        <Node pos="l" depth="1" NCoef="0" IVar="0" Cut="5.6879123687744141e+01" cType="0" res="1.0233130306005478e-02" rms="4.0743660926818848e-01" purity="3.8134983181953430e-01" nType="0">
          <Node pos="l" depth="2" NCoef="0" IVar="-1" Cut="0.0000000000000000e+00" cType="1" res="-2.9363402724266052e-01" rms="4.3264845013618469e-01" purity="7.0181226730346680e-01" nType="-99"/>
          <Node pos="r" depth="2" NCoef="0" IVar="-1" Cut="0.0000000000000000e+00" cType="1" res="1.1242649704217911e-01" rms="3.9119103550910950e-01" purity="2.2331213951110840e-01" nType="-99"/>
        </Node>
        <Node pos="r" depth="1" NCoef="0" IVar="0" Cut="7.9298316955566406e+01" cType="0" res="-6.3626937568187714e-02" rms="3.2031905651092529e-01" purity="1.9453187286853790e-01" nType="0">
          <Node pos="l" depth="2" NCoef="0" IVar="-1" Cut="0.0000000000000000e+00" cType="1" res="5.0052469968795776e-01" rms="4.4322493672370911e-01" purity="7.8933554887771606e-01" nType="-99"/>
          <Node pos="r" depth="2" NCoef="0" IVar="-1" Cut="0.0000000000000000e+00" cType="1" res="-2.3020109534263611e-01" rms="3.0380779504776001e-01" purity="1.3922651112079620e-01" nType="-99"/>
        </Node>
      </Node>
    </BinaryTree>
    <BinaryTree type="DecisionTree" boostWeight="1.0000000000000000e+00" itree="4">
      <Node pos="s" depth="0" NCoef="0" IVar="0" Cut="3.8361148834228516e+01" cType="0" res="3.4690175671130419e-03" rms="3.7930211424827576e-01" purity="3.2210519909858704e-01" nType="0">
        <Node pos="l" depth="1" NCoef="0" IVar="1" Cut="1.2856604576110840e+01" cType="1" res="4.8399209976196289e-02" rms="4.4037130475044250e-01" purity="5.3996771574020386e-01" nType="0">
          <Node pos="l" depth="2" NCoef="0" IVar="-1" Cut="0.0000000000000000e+00" cType="1" res="7.7358276367187500e+01" rms="1.8966364860534668e-01" purity="1.0000000000000000e+00" nType="-99"/>
          <Node pos="r" depth="2" NCoef="0" IVar="-1" Cut="0.0000000000000000e+00" cType="1" res="1.7421254515647888e-01" rms="4.3685013055801392e-01" purity="5.3572034835815430e-01" nType="-99"/>
        </Node>
        <Node pos="r" depth="1" NCoef="0" IVar="1" Cut="6.0595317840576172e+01" cType="0" res="-3.7173986434936523e-02" rms="3.0840188264846802e-01" purity="1.2503089010715485e-01" nType="0">
          <Node pos="l" depth="2" NCoef="0" IVar="-1" Cut="0.0000000000000000e+00" cType="1" res="7.7627044916152954e-01" rms="4.9550375342369080e-01" purity="6.0186433792114258e-01" nType="-99"/>
          <Node pos="r" depth="2" NCoef="0" IVar="-1" Cut="0.0000000000000000e+00" cType="1" res="-1.3664533197879791e-01" rms="2.9214081168174744e-01" purity="1.0318771749734879e-01" nType="-99"/>
        </Node>
      </Node>
    </BinaryTree>
    <BinaryTree type="DecisionTree" boostWeight="1.0000000000000000e+00" itree="5">
      <Node pos="s" depth="0" NCoef="0" IVar="2" Cut="6.4212936162948608e-01" cType="1" res="-1.8746623769402504e-02" rms="3.7107613682746887e-01" purity="3.2210519909858704e-01" nType="0">
        <Node pos="l" depth="1" NCoef="0" IVar="4" Cut="6.7177383422851562e+01" cType="0" res="1.2028280645608902e-02" rms="3.7959700822830200e-01" purity="4.0767097473144531e-01" nType="0">
          <Node pos="l" depth="2" NCoef="0" IVar="-1" Cut="0.0000000000000000e+00" cType="1" res="3.6506235599517822e-01" rms="4.2011785507202148e-01" purity="5.5248147249221802e-01" nType="-99"/>
          <Node pos="r" depth="2" NCoef="0" IVar="-1" Cut="0.0000000000000000e+00" cType="1" res="-6.6005378961563110e-02" rms="3.5376659035682678e-01" purity="3.3416268229484558e-01" nType="-99"/>
        </Node>
        <Node pos="r" depth="1" NCoef="0" IVar="0" Cut="9.3915077209472656e+01" cType="0" res="-4.7861482948064804e-02" rms="3.6041983962059021e-01" purity="2.4115501344203949e-01" nType="0">
          <Node pos="l" depth="2" NCoef="0" IVar="-1" Cut="0.0000000000000000e+00" cType="1" res="6.1881554126739502e-01" rms="4.5042502880096436e-01" purity="7.3355454206466675e-01" nType="-99"/>
          <Node pos="r" depth="2" NCoef="0" IVar="-1" Cut="0.0000000000000000e+00" cType="1" res="-1.6798685491085052e-01" rms="3.5479354858398438e-01" purity="2.1983043849468231e-01" nType="-99"/>
        </Node>
      </Node>
    </BinaryTree>
    <BinaryTree type="DecisionTree" boostWeight="1.0000000000000000e+00" itree="6">
      <Node pos="s" depth="0" NCoef="0" IVar="1" Cut="6.1480113983154297e+01" cType="0" res="-1.3527109287679195e-02" rms="3.6665761470794678e-01" purity="3.2210519909858704e-01" nType="0">
        <Node pos="l" depth="1" NCoef="0" IVar="0" Cut="7.6725257873535156e+01" cType="1" res="-7.5147062540054321e-02" rms="4.7056090831756592e-01" purity="6.7641794681549072e-01" nType="0">
          <Node pos="l" depth="2" NCoef="0" IVar="-1" Cut="0.0000000000000000e+00" cType="1" res="2.4885043501853943e-02" rms="4.6226167678833008e-01" purity="7.0073181390762329e-01" nType="-99"/>
          <Node pos="r" depth="2" NCoef="0" IVar="-1" Cut="0.0000000000000000e+00" cType="1" res="-8.5569012165069580e-01" rms="4.6722143888473511e-01" purity="6.5667325258255005e-01" nType="-99"/>
        </Node>
        <Node pos="r" depth="1" NCoef="0" IVar="0" Cut="7.3832168579101562e+01" cType="0" res="-2.7962988242506981e-03" rms="3.4425655007362366e-01" purity="2.6040339469909668e-01" nType="0">
          <Node pos="l" depth="2" NCoef="0" IVar="-1" Cut="0.0000000000000000e+00" cType="1" res="1.1618814468383789e+00" rms="3.2732415199279785e-01" purity="8.4652245044708252e-01" nType="-99"/>
          <Node pos="r" depth="2" NCoef="0" IVar="-1" Cut="0.0000000000000000e+00" cType="1" res="-4.9205958843231201e-02" rms="3.4406894445419312e-01" purity="1.9944582879543304e-01" nType="-99"/>
        </Node>
      </Node>
    </BinaryTree>
    <BinaryTree type="DecisionTree" boostWeight="1.0000000000000000e+00" itree="7">
      <Node pos="s" depth="0" NCoef="0" IVar="1" Cut="6.1480113983154297e+01" cType="0" res="2.6097823865711689e-03" rms="3.6903318762779236e-01" purity="3.2210519909858704e-01" nType="0">
        <Node pos="l" depth="1" NCoef="0" IVar="0" Cut="3.9690372467041016e+01" cType="0" res="8.3815209567546844e-02" rms="4.8151379823684692e-01" purity="6.7641794681549072e-01" nType="0">
          <Node pos="l" depth="2" NCoef="0" IVar="-1" Cut="0.0000000000000000e+00" cType="1" res="6.1444652080535889e-01" rms="4.7523510456085205e-01" purity="6.9318330287933350e-01" nType="-99"/>
          <Node pos="r" depth="2" NCoef="0" IVar="-1" Cut="0.0000000000000000e+00" cType="1" res="-3.8081070780754089e-01" rms="4.6830689907073975e-01" purity="5.8869308233261108e-01" nType="-99"/>
        </Node>
        <Node pos="r" depth="1" NCoef="0" IVar="0" Cut="5.6638954162597656e+01" cType="0" res="-1.1531743220984936e-02" rms="3.4376835823059082e-01" purity="2.6040339469909668e-01" nType="0">
          <Node pos="l" depth="2" NCoef="0" IVar="-1" Cut="0.0000000000000000e+00" cType="1" res="-5.0677108764648438e-01" rms="4.0921869874000549e-01" purity="6.7054349184036255e-01" nType="-99"/>
          <Node pos="r" depth="2" NCoef="0" IVar="-1" Cut="0.0000000000000000e+00" cType="1" res="3.6744378507137299e-02" rms="3.1974235177040100e-01" purity="1.4510940015316010e-01" nType="-99"/>
        </Node>
      </Node>
    </BinaryTree>
    <BinaryTree type="DecisionTree" boostWeight="1.0000000000000000e+00" itree="8">
      <Node pos="s" depth="0" NCoef="0" IVar="1" Cut="4.8598403930664062e+01" cType="0" res="2.9820695635862648e-04" rms="3.6274495720863342e-01" purity="3.2210519909858704e-01" nType="0">
        <Node pos="l" depth="1" NCoef="0" IVar="0" Cut="6.3498512268066406e+01" cType="0" res="-4.5642741024494171e-02" rms="4.5076647400856018e-01" purity="6.3227528333663940e-01" nType="0">
          <Node pos="l" depth="2" NCoef="0" IVar="-1" Cut="0.0000000000000000e+00" cType="1" res="-5.2310127019882202e-01" rms="4.5031079649925232e-01" purity="6.7630660533905029e-01" nType="-99"/>
          <Node pos="r" depth="2" NCoef="0" IVar="-1" Cut="0.0000000000000000e+00" cType="1" res="1.2098719179630280e-01" rms="4.4062691926956177e-01" purity="5.4998743534088135e-01" nType="-99"/>
        </Node>
        <Node pos="r" depth="1" NCoef="0" IVar="0" Cut="4.8660373687744141e+01" cType="0" res="1.5252089127898216e-02" rms="3.2766631245613098e-01" purity="2.2114415466785431e-01" nType="0">
          <Node pos="l" depth="2" NCoef="0" IVar="-1" Cut="0.0000000000000000e+00" cType="1" res="4.0520578622817993e-01" rms="4.0449380874633789e-01" purity="5.5207693576812744e-01" nType="-99"/>
          <Node pos="r" depth="2" NCoef="0" IVar="-1" Cut="0.0000000000000000e+00" cType="1" res="-3.7778701633214951e-02" rms="2.9362696409225464e-01" purity="1.1223984509706497e-01" nType="-99"/>
        </Node>
      </Node>
    </BinaryTree>
    <BinaryTree type="DecisionTree" boostWeight="1.0000000000000000e+00" itree="9">
      <Node pos="s" depth="0" NCoef="0" IVar="0" Cut="7.0106246948242188e+01" cType="0" res="2.7069959323853254e-03" rms="3.6252176761627197e-01" purity="3.2210519909858704e-01" nType="0">
        <Node pos="l" depth="1" NCoef="0" IVar="3" Cut="1.4598611450195312e+02" cType="0" res="6.4204327762126923e-02" rms="4.1503372788429260e-01" purity="7.4858057498931885e-01" nType="0">
          <Node pos="l" depth="2" NCoef="0" IVar="-1" Cut="0.0000000000000000e+00" cType="1" res="5.4078632593154907e-01" rms="4.1129806637763977e-01" purity="7.5648295879364014e-01" nType="-99"/>
          <Node pos="r" depth="2" NCoef="0" IVar="-1" Cut="0.0000000000000000e+00" cType="1" res="-1.8245950341224670e-01" rms="4.2182666063308716e-01" purity="7.0807349681854248e-01" nType="-99"/>
        </Node>
        <Node pos="r" depth="1" NCoef="0" IVar="2" Cut="8.8225513696670532e-01" cType="1" res="-1.1919627897441387e-02" rms="3.4727120399475098e-01" purity="2.2067165374755859e-01" nType="0">
          <Node pos="l" depth="2" NCoef="0" IVar="-1" Cut="0.0000000000000000e+00" cType="1" res="-1.6631161794066429e-02" rms="3.5720938444137573e-01" purity="2.3769225180149078e-01" nType="-99"/>
          <Node pos="r" depth="2" NCoef="0" IVar="-1" Cut="0.0000000000000000e+00" cType="1" res="-2.6030912995338440e-01" rms="2.2638259828090668e-01" purity="6.4290843904018402e-02" nType="-99"/>
        </Node>
      </Node>
    </BinaryTree>
    <BinaryTree type="DecisionTree" boostWeight="1.0000000000000000e+00" itree="10">
      <Node pos="s" depth="0" NCoef="0" IVar="0" Cut="7.2751678466796875e+01" cType="0" res="-1.2220495380461216e-02" rms="3.5872298479080200e-01" purity="3.2210519909858704e-01" nType="0">
        <Node pos="l" depth="1" NCoef="0" IVar="1" Cut="9.9937065124511719e+01" cType="1" res="-5.6014608591794968e-02" rms="4.0222585201263428e-01" purity="7.4569320678710938e-01" nType="0">
          <Node pos="l" depth="2" NCoef="0" IVar="-1" Cut="0.0000000000000000e+00" cType="1" res="-3.2246857881546021e-01" rms="3.8596776127815247e-01" purity="7.6553368568420410e-01" nType="-99"/>
          <Node pos="r" depth="2" NCoef="0" IVar="-1" Cut="0.0000000000000000e+00" cType="1" res="-7.7743732929229736e-01" rms="5.0201112031936646e-01" purity="5.7894748449325562e-01" nType="-99"/>
        </Node>
        <Node pos="r" depth="1" NCoef="0" IVar="3" Cut="2.1944619750976562e+02" cType="1" res="-2.8468377422541380e-03" rms="3.4799191355705261e-01" purity="2.3144078254699707e-01" nType="0">
          <Node pos="l" depth="2" NCoef="0" IVar="-1" Cut="0.0000000000000000e+00" cType="1" res="2.5900540873408318e-02" rms="3.4858402609825134e-01" purity="2.4202565848827362e-01" nType="-99"/>
          <Node pos="r" depth="2" NCoef="0" IVar="-1" Cut="0.0000000000000000e+00" cType="1" res="-1.5012200176715851e-01" rms="3.4181129932403564e-01" purity="1.8194751441478729e-01" nType="-99"/>
        </Node>
      </Node>
    </BinaryTree>
    <BinaryTree type="DecisionTree" boostWeight="1.0000000000000000e+00" itree="11">
      <Node pos="s" depth="0" NCoef="0" IVar="0" Cut="8.4656089782714844e+01" cType="0" res="6.2168519943952560e-03" rms="3.5838437080383301e-01" purity="3.2210519909858704e-01" nType="0">
        <Node pos="l" depth="1" NCoef="0" IVar="4" Cut="1.1077983856201172e+02" cType="1" res="8.1299893558025360e-02" rms="3.8847163319587708e-01" purity="7.7240520715713501e-01" nType="0">
          <Node pos="l" depth="2" NCoef="0" IVar="-1" Cut="0.0000000000000000e+00" cType="1" res="7.8316992521286011e-01" rms="3.5635063052177429e-01" purity="7.9874312877655029e-01" nType="-99"/>
          <Node pos="r" depth="2" NCoef="0" IVar="-1" Cut="0.0000000000000000e+00" cType="1" res="-5.1162868738174438e-02" rms="4.7797897458076477e-01" purity="6.7527019977569580e-01" nType="-99"/>
        </Node>
        <Node pos="r" depth="1" NCoef="0" IVar="2" Cut="5.4839742183685303e-01" cType="1" res="-1.7311396077275276e-03" rms="3.5411968827247620e-01" purity="2.7443826198577881e-01" nType="0">
          <Node pos="l" depth="2" NCoef="0" IVar="-1" Cut="0.0000000000000000e+00" cType="1" res="9.7698487341403961e-02" rms="3.6668020486831665e-01" purity="3.6679470539093018e-01" nType="-99"/>
          <Node pos="r" depth="2" NCoef="0" IVar="-1" Cut="0.0000000000000000e+00" cType="1" res="-5.0143409520387650e-02" rms="3.4765738248825073e-01" purity="2.3231960833072662e-01" nType="-99"/>
        </Node>
      </Node>
    </BinaryTree>
    <BinaryTree type="DecisionTree" boostWeight="1.0000000000000000e+00" itree="12">
      <Node pos="s" depth="0" NCoef="0" IVar="4" Cut="9.4284744262695312e+01" cType="0" res="-7.4707143940031528e-03" rms="3.5673049092292786e-01" purity="3.2210519909858704e-01" nType="0">
        <Node pos="l" depth="1" NCoef="0" IVar="2" Cut="8.4579765796661377e-01" cType="1" res="3.2143447548151016e-02" rms="3.9313456416130066e-01" purity="4.1722944378852844e-01" nType="0">
          <Node pos="l" depth="2" NCoef="0" IVar="-1" Cut="0.0000000000000000e+00" cType="1" res="2.8740790486335754e-01" rms="4.1949713230133057e-01" purity="5.2441036701202393e-01" nType="-99"/>
          <Node pos="r" depth="2" NCoef="0" IVar="-1" Cut="0.0000000000000000e+00" cType="1" res="-1.3318166136741638e-01" rms="3.0813196301460266e-01" purity="1.4589548110961914e-01" nType="-99"/>
        </Node>
        <Node pos="r" depth="1" NCoef="0" IVar="1" Cut="9.0912620544433594e+01" cType="0" res="-1.8431061878800392e-02" rms="3.4518045186996460e-01" purity="2.9578649997711182e-01" nType="0">
          <Node pos="l" depth="2" NCoef="0" IVar="-1" Cut="0.0000000000000000e+00" cType="1" res="-5.4624533653259277e-01" rms="5.1899498701095581e-01" purity="5.2407991886138916e-01" nType="-99"/>
          <Node pos="r" depth="2" NCoef="0" IVar="-1" Cut="0.0000000000000000e+00" cType="1" res="-5.5700957775115967e-02" rms="3.3649998903274536e-01" purity="2.8778079152107239e-01" nType="-99"/>
        </Node>
      </Node>
    </BinaryTree>
    <BinaryTree type="DecisionTree" boostWeight="1.0000000000000000e+00" itree="13">
      <Node pos="s" depth="0" NCoef="0" IVar="0" Cut="8.5978797912597656e+01" cType="0" res="-3.3958130516111851e-03" rms="3.5505789518356323e-01" purity="3.2210519909858704e-01" nType="0">
        <Node pos="l" depth="1" NCoef="0" IVar="3" Cut="2.6191717529296875e+02" cType="1" res="-4.7979749739170074e-02" rms="3.7825894355773926e-01" purity="7.6597195863723755e-01" nType="0">
          <Node pos="l" depth="2" NCoef="0" IVar="-1" Cut="0.0000000000000000e+00" cType="1" res="-2.7737161517143250e-01" rms="3.6666017770767212e-01" purity="7.8606027364730835e-01" nType="-99"/>
          <Node pos="r" depth="2" NCoef="0" IVar="-1" Cut="0.0000000000000000e+00" cType="1" res="-8.3347493410110474e-01" rms="4.8516869544982910e-01" purity="4.2260622978210449e-01" nType="-99"/>
        </Node>
        <Node pos="r" depth="1" NCoef="0" IVar="1" Cut="9.0463958740234375e+01" cType="0" res="9.6218899125233293e-04" rms="3.5240566730499268e-01" purity="2.7871802449226379e-01" nType="0">
          <Node pos="l" depth="2" NCoef="0" IVar="-1" Cut="0.0000000000000000e+00" cType="1" res="4.8494935035705566e-01" rms="4.7210007905960083e-01" purity="6.8084722757339478e-01" nType="-99"/>
          <Node pos="r" depth="2" NCoef="0" IVar="-1" Cut="0.0000000000000000e+00" cType="1" res="-8.3951158449053764e-03" rms="3.4726202487945557e-01" purity="2.6517528295516968e-01" nType="-99"/>
        </Node>
      </Node>
    </BinaryTree>
    <BinaryTree type="DecisionTree" boostWeight="1.0000000000000000e+00" itree="14">
      <Node pos="s" depth="0" NCoef="0" IVar="0" Cut="9.9205924987792969e+01" cType="0" res="4.5534581295214593e-04" rms="3.5364612936973572e-01" purity="3.2210519909858704e-01" nType="0">
        <Node pos="l" depth="1" NCoef="0" IVar="1" Cut="1.1057841491699219e+02" cType="1" res="7.7966012060642242e-02" rms="3.1789979338645935e-01" purity="8.1639301776885986e-01" nType="0">
          <Node pos="l" depth="2" NCoef="0" IVar="-1" Cut="0.0000000000000000e+00" cType="1" res="1.7214488983154297e+00" rms="2.7058354020118713e-01" purity="9.1258227825164795e-01" nType="-99"/>
          <Node pos="r" depth="2" NCoef="0" IVar="-1" Cut="0.0000000000000000e+00" cType="1" res="-2.5636470317840576e-01" rms="4.5559731125831604e-01" purity="3.1088688969612122e-01" nType="-99"/>
        </Node>
        <Node pos="r" depth="1" NCoef="0" IVar="3" Cut="1.5715623474121094e+02" cType="0" res="-2.3054364137351513e-03" rms="3.5454055666923523e-01" purity="3.0449962615966797e-01" nType="0">
          <Node pos="l" depth="2" NCoef="0" IVar="-1" Cut="0.0000000000000000e+00" cType="1" res="3.2169997692108154e-02" rms="3.8026982545852661e-01" purity="3.6422541737556458e-01" nType="-99"/>
          <Node pos="r" depth="2" NCoef="0" IVar="-1" Cut="0.0000000000000000e+00" cType="1" res="-9.1922603547573090e-02" rms="3.0740118026733398e-01" purity="2.0736944675445557e-01" nType="-99"/>
        </Node>
      </Node>
    </BinaryTree>
    <BinaryTree type="DecisionTree" boostWeight="1.0000000000000000e+00" itree="15">
      <Node pos="s" depth="0" NCoef="0" IVar="1" Cut="6.4700538635253906e+01" cType="0" res="-3.5081601236015558e-03" rms="3.5265833139419556e-01" purity="3.2210519909858704e-01" nType="0">
        <Node pos="l" depth="1" NCoef="0" IVar="4" Cut="5.4488128662109375e+01" cType="0" res="-3.7509921938180923e-02" rms="4.5482513308525085e-01" purity="6.8095815181732178e-01" nType="0">
          <Node pos="l" depth="2" NCoef="0" IVar="-1" Cut="0.0000000000000000e+00" cType="1" res="-3.5087004303932190e-01" rms="4.6087753772735596e-01" purity="6.8270021677017212e-01" nType="-99"/>
          <Node pos="r" depth="2" NCoef="0" IVar="-1" Cut="0.0000000000000000e+00" cType="1" res="2.1974064409732819e-01" rms="4.2325723171234131e-01" purity="6.7488956451416016e-01" nType="-99"/>
        </Node>
        <Node pos="r" depth="1" NCoef="0" IVar="2" Cut="3.2846027612686157e-01" cType="1" res="1.6010691178962588e-03" rms="3.3432260155677795e-01" purity="2.6818263530731201e-01" nType="0">
          <Node pos="l" depth="2" NCoef="0" IVar="-1" Cut="0.0000000000000000e+00" cType="1" res="2.8238829970359802e-01" rms="3.3796828985214233e-01" purity="3.8584470748901367e-01" nType="-99"/>
          <Node pos="r" depth="2" NCoef="0" IVar="-1" Cut="0.0000000000000000e+00" cType="1" res="-7.7568897977471352e-03" rms="3.3379584550857544e-01" purity="2.6078730821609497e-01" nType="-99"/>
        </Node>
      </Node>
    </BinaryTree>
    <BinaryTree type="DecisionTree" boostWeight="1.0000000000000000e+00" itree="16">
      <Node pos="s" depth="0" NCoef="0" IVar="4" Cut="4.7238319396972656e+01" cType="0" res="2.2821221500635147e-03" rms="3.5234311223030090e-01" purity="3.2210519909858704e-01" nType="0">
        <Node pos="l" depth="1" NCoef="0" IVar="1" Cut="1.0978652191162109e+02" cType="0" res="9.6090557053685188e-03" rms="3.6072608828544617e-01" purity="3.4485608339309692e-01" nType="0">
          <Node pos="l" depth="2" NCoef="0" IVar="-1" Cut="0.0000000000000000e+00" cType="1" res="5.7228052616119385e-01" rms="4.6691924333572388e-01" purity="6.6601735353469849e-01" nType="-99"/>
          <Node pos="r" depth="2" NCoef="0" IVar="-1" Cut="0.0000000000000000e+00" cType="1" res="3.2504949718713760e-02" rms="3.5741856694221497e-01" purity="3.3699965476989746e-01" nType="-99"/>
        </Node>
        <Node pos="r" depth="1" NCoef="0" IVar="2" Cut="2.8117531538009644e-01" cType="1" res="-2.5587556883692741e-02" rms="3.1690284609794617e-01" purity="2.3556704819202423e-01" nType="0">
          <Node pos="l" depth="2" NCoef="0" IVar="-1" Cut="0.0000000000000000e+00" cType="1" res="-4.1996645927429199e-01" rms="3.6216539144515991e-01" purity="2.5448381900787354e-01" nType="-99"/>
          <Node pos="r" depth="2" NCoef="0" IVar="-1" Cut="0.0000000000000000e+00" cType="1" res="-7.5562089681625366e-02" rms="3.1248250603675842e-01" purity="2.3433744907379150e-01" nType="-99"/>
        </Node>
      </Node>
    </BinaryTree>
    <BinaryTree type="DecisionTree" boostWeight="1.0000000000000000e+00" itree="17">
      <Node pos="s" depth="0" NCoef="0" IVar="0" Cut="1.0052864074707031e+02" cType="0" res="-1.9990804139524698e-03" rms="3.5128203034400940e-01" purity="3.2210519909858704e-01" nType="0">
        <Node pos="l" depth="1" NCoef="0" IVar="1" Cut="8.2276840209960938e+01" cType="1" res="-8.2257874310016632e-02" rms="3.2141008973121643e-01" purity="8.0134153366088867e-01" nType="0">
          <Node pos="l" depth="2" NCoef="0" IVar="-1" Cut="0.0000000000000000e+00" cType="1" res="-3.2877239584922791e-01" rms="1.0611191391944885e-01" purity="9.8314231634140015e-01" nType="-99"/>
          <Node pos="r" depth="2" NCoef="0" IVar="-1" Cut="0.0000000000000000e+00" cType="1" res="-9.9875646829605103e-01" rms="4.6215435862541199e-01" purity="5.4056477546691895e-01" nType="-99"/>
        </Node>
        <Node pos="r" depth="1" NCoef="0" IVar="4" Cut="2.3542420959472656e+02" cType="0" res="6.3588528428226709e-04" rms="3.5190960764884949e-01" purity="3.0637148022651672e-01" nType="0">
          <Node pos="l" depth="2" NCoef="0" IVar="-1" Cut="0.0000000000000000e+00" cType="1" res="-1.3934700489044189e+00" rms="4.0221381187438965e-01" purity="7.1235775947570801e-01" nType="-99"/>
          <Node pos="r" depth="2" NCoef="0" IVar="-1" Cut="0.0000000000000000e+00" cType="1" res="7.1272379718720913e-03" rms="3.5131475329399109e-01" purity="3.0359092354774475e-01" nType="-99"/>
        </Node>
      </Node>
    </BinaryTree>
    <BinaryTree type="DecisionTree" boostWeight="1.0000000000000000e+00" itree="18">
      <Node pos="s" depth="0" NCoef="0" IVar="4" Cut="1.5218803405761719e+02" cType="0" res="3.2461230875924230e-04" rms="3.5059726238250732e-01" purity="3.2210519909858704e-01" nType="0">
        <Node pos="l" depth="1" NCoef="0" IVar="2" Cut="6.5711736679077148e-01" cType="1" res="5.9388503432273865e-02" rms="4.2451056838035583e-01" purity="5.8114492893218994e-01" nType="0">
          <Node pos="l" depth="2" NCoef="0" IVar="-1" Cut="0.0000000000000000e+00" cType="1" res="-4.8181831836700439e-01" rms="4.7617316246032715e-01" purity="6.5270262956619263e-01" nType="-99"/>
          <Node pos="r" depth="2" NCoef="0" IVar="-1" Cut="0.0000000000000000e+00" cType="1" res="5.5178314447402954e-01" rms="4.0868854522705078e-01" purity="5.6870383024215698e-01" nType="-99"/>
        </Node>
        <Node pos="r" depth="1" NCoef="0" IVar="1" Cut="7.9869369506835938e+01" cType="0" res="-2.3271630052477121e-03" rms="3.4667363762855530e-01" purity="3.1047517061233521e-01" nType="0">
          <Node pos="l" depth="2" NCoef="0" IVar="-1" Cut="0.0000000000000000e+00" cType="1" res="2.5055488944053650e-01" rms="4.5300808548927307e-01" purity="6.8041020631790161e-01" nType="-99"/>
          <Node pos="r" depth="2" NCoef="0" IVar="-1" Cut="0.0000000000000000e+00" cType="1" res="-2.2759588435292244e-02" rms="3.3868554234504700e-01" purity="2.8734663128852844e-01" nType="-99"/>
        </Node>
      </Node>
    </BinaryTree>
    <BinaryTree type="DecisionTree" boostWeight="1.0000000000000000e+00" itree="19">
      <Node pos="s" depth="0" NCoef="0" IVar="4" Cut="6.5333099365234375e+01" cType="0" res="-3.0162783805280924e-03" rms="3.4943112730979919e-01" purity="3.2210519909858704e-01" nType="0">
        <Node pos="l" depth="1" NCoef="0" IVar="1" Cut="3.8937118530273438e+01" cType="0" res="-1.4668776653707027e-02" rms="3.6323657631874084e-01" purity="3.6461329460144043e-01" nType="0">
          <Node pos="l" depth="2" NCoef="0" IVar="-1" Cut="0.0000000000000000e+00" cType="1" res="-1.8054679036140442e-01" rms="4.3459370732307434e-01" purity="6.0052245855331421e-01" nType="-99"/>
          <Node pos="r" depth="2" NCoef="0" IVar="-1" Cut="0.0000000000000000e+00" cType="1" res="1.8584906356409192e-03" rms="3.0644723773002625e-01" purity="2.0940944552421570e-01" nType="-99"/>
        </Node>
        <Node pos="r" depth="1" NCoef="0" IVar="3" Cut="1.3556446838378906e+02" cType="0" res="8.0892005935311317e-03" rms="3.3536922931671143e-01" purity="2.8159260749816895e-01" nType="0">
          <Node pos="l" depth="2" NCoef="0" IVar="-1" Cut="0.0000000000000000e+00" cType="1" res="7.1691088378429413e-02" rms="3.5103645920753479e-01" purity="3.1879177689552307e-01" nType="-99"/>
          <Node pos="r" depth="2" NCoef="0" IVar="-1" Cut="0.0000000000000000e+00" cType="1" res="-1.9539299607276917e-01" rms="2.3478126525878906e-01" purity="9.1351546347141266e-02" nType="-99"/>
        </Node>
      </Node>
    </BinaryTree>
    <BinaryTree type="DecisionTree" boostWeight="1.0000000000000000e+00" itree="20">
      <Node pos="s" depth="0" NCoef="0" IVar="3" Cut="1.9830844116210938e+02" cType="1" res="1.2226771796122193e-03" rms="3.4844800829887390e-01" purity="3.2210519909858704e-01" nType="0">
        <Node pos="l" depth="1" NCoef="0" IVar="3" Cut="1.9725315856933594e+02" cType="1" res="7.8801233321428299e-03" rms="3.4372046589851379e-01" purity="3.3950847387313843e-01" nType="0">
          <Node pos="l" depth="2" NCoef="0" IVar="-1" Cut="0.0000000000000000e+00" cType="1" res="4.3132882565259933e-02" rms="3.4193253517150879e-01" purity="3.3966907858848572e-01" nType="-99"/>
          <Node pos="r" depth="2" NCoef="0" IVar="-1" Cut="0.0000000000000000e+00" cType="1" res="-4.7402152419090271e-01" rms="4.6869161725044250e-01" purity="3.2339015603065491e-01" nType="-99"/>
        </Node>
        <Node pos="r" depth="1" NCoef="0" IVar="4" Cut="1.8512780761718750e+02" cType="0" res="-1.9486943259835243e-02" rms="3.6197853088378906e-01" purity="2.6796820759773254e-01" nType="0">
          <Node pos="l" depth="2" NCoef="0" IVar="-1" Cut="0.0000000000000000e+00" cType="1" res="7.4478673934936523e-01" rms="3.7793800234794617e-01" purity="5.8157730102539062e-01" nType="-99"/>
          <Node pos="r" depth="2" NCoef="0" IVar="-1" Cut="0.0000000000000000e+00" cType="1" res="-8.2264423370361328e-02" rms="3.6084306240081787e-01" purity="2.6100745797157288e-01" nType="-99"/>
        </Node>
      </Node>
    </BinaryTree>
    <BinaryTree type="DecisionTree" boostWeight="1.0000000000000000e+00" itree="21">
      <Node pos="s" depth="0" NCoef="0" IVar="4" Cut="2.0647238159179688e+02" cType="0" res="-1.2896433472633362e-03" rms="3.4767180681228638e-01" purity="3.2210519909858704e-01" nType="0">
        <Node pos="l" depth="1" NCoef="0" IVar="2" Cut="8.1217032670974731e-01" cType="1" res="-1.0255121439695358e-01" rms="3.6061421036720276e-01" purity="7.4994939565658569e-01" nType="0">
          <Node pos="l" depth="2" NCoef="0" IVar="-1" Cut="0.0000000000000000e+00" cType="1" res="4.1957437992095947e-01" rms="1.6123589873313904e-01" purity="9.3028897047042847e-01" nType="-99"/>
          <Node pos="r" depth="2" NCoef="0" IVar="-1" Cut="0.0000000000000000e+00" cType="1" res="-1.0328463315963745e+00" rms="4.2641076445579529e-01" purity="6.3044726848602295e-01" nType="-99"/>
        </Node>
        <Node pos="r" depth="1" NCoef="0" IVar="1" Cut="4.7185802459716797e+01" cType="0" res="-1.2564253120217472e-04" rms="3.4734866023063660e-01" purity="3.1718716025352478e-01" nType="0">
          <Node pos="l" depth="2" NCoef="0" IVar="-1" Cut="0.0000000000000000e+00" cType="1" res="8.8749900460243225e-02" rms="4.3010729551315308e-01" purity="6.3034772872924805e-01" nType="-99"/>
          <Node pos="r" depth="2" NCoef="0" IVar="-1" Cut="0.0000000000000000e+00" cType="1" res="-2.6759844273328781e-02" rms="3.1476709246635437e-01" purity="2.1297365427017212e-01" nType="-99"/>
        </Node>
      </Node>
    </BinaryTree>
    <BinaryTree type="DecisionTree" boostWeight="1.0000000000000000e+00" itree="22">
      <Node pos="s" depth="0" NCoef="0" IVar="3" Cut="4.1582720947265625e+02" cType="1" res="-2.9687425121665001e-03" rms="3.4696683287620544e-01" purity="3.2210519909858704e-01" nType="0">
        <Node pos="l" depth="1" NCoef="0" IVar="1" Cut="8.4023101806640625e+01" cType="0" res="-1.9278518157079816e-03" rms="3.4732344746589661e-01" purity="3.2417961955070496e-01" nType="0">
          <Node pos="l" depth="2" NCoef="0" IVar="-1" Cut="0.0000000000000000e+00" cType="1" res="-1.9713577628135681e-01" rms="4.5275032520294189e-01" purity="6.7677921056747437e-01" nType="-99"/>
          <Node pos="r" depth="2" NCoef="0" IVar="-1" Cut="0.0000000000000000e+00" cType="1" res="5.3870672127231956e-04" rms="3.3947968482971191e-01" purity="3.0195713043212891e-01" nType="-99"/>
        </Node>
        <Node pos="r" depth="1" NCoef="0" IVar="-1" Cut="0.0000000000000000e+00" cType="1" res="-2.8598058223724365e-01" rms="3.0119743943214417e-01" purity="1.4243067800998688e-01" nType="-99"/>
      </Node>
    </BinaryTree>
    <BinaryTree type="DecisionTree" boostWeight="1.0000000000000000e+00" itree="23">
      <Node pos="s" depth="0" NCoef="0" IVar="0" Cut="1.1906898498535156e+01" cType="0" res="7.4507208773866296e-04" rms="3.4685510396957397e-01" purity="3.2210519909858704e-01" nType="0">
        <Node pos="l" depth="1" NCoef="0" IVar="0" Cut="4.8548141479492188e+01" cType="0" res="5.2411057986319065e-03" rms="3.6321508884429932e-01" purity="3.7336501479148865e-01" nType="0">
          <Node pos="l" depth="2" NCoef="0" IVar="-1" Cut="0.0000000000000000e+00" cType="1" res="-2.4527916684746742e-02" rms="4.0773141384124756e-01" purity="6.1660748720169067e-01" nType="-99"/>
          <Node pos="r" depth="2" NCoef="0" IVar="-1" Cut="0.0000000000000000e+00" cType="1" res="5.9015922248363495e-02" rms="3.2106333971023560e-01" purity="1.7013694345951080e-01" nType="-99"/>
        </Node>
        <Node pos="r" depth="1" NCoef="0" IVar="2" Cut="4.0754774212837219e-01" cType="1" res="-1.9431948661804199e-02" rms="2.6014956831932068e-01" purity="9.2064701020717621e-02" nType="0">
          <Node pos="l" depth="2" NCoef="0" IVar="-1" Cut="0.0000000000000000e+00" cType="1" res="-1.8272638320922852e-01" rms="2.9673171043395996e-01" purity="1.0879649966955185e-01" nType="-99"/>
          <Node pos="r" depth="2" NCoef="0" IVar="-1" Cut="0.0000000000000000e+00" cType="1" res="-6.0116380453109741e-02" rms="2.5336280465126038e-01" purity="8.9472331106662750e-02" nType="-99"/>
        </Node>
      </Node>
    </BinaryTree>
    <BinaryTree type="DecisionTree" boostWeight="1.0000000000000000e+00" itree="24">
      <Node pos="s" depth="0" NCoef="0" IVar="0" Cut="6.6138114929199219e+01" cType="0" res="3.9861988625489175e-04" rms="3.4632006287574768e-01" purity="3.2210519909858704e-01" nType="0">
        <Node pos="l" depth="1" NCoef="0" IVar="1" Cut="3.9151260375976562e+01" cType="1" res="1.4769005589187145e-02" rms="3.9566150307655334e-01" purity="7.2871351242065430e-01" nType="0">
          <Node pos="l" depth="2" NCoef="0" IVar="-1" Cut="0.0000000000000000e+00" cType="1" res="1.1527564048767090e+01" rms="2.3211225867271423e-01" purity="9.7145140171051025e-01" nType="-99"/>
          <Node pos="r" depth="2" NCoef="0" IVar="-1" Cut="0.0000000000000000e+00" cType="1" res="-2.6065606623888016e-02" rms="4.1461497545242310e-01" purity="6.8638765811920166e-01" nType="-99"/>
        </Node>
        <Node pos="r" depth="1" NCoef="0" IVar="1" Cut="1.1311756896972656e+02" cType="0" res="-3.7366978358477354e-03" rms="3.3064448833465576e-01" purity="2.0509690046310425e-01" nType="0">
          <Node pos="l" depth="2" NCoef="0" IVar="-1" Cut="0.0000000000000000e+00" cType="1" res="-7.1364796161651611e-01" rms="4.3417990207672119e-01" purity="6.3012385368347168e-01" nType="-99"/>
          <Node pos="r" depth="2" NCoef="0" IVar="-1" Cut="0.0000000000000000e+00" cType="1" res="-9.1490196064114571e-03" rms="3.2913866639137268e-01" purity="2.0084986090660095e-01" nType="-99"/>
        </Node>
      </Node>
    </BinaryTree>
    <BinaryTree type="DecisionTree" boostWeight="1.0000000000000000e+00" itree="25">
      <Node pos="s" depth="0" NCoef="0" IVar="1" Cut="9.6904815673828125e+01" cType="0" res="-6.5938406623899937e-04" rms="3.4416157007217407e-01" purity="3.2210519909858704e-01" nType="0">
        <Node pos="l" depth="1" NCoef="0" IVar="0" Cut="8.5983978271484375e+01" cType="1" res="8.1978142261505127e-02" rms="4.4259527325630188e-01" purity="6.4204353094100952e-01" nType="0">
          <Node pos="l" depth="2" NCoef="0" IVar="-1" Cut="0.0000000000000000e+00" cType="1" res="1.4874923229217529e-01" rms="4.3495631217956543e-01" purity="6.7413753271102905e-01" nType="-99"/>
          <Node pos="r" depth="2" NCoef="0" IVar="-1" Cut="0.0000000000000000e+00" cType="1" res="9.3866431713104248e-01" rms="4.3968522548675537e-01" purity="5.8423382043838501e-01" nType="-99"/>
        </Node>
        <Node pos="r" depth="1" NCoef="0" IVar="1" Cut="9.3057853698730469e+01" cType="0" res="-3.7600740324705839e-03" rms="3.3952254056930542e-01" purity="3.1010061502456665e-01" nType="0">
          <Node pos="l" depth="2" NCoef="0" IVar="-1" Cut="0.0000000000000000e+00" cType="1" res="-4.5522969961166382e-01" rms="4.9432271718978882e-01" purity="5.8273136615753174e-01" nType="-99"/>
          <Node pos="r" depth="2" NCoef="0" IVar="-1" Cut="0.0000000000000000e+00" cType="1" res="-1.2546095997095108e-02" rms="3.3800673484802246e-01" purity="3.0816060304641724e-01" nType="-99"/>
        </Node>
      </Node>
    </BinaryTree>
    <BinaryTree type="DecisionTree" boostWeight="1.0000000000000000e+00" itree="26">
      <Node pos="s" depth="0" NCoef="0" IVar="0" Cut="5.5556411743164062e+01" cType="0" res="-1.4605941250920296e-03" rms="3.4371030330657959e-01" purity="3.2210519909858704e-01" nType="0">
        <Node pos="l" depth="1" NCoef="0" IVar="1" Cut="2.6408920288085938e+01" cType="1" res="-1.7773978412151337e-02" rms="3.9963844418525696e-01" purity="6.6394108533859253e-01" nType="0">
          <Node pos="l" depth="2" NCoef="0" IVar="-1" Cut="0.0000000000000000e+00" cType="1" res="5.8504180908203125e+00" rms="2.9151561856269836e-01" purity="9.4549000263214111e-01" nType="-99"/>
          <Node pos="r" depth="2" NCoef="0" IVar="-1" Cut="0.0000000000000000e+00" cType="1" res="-1.4650291204452515e-01" rms="4.0246656537055969e-01" purity="6.4722442626953125e-01" nType="-99"/>
        </Node>
        <Node pos="r" depth="1" NCoef="0" IVar="1" Cut="3.5306827545166016e+01" cType="0" res="5.8702481910586357e-03" rms="3.1508892774581909e-01" purity="1.6849240660667419e-01" nType="0">
          <Node pos="l" depth="2" NCoef="0" IVar="-1" Cut="0.0000000000000000e+00" cType="1" res="1.9560915231704712e-01" rms="4.2394801974296570e-01" purity="4.0542903542518616e-01" nType="-99"/>
          <Node pos="r" depth="2" NCoef="0" IVar="-1" Cut="0.0000000000000000e+00" cType="1" res="-2.5185609236359596e-02" rms="2.8059771656990051e-01" purity="1.1006806045770645e-01" nType="-99"/>
        </Node>
      </Node>
    </BinaryTree>
    <BinaryTree type="DecisionTree" boostWeight="1.0000000000000000e+00" itree="27">
      <Node pos="s" depth="0" NCoef="0" IVar="1" Cut="5.5039257049560547e+01" cType="0" res="-5.3979631047695875e-04" rms="3.4095558524131775e-01" purity="3.2210519909858704e-01" nType="0">
        <Node pos="l" depth="1" NCoef="0" IVar="0" Cut="6.2175838470458984e+01" cType="0" res="2.5476094335317612e-02" rms="4.3010345101356506e-01" purity="6.6798293590545654e-01" nType="0">
          <Node pos="l" depth="2" NCoef="0" IVar="-1" Cut="0.0000000000000000e+00" cType="1" res="2.7023029327392578e-01" rms="4.2584654688835144e-01" purity="6.9584816694259644e-01" nType="-99"/>
          <Node pos="r" depth="2" NCoef="0" IVar="-1" Cut="0.0000000000000000e+00" cType="1" res="-1.0936318337917328e-01" rms="4.3470764160156250e-01" purity="6.0719323158264160e-01" nType="-99"/>
        </Node>
        <Node pos="r" depth="1" NCoef="0" IVar="0" Cut="5.4616222381591797e+01" cType="0" res="-6.6123530268669128e-03" rms="3.1624540686607361e-01" purity="2.4137140810489655e-01" nType="0">
          <Node pos="l" depth="2" NCoef="0" IVar="-1" Cut="0.0000000000000000e+00" cType="1" res="-1.4013314247131348e-01" rms="3.6705884337425232e-01" purity="6.2420386075973511e-01" nType="-99"/>
          <Node pos="r" depth="2" NCoef="0" IVar="-1" Cut="0.0000000000000000e+00" cType="1" res="-3.0279571656137705e-03" rms="3.0012989044189453e-01" purity="1.3358367979526520e-01" nType="-99"/>
        </Node>
      </Node>
    </BinaryTree>
    <BinaryTree type="DecisionTree" boostWeight="1.0000000000000000e+00" itree="28">
      <Node pos="s" depth="0" NCoef="0" IVar="1" Cut="9.6904815673828125e+01" cType="0" res="-2.3868947755545378e-03" rms="3.4010493755340576e-01" purity="3.2210519909858704e-01" nType="0">
        <Node pos="l" depth="1" NCoef="0" IVar="2" Cut="4.9138903617858887e-01" cType="0" res="-6.6414825618267059e-02" rms="4.4193878769874573e-01" purity="6.4204353094100952e-01" nType="0">
          <Node pos="l" depth="2" NCoef="0" IVar="-1" Cut="0.0000000000000000e+00" cType="1" res="-1.4419655501842499e-01" rms="4.2236766219139099e-01" purity="6.6244810819625854e-01" nType="-99"/>
          <Node pos="r" depth="2" NCoef="0" IVar="-1" Cut="0.0000000000000000e+00" cType="1" res="-9.2989546060562134e-01" rms="4.8283040523529053e-01" purity="5.5949741601943970e-01" nType="-99"/>
        </Node>
        <Node pos="r" depth="1" NCoef="0" IVar="2" Cut="8.9045071601867676e-01" cType="1" res="1.5533840269199573e-05" rms="3.3544537425041199e-01" purity="3.1010061502456665e-01" nType="0">
          <Node pos="l" depth="2" NCoef="0" IVar="-1" Cut="0.0000000000000000e+00" cType="1" res="1.3235125690698624e-02" rms="3.4099966287612915e-01" purity="3.2909435033798218e-01" nType="-99"/>
          <Node pos="r" depth="2" NCoef="0" IVar="-1" Cut="0.0000000000000000e+00" cType="1" res="-2.1664258837699890e-01" rms="2.5597000122070312e-01" purity="7.9769358038902283e-02" nType="-99"/>
        </Node>
      </Node>
    </BinaryTree>
    <BinaryTree type="DecisionTree" boostWeight="1.0000000000000000e+00" itree="29">
      <Node pos="s" depth="0" NCoef="0" IVar="0" Cut="1.1904661560058594e+02" cType="0" res="-9.3471266154665500e-05" rms="3.3929046988487244e-01" purity="3.2210519909858704e-01" nType="0">
        <Node pos="l" depth="1" NCoef="0" IVar="1" Cut="8.6758903503417969e+01" cType="1" res="-1.0439138114452362e-01" rms="3.7732636928558350e-01" purity="6.9630450010299683e-01" nType="0">
          <Node pos="l" depth="2" NCoef="0" IVar="-1" Cut="0.0000000000000000e+00" cType="1" res="1.9786760330200195e+01" rms="6.9901496171951294e-02" purity="1.0000000000000000e+00" nType="-99"/>
          <Node pos="r" depth="2" NCoef="0" IVar="-1" Cut="0.0000000000000000e+00" cType="1" res="-6.5845948457717896e-01" rms="4.9226340651512146e-01" purity="4.0020862221717834e-01" nType="-99"/>
        </Node>
        <Node pos="r" depth="1" NCoef="0" IVar="1" Cut="1.5809294128417969e+02" cType="0" res="7.8128033783286810e-04" rms="3.3881768584251404e-01" purity="3.1896680593490601e-01" nType="0">
          <Node pos="l" depth="2" NCoef="0" IVar="-1" Cut="0.0000000000000000e+00" cType="1" res="1.4577800750732422e+01" rms="3.1145182251930237e-01" purity="8.7822616100311279e-01" nType="-99"/>
          <Node pos="r" depth="2" NCoef="0" IVar="-1" Cut="0.0000000000000000e+00" cType="1" res="1.1321390047669411e-03" rms="3.3872902393341064e-01" purity="3.1750074028968811e-01" nType="-99"/>
        </Node>
      </Node>
    </BinaryTree>
    <BinaryTree type="DecisionTree" boostWeight="1.0000000000000000e+00" itree="30">
      <Node pos="s" depth="0" NCoef="0" IVar="1" Cut="1.3877037048339844e+02" cType="0" res="-3.9567920612171292e-04" rms="3.3859476447105408e-01" purity="3.2210519909858704e-01" nType="0">
        <Node pos="l" depth="1" NCoef="0" IVar="3" Cut="1.9912474060058594e+02" cType="0" res="-1.5912199020385742e-01" rms="4.4285646080970764e-01" purity="5.8815294504165649e-01" nType="0">
          <Node pos="l" depth="2" NCoef="0" IVar="-1" Cut="0.0000000000000000e+00" cType="1" res="-3.2130625844001770e-01" rms="4.2166402935981750e-01" purity="6.0152781009674072e-01" nType="-99"/>
          <Node pos="r" depth="2" NCoef="0" IVar="-1" Cut="0.0000000000000000e+00" cType="1" res="-1.1698927879333496e+00" rms="4.3215757608413696e-01" purity="5.7678878307342529e-01" nType="-99"/>
        </Node>
        <Node pos="r" depth="1" NCoef="0" IVar="1" Cut="8.0155899047851562e+01" cType="0" res="7.0711039006710052e-04" rms="3.3749678730964661e-01" purity="3.2025679945945740e-01" nType="0">
          <Node pos="l" depth="2" NCoef="0" IVar="-1" Cut="0.0000000000000000e+00" cType="1" res="2.4888941645622253e-01" rms="4.1300702095031738e-01" purity="7.0095556974411011e-01" nType="-99"/>
          <Node pos="r" depth="2" NCoef="0" IVar="-1" Cut="0.0000000000000000e+00" cType="1" res="-1.0365415364503860e-02" rms="3.3160737156867981e-01" purity="2.9477858543395996e-01" nType="-99"/>
        </Node>
      </Node>
    </BinaryTree>
    <BinaryTree type="DecisionTree" boostWeight="1.0000000000000000e+00" itree="31">
      <Node pos="s" depth="0" NCoef="0" IVar="1" Cut="7.1141395568847656e+01" cType="0" res="-1.8605315126478672e-03" rms="3.3787962794303894e-01" purity="3.2210519909858704e-01" nType="0">
        <Node pos="l" depth="1" NCoef="0" IVar="2" Cut="6.1088132858276367e-01" cType="1" res="-2.9569197446107864e-02" rms="4.2404773831367493e-01" purity="6.8037664890289307e-01" nType="0">
          <Node pos="l" depth="2" NCoef="0" IVar="-1" Cut="0.0000000000000000e+00" cType="1" res="-3.3634668588638306e-01" rms="4.1828444600105286e-01" purity="6.8740594387054443e-01" nType="-99"/>
          <Node pos="r" depth="2" NCoef="0" IVar="-1" Cut="0.0000000000000000e+00" cType="1" res="6.6478520631790161e-02" rms="4.2611175775527954e-01" purity="6.7287635803222656e-01" nType="-99"/>
        </Node>
        <Node pos="r" depth="1" NCoef="0" IVar="2" Cut="7.3797267675399780e-01" cType="1" res="1.2781466357409954e-03" rms="3.2654085755348206e-01" purity="2.8152230381965637e-01" nType="0">
          <Node pos="l" depth="2" NCoef="0" IVar="-1" Cut="0.0000000000000000e+00" cType="1" res="3.5578757524490356e-02" rms="3.3972513675689697e-01" purity="3.4789812564849854e-01" nType="-99"/>
          <Node pos="r" depth="2" NCoef="0" IVar="-1" Cut="0.0000000000000000e+00" cType="1" res="-5.8772753924131393e-02" rms="2.9987663030624390e-01" purity="1.5733090043067932e-01" nType="-99"/>
        </Node>
      </Node>
    </BinaryTree>
    <BinaryTree type="DecisionTree" boostWeight="1.0000000000000000e+00" itree="32">
      <Node pos="s" depth="0" NCoef="0" IVar="4" Cut="4.7238319396972656e+01" cType="0" res="7.3582446202635765e-04" rms="3.3700209856033325e-01" purity="3.2210519909858704e-01" nType="0">
        <Node pos="l" depth="1" NCoef="0" IVar="2" Cut="3.5781201720237732e-01" cType="1" res="5.3705475293099880e-03" rms="3.4451612830162048e-01" purity="3.4485608339309692e-01" nType="0">
          <Node pos="l" depth="2" NCoef="0" IVar="-1" Cut="0.0000000000000000e+00" cType="1" res="1.9073902070522308e-01" rms="3.4617409110069275e-01" purity="5.2212512493133545e-01" nType="-99"/>
          <Node pos="r" depth="2" NCoef="0" IVar="-1" Cut="0.0000000000000000e+00" cType="1" res="1.1333740316331387e-02" rms="3.4422051906585693e-01" purity="3.3115181326866150e-01" nType="-99"/>
        </Node>
        <Node pos="r" depth="1" NCoef="0" IVar="1" Cut="6.1349533081054688e+01" cType="0" res="-1.6893412917852402e-02" rms="3.0610322952270508e-01" purity="2.3556704819202423e-01" nType="0">
          <Node pos="l" depth="2" NCoef="0" IVar="-1" Cut="0.0000000000000000e+00" cType="1" res="-3.9499729871749878e-01" rms="4.3552130460739136e-01" purity="6.2817132472991943e-01" nType="-99"/>
          <Node pos="r" depth="2" NCoef="0" IVar="-1" Cut="0.0000000000000000e+00" cType="1" res="-4.1108001023530960e-02" rms="2.8756526112556458e-01" purity="1.9296042621135712e-01" nType="-99"/>
        </Node>
      </Node>
    </BinaryTree>
    <BinaryTree type="DecisionTree" boostWeight="1.0000000000000000e+00" itree="33">
      <Node pos="s" depth="0" NCoef="0" IVar="1" Cut="6.7920967102050781e+01" cType="0" res="-9.5433977548964322e-05" rms="3.3664500713348389e-01" purity="3.2210519909858704e-01" nType="0">
        <Node pos="l" depth="1" NCoef="0" IVar="4" Cut="1.8476835632324219e+02" cType="0" res="2.2693982347846031e-02" rms="4.2211392521858215e-01" purity="6.8441981077194214e-01" nType="0">
          <Node pos="l" depth="2" NCoef="0" IVar="-1" Cut="0.0000000000000000e+00" cType="1" res="-8.2052826881408691e-01" rms="3.8693442940711975e-01" purity="7.4671924114227295e-01" nType="-99"/>
          <Node pos="r" depth="2" NCoef="0" IVar="-1" Cut="0.0000000000000000e+00" cType="1" res="1.6398437321186066e-01" rms="4.2367866635322571e-01" purity="6.7850744724273682e-01" nType="-99"/>
        </Node>
        <Node pos="r" depth="1" NCoef="0" IVar="2" Cut="3.8073846697807312e-01" cType="1" res="-3.0584700871258974e-03" rms="3.2376199960708618e-01" purity="2.7499777078628540e-01" nType="0">
          <Node pos="l" depth="2" NCoef="0" IVar="-1" Cut="0.0000000000000000e+00" cType="1" res="-9.7749322652816772e-02" rms="3.0989432334899902e-01" purity="3.5317537188529968e-01" nType="-99"/>
          <Node pos="r" depth="2" NCoef="0" IVar="-1" Cut="0.0000000000000000e+00" cType="1" res="-3.5966586438007653e-04" rms="3.2538717985153198e-01" purity="2.6492062211036682e-01" nType="-99"/>
        </Node>
      </Node>
    </BinaryTree>
    <BinaryTree type="DecisionTree" boostWeight="1.0000000000000000e+00" itree="34">
      <Node pos="s" depth="0" NCoef="0" IVar="1" Cut="1.7097463989257812e+02" cType="0" res="-1.7748114187270403e-03" rms="3.3625146746635437e-01" purity="3.2210519909858704e-01" nType="0">
        <Node pos="l" depth="1" NCoef="0" IVar="-1" Cut="0.0000000000000000e+00" cType="1" res="-4.2089610099792480e+00" rms="3.4779268503189087e-01" purity="7.1104669570922852e-01" nType="-99"/>
        <Node pos="r" depth="1" NCoef="0" IVar="4" Cut="2.3958711242675781e+02" cType="0" res="-1.4355533057823777e-03" rms="3.3614742755889893e-01" purity="3.2125335931777954e-01" nType="0">
          <Node pos="l" depth="2" NCoef="0" IVar="-1" Cut="0.0000000000000000e+00" cType="1" res="2.5462100505828857e+00" rms="2.7792653441429138e-01" purity="7.4852770566940308e-01" nType="-99"/>
          <Node pos="r" depth="2" NCoef="0" IVar="-1" Cut="0.0000000000000000e+00" cType="1" res="-8.8021680712699890e-03" rms="3.3633702993392944e-01" purity="3.1909188628196716e-01" nType="-99"/>
        </Node>
      </Node>
    </BinaryTree>
    <BinaryTree type="DecisionTree" boostWeight="1.0000000000000000e+00" itree="35">
      <Node pos="s" depth="0" NCoef="0" IVar="4" Cut="2.3542402648925781e+02" cType="0" res="-1.3640344841405749e-03" rms="3.3686029911041260e-01" purity="3.2210519909858704e-01" nType="0">
        <Node pos="l" depth="1" NCoef="0" IVar="2" Cut="8.3393388986587524e-01" cType="1" res="-2.0812369883060455e-01" rms="4.0217241644859314e-01" purity="7.2791302204132080e-01" nType="0">
          <Node pos="l" depth="2" NCoef="0" IVar="-1" Cut="0.0000000000000000e+00" cType="1" res="2.7828752517700195e+01" rms="8.1866666674613953e-02" purity="1.0000000000000000e+00" nType="-99"/>
          <Node pos="r" depth="2" NCoef="0" IVar="-1" Cut="0.0000000000000000e+00" cType="1" res="-2.3067765235900879e+00" rms="4.5429548621177673e-01" purity="5.6517761945724487e-01" nType="-99"/>
        </Node>
        <Node pos="r" depth="1" NCoef="0" IVar="4" Cut="1.8875013732910156e+02" cType="0" res="8.5651554400101304e-05" rms="3.3590862154960632e-01" purity="3.1925991177558899e-01" nType="0">
          <Node pos="l" depth="2" NCoef="0" IVar="-1" Cut="0.0000000000000000e+00" cType="1" res="4.8257654905319214e-01" rms="3.1149268150329590e-01" purity="6.8856126070022583e-01" nType="-99"/>
          <Node pos="r" depth="2" NCoef="0" IVar="-1" Cut="0.0000000000000000e+00" cType="1" res="-2.9733250848948956e-03" rms="3.3607101440429688e-01" purity="3.1545075774192810e-01" nType="-99"/>
        </Node>
      </Node>
    </BinaryTree>
    <BinaryTree type="DecisionTree" boostWeight="1.0000000000000000e+00" itree="36">
      <Node pos="s" depth="0" NCoef="0" IVar="1" Cut="1.7097463989257812e+02" cType="0" res="-3.3129710936918855e-04" rms="3.3568823337554932e-01" purity="3.2210519909858704e-01" nType="0">
        <Node pos="l" depth="1" NCoef="0" IVar="-1" Cut="0.0000000000000000e+00" cType="1" res="-1.4640291992187500e+04" rms="3.5157155990600586e-01" purity="7.1104669570922852e-01" nType="-99"/>
        <Node pos="r" depth="1" NCoef="0" IVar="1" Cut="1.2498384857177734e+02" cType="0" res="-1.5586483641527593e-05" rms="3.3558467030525208e-01" purity="3.2125335931777954e-01" nType="0">
          <Node pos="l" depth="2" NCoef="0" IVar="-1" Cut="0.0000000000000000e+00" cType="1" res="4.5208543539047241e-01" rms="3.5222384333610535e-01" purity="6.3371413946151733e-01" nType="-99"/>
          <Node pos="r" depth="2" NCoef="0" IVar="-1" Cut="0.0000000000000000e+00" cType="1" res="-3.4168791025876999e-03" rms="3.3534300327301025e-01" purity="3.1853049993515015e-01" nType="-99"/>
        </Node>
      </Node>
    </BinaryTree>
    <BinaryTree type="DecisionTree" boostWeight="1.0000000000000000e+00" itree="37">
      <Node pos="s" depth="0" NCoef="0" IVar="1" Cut="1.7097463989257812e+02" cType="0" res="1.3002442428842187e-03" rms="3.3755609393119812e-01" purity="3.2210519909858704e-01" nType="0">
        <Node pos="l" depth="1" NCoef="0" IVar="-1" Cut="0.0000000000000000e+00" cType="1" res="1.4764600456852544e+30" rms="4.5327618718147278e-01" purity="7.1104669570922852e-01" nType="-99"/>
        <Node pos="r" depth="1" NCoef="0" IVar="1" Cut="7.0696235656738281e+01" cType="0" res="-2.5423863553442061e-04" rms="3.3561581373214722e-01" purity="3.2125335931777954e-01" nType="0">
          <Node pos="l" depth="2" NCoef="0" IVar="-1" Cut="0.0000000000000000e+00" cType="1" res="-1.1026932299137115e-01" rms="4.2089775204658508e-01" purity="6.7768681049346924e-01" nType="-99"/>
          <Node pos="r" depth="2" NCoef="0" IVar="-1" Cut="0.0000000000000000e+00" cType="1" res="1.0683542117476463e-02" rms="3.2439976930618286e-01" purity="2.8072234988212585e-01" nType="-99"/>
        </Node>
      </Node>
    </BinaryTree>
    <BinaryTree type="DecisionTree" boostWeight="1.0000000000000000e+00" itree="38">
      <Node pos="s" depth="0" NCoef="0" IVar="1" Cut="1.7097463989257812e+02" cType="0" res="5.5835495004430413e-04" rms="3.3603766560554504e-01" purity="3.2210519909858704e-01" nType="0">
        <Node pos="l" depth="1" NCoef="0" IVar="-1" Cut="0.0000000000000000e+00" cType="1" res="-6.0000000902847973e+29" rms="4.5327618718147278e-01" purity="7.1104669570922852e-01" nType="-99"/>
        <Node pos="r" depth="1" NCoef="0" IVar="1" Cut="3.6766479492187500e+01" cType="0" res="1.1924419086426497e-03" rms="3.3546185493469238e-01" purity="3.2125335931777954e-01" nType="0">
          <Node pos="l" depth="2" NCoef="0" IVar="-1" Cut="0.0000000000000000e+00" cType="1" res="4.8107821494340897e-02" rms="4.0569722652435303e-01" purity="5.7943838834762573e-01" nType="-99"/>
          <Node pos="r" depth="2" NCoef="0" IVar="-1" Cut="0.0000000000000000e+00" cType="1" res="-2.0634075626730919e-02" rms="2.8695198893547058e-01" purity="1.7193624377250671e-01" nType="-99"/>
        </Node>
      </Node>
    </BinaryTree>
    <BinaryTree type="DecisionTree" boostWeight="1.0000000000000000e+00" itree="39">
      <Node pos="s" depth="0" NCoef="0" IVar="1" Cut="1.7097463989257812e+02" cType="0" res="-2.2705178707838058e-03" rms="3.3606928586959839e-01" purity="3.2210519909858704e-01" nType="0">
        <Node pos="l" depth="1" NCoef="0" IVar="-1" Cut="0.0000000000000000e+00" cType="1" res="-6.0000000902847973e+29" rms="4.5327618718147278e-01" purity="7.1104669570922852e-01" nType="-99"/>
        <Node pos="r" depth="1" NCoef="0" IVar="1" Cut="8.7744302749633789e+00" cType="0" res="-1.6426268266513944e-03" rms="3.3549892902374268e-01" purity="3.2125335931777954e-01" nType="0">
          <Node pos="l" depth="2" NCoef="0" IVar="-1" Cut="0.0000000000000000e+00" cType="1" res="-1.7000701278448105e-02" rms="3.4083649516105652e-01" purity="3.3937549591064453e-01" nType="-99"/>
          <Node pos="r" depth="2" NCoef="0" IVar="-1" Cut="0.0000000000000000e+00" cType="1" res="1.7742152512073517e-01" rms="2.5942605733871460e-01" purity="9.7978055477142334e-02" nType="-99"/>
        </Node>
      </Node>
    </BinaryTree>
    <BinaryTree type="DecisionTree" boostWeight="1.0000000000000000e+00" itree="40">
      <Node pos="s" depth="0" NCoef="0" IVar="1" Cut="1.7097463989257812e+02" cType="0" res="-5.3071539150550961e-04" rms="3.3584523200988770e-01" purity="3.2210519909858704e-01" nType="0">
        <Node pos="l" depth="1" NCoef="0" IVar="-1" Cut="0.0000000000000000e+00" cType="1" res="-6.0000000902847973e+29" rms="4.5327618718147278e-01" purity="7.1104669570922852e-01" nType="-99"/>
        <Node pos="r" depth="1" NCoef="0" IVar="2" Cut="5.2014690637588501e-01" cType="1" res="1.0098622442455962e-04" rms="3.3527073264122009e-01" purity="3.2125335931777954e-01" nType="0">
          <Node pos="l" depth="2" NCoef="0" IVar="-1" Cut="0.0000000000000000e+00" cType="1" res="4.0787193924188614e-02" rms="3.3946692943572998e-01" purity="4.2409089207649231e-01" nType="-99"/>
          <Node pos="r" depth="2" NCoef="0" IVar="-1" Cut="0.0000000000000000e+00" cType="1" res="-1.6006404533982277e-02" rms="3.3354160189628601e-01" purity="2.8088968992233276e-01" nType="-99"/>
        </Node>
      </Node>
    </BinaryTree>
    <BinaryTree type="DecisionTree" boostWeight="1.0000000000000000e+00" itree="41">
      <Node pos="s" depth="0" NCoef="0" IVar="1" Cut="1.7097463989257812e+02" cType="0" res="1.1127474717795849e-03" rms="3.3699244260787964e-01" purity="3.2210519909858704e-01" nType="0">
        <Node pos="l" depth="1" NCoef="0" IVar="-1" Cut="0.0000000000000000e+00" cType="1" res="1.4764600456852544e+30" rms="4.5327618718147278e-01" purity="7.1104669570922852e-01" nType="-99"/>
        <Node pos="r" depth="1" NCoef="0" IVar="0" Cut="1.9843173980712891e+01" cType="0" res="-4.4214603258296847e-04" rms="3.3504676818847656e-01" purity="3.2125335931777954e-01" nType="0">
          <Node pos="l" depth="2" NCoef="0" IVar="-1" Cut="0.0000000000000000e+00" cType="1" res="1.4015571214258671e-02" rms="3.5824716091156006e-01" purity="4.0965008735656738e-01" nType="-99"/>
          <Node pos="r" depth="2" NCoef="0" IVar="-1" Cut="0.0000000000000000e+00" cType="1" res="-4.4231615960597992e-02" rms="2.6871654391288757e-01" purity="1.0176558792591095e-01" nType="-99"/>
        </Node>
      </Node>
    </BinaryTree>
    <BinaryTree type="DecisionTree" boostWeight="1.0000000000000000e+00" itree="42">
      <Node pos="s" depth="0" NCoef="0" IVar="1" Cut="1.7097463989257812e+02" cType="0" res="-1.4113771030679345e-03" rms="3.3552616834640503e-01" purity="3.2210519909858704e-01" nType="0">
        <Node pos="l" depth="1" NCoef="0" IVar="-1" Cut="0.0000000000000000e+00" cType="1" res="-6.0000000902847973e+29" rms="4.5327618718147278e-01" purity="7.1104669570922852e-01" nType="-99"/>
        <Node pos="r" depth="1" NCoef="0" IVar="3" Cut="1.7479289245605469e+02" cType="0" res="-7.8160432167351246e-04" rms="3.3495208621025085e-01" purity="3.2125335931777954e-01" nType="0">
          <Node pos="l" depth="2" NCoef="0" IVar="-1" Cut="0.0000000000000000e+00" cType="1" res="2.2704752162098885e-02" rms="3.5852259397506714e-01" purity="3.4589004516601562e-01" nType="-99"/>
          <Node pos="r" depth="2" NCoef="0" IVar="-1" Cut="0.0000000000000000e+00" cType="1" res="-2.6394465938210487e-02" rms="3.1600356101989746e-01" purity="3.0273634195327759e-01" nType="-99"/>
        </Node>
      </Node>
    </BinaryTree>
    <BinaryTree type="DecisionTree" boostWeight="1.0000000000000000e+00" itree="43">
      <Node pos="s" depth="0" NCoef="0" IVar="1" Cut="1.7097463989257812e+02" cType="0" res="-9.0231321519240737e-04" rms="3.3538538217544556e-01" purity="3.2210519909858704e-01" nType="0">
        <Node pos="l" depth="1" NCoef="0" IVar="-1" Cut="0.0000000000000000e+00" cType="1" res="-6.0000000902847973e+29" rms="4.5327618718147278e-01" purity="7.1104669570922852e-01" nType="-99"/>
        <Node pos="r" depth="1" NCoef="0" IVar="3" Cut="2.6885507202148438e+02" cType="1" res="-2.7142546605318785e-04" rms="3.3480980992317200e-01" purity="3.2125335931777954e-01" nType="0">
          <Node pos="l" depth="2" NCoef="0" IVar="-1" Cut="0.0000000000000000e+00" cType="1" res="7.2674346156418324e-03" rms="3.3566260337829590e-01" purity="3.3139765262603760e-01" nType="-99"/>
          <Node pos="r" depth="2" NCoef="0" IVar="-1" Cut="0.0000000000000000e+00" cType="1" res="-9.4412930309772491e-02" rms="3.2267788052558899e-01" purity="1.9032867252826691e-01" nType="-99"/>
        </Node>
      </Node>
    </BinaryTree>
    <BinaryTree type="DecisionTree" boostWeight="1.0000000000000000e+00" itree="44">
      <Node pos="s" depth="0" NCoef="0" IVar="1" Cut="1.7097463989257812e+02" cType="0" res="1.2563472846522927e-03" rms="3.3656823635101318e-01" purity="3.2210519909858704e-01" nType="0">
        <Node pos="l" depth="1" NCoef="0" IVar="-1" Cut="0.0000000000000000e+00" cType="1" res="1.4764600456852544e+30" rms="4.5327618718147278e-01" purity="7.1104669570922852e-01" nType="-99"/>
        <Node pos="r" depth="1" NCoef="0" IVar="4" Cut="1.4702516174316406e+02" cType="0" res="-2.9823172371834517e-04" rms="3.3461984992027283e-01" purity="3.2125335931777954e-01" nType="0">
          <Node pos="l" depth="2" NCoef="0" IVar="-1" Cut="0.0000000000000000e+00" cType="1" res="-9.9220477044582367e-02" rms="4.0756851434707642e-01" purity="5.3683882951736450e-01" nType="-99"/>
          <Node pos="r" depth="2" NCoef="0" IVar="-1" Cut="0.0000000000000000e+00" cType="1" res="3.6031729541718960e-03" rms="3.3031070232391357e-01" purity="3.0993694067001343e-01" nType="-99"/>
        </Node>
      </Node>
    </BinaryTree>
    <BinaryTree type="DecisionTree" boostWeight="1.0000000000000000e+00" itree="45">
      <Node pos="s" depth="0" NCoef="0" IVar="1" Cut="1.7097463989257812e+02" cType="0" res="-5.2022968884557486e-04" rms="3.3513709902763367e-01" purity="3.2210519909858704e-01" nType="0">
        <Node pos="l" depth="1" NCoef="0" IVar="-1" Cut="0.0000000000000000e+00" cType="1" res="-6.0000000902847973e+29" rms="4.5327618718147278e-01" purity="7.1104669570922852e-01" nType="-99"/>
        <Node pos="r" depth="1" NCoef="0" IVar="2" Cut="6.0292071104049683e-01" cType="1" res="1.1149493366247043e-04" rms="3.3455982804298401e-01" purity="3.2125335931777954e-01" nType="0">
          <Node pos="l" depth="2" NCoef="0" IVar="-1" Cut="0.0000000000000000e+00" cType="1" res="-2.3732904344797134e-02" rms="3.4318846464157104e-01" purity="4.1000849008560181e-01" nType="-99"/>
          <Node pos="r" depth="2" NCoef="0" IVar="-1" Cut="0.0000000000000000e+00" cType="1" res="2.1051410585641861e-02" rms="3.2809481024742126e-01" purity="2.5685429573059082e-01" nType="-99"/>
        </Node>
      </Node>
    </BinaryTree>
    <BinaryTree type="DecisionTree" boostWeight="1.0000000000000000e+00" itree="46">
      <Node pos="s" depth="0" NCoef="0" IVar="1" Cut="1.7097463989257812e+02" cType="0" res="-3.2257346902042627e-04" rms="3.3521184325218201e-01" purity="3.2210519909858704e-01" nType="0">
        <Node pos="l" depth="1" NCoef="0" IVar="-1" Cut="0.0000000000000000e+00" cType="1" res="-6.0000000902847973e+29" rms="4.5327618718147278e-01" purity="7.1104669570922852e-01" nType="-99"/>
        <Node pos="r" depth="1" NCoef="0" IVar="4" Cut="2.5404991149902344e+02" cType="0" res="3.0958402203395963e-04" rms="3.3463445305824280e-01" purity="3.2125335931777954e-01" nType="0">
          <Node pos="l" depth="2" NCoef="0" IVar="-1" Cut="0.0000000000000000e+00" cType="1" res="1.4809452295303345e+00" rms="2.7367877960205078e-01" purity="8.1740838289260864e-01" nType="-99"/>
          <Node pos="r" depth="2" NCoef="0" IVar="-1" Cut="0.0000000000000000e+00" cType="1" res="1.9441542099229991e-04" rms="3.3479630947113037e-01" purity="3.1952768564224243e-01" nType="-99"/>
        </Node>
      </Node>
    </BinaryTree>
    <BinaryTree type="DecisionTree" boostWeight="1.0000000000000000e+00" itree="47">
      <Node pos="s" depth="0" NCoef="0" IVar="1" Cut="1.5487251281738281e+02" cType="0" res="-8.6540856864303350e-04" rms="3.3532297611236572e-01" purity="3.2210519909858704e-01" nType="0">
        <Node pos="l" depth="1" NCoef="0" IVar="-1" Cut="0.0000000000000000e+00" cType="1" res="-1.5993858575820923e+00" rms="4.0804454684257507e-01" purity="6.6580605506896973e-01" nType="-99"/>
        <Node pos="r" depth="1" NCoef="0" IVar="4" Cut="1.9619869995117188e+02" cType="0" res="-3.4734766813926399e-05" rms="3.3474442362785339e-01" purity="3.2080140709877014e-01" nType="0">
          <Node pos="l" depth="2" NCoef="0" IVar="-1" Cut="0.0000000000000000e+00" cType="1" res="-3.6496818065643311e-01" rms="3.3359956741333008e-01" purity="6.6753369569778442e-01" nType="-99"/>
          <Node pos="r" depth="2" NCoef="0" IVar="-1" Cut="0.0000000000000000e+00" cType="1" res="3.6343813408166170e-03" rms="3.3468347787857056e-01" purity="3.1611126661300659e-01" nType="-99"/>
        </Node>
      </Node>
    </BinaryTree>
    <BinaryTree type="DecisionTree" boostWeight="1.0000000000000000e+00" itree="48">
      <Node pos="s" depth="0" NCoef="0" IVar="1" Cut="1.7097463989257812e+02" cType="0" res="-5.0154735799878836e-04" rms="3.3512160181999207e-01" purity="3.2210519909858704e-01" nType="0">
        <Node pos="l" depth="1" NCoef="0" IVar="-1" Cut="0.0000000000000000e+00" cType="1" res="-6.0000000902847973e+29" rms="4.5327618718147278e-01" purity="7.1104669570922852e-01" nType="-99"/>
        <Node pos="r" depth="1" NCoef="0" IVar="1" Cut="1.4110047912597656e+02" cType="0" res="1.3021814811509103e-04" rms="3.3454421162605286e-01" purity="3.2125335931777954e-01" nType="0">
          <Node pos="l" depth="2" NCoef="0" IVar="-1" Cut="0.0000000000000000e+00" cType="1" res="1.6890060901641846e+00" rms="2.9976978898048401e-01" purity="5.8015215396881104e-01" nType="-99"/>
          <Node pos="r" depth="2" NCoef="0" IVar="-1" Cut="0.0000000000000000e+00" cType="1" res="-1.4827119885012507e-03" rms="3.3458748459815979e-01" purity="3.2027402520179749e-01" nType="-99"/>
        </Node>
      </Node>
    </BinaryTree>
    <BinaryTree type="DecisionTree" boostWeight="1.0000000000000000e+00" itree="49">
      <Node pos="s" depth="0" NCoef="0" IVar="1" Cut="1.7097463989257812e+02" cType="0" res="7.4814667459577322e-04" rms="3.3682921528816223e-01" purity="3.2210519909858704e-01" nType="0">
        <Node pos="l" depth="1" NCoef="0" IVar="-1" Cut="0.0000000000000000e+00" cType="1" res="1.4764600456852544e+30" rms="4.5327618718147278e-01" purity="7.1104669570922852e-01" nType="-99"/>
        <Node pos="r" depth="1" NCoef="0" IVar="1" Cut="1.4025224304199219e+02" cType="0" res="-8.0754543887451291e-04" rms="3.3488056063652039e-01" purity="3.2125335931777954e-01" nType="0">
          <Node pos="l" depth="2" NCoef="0" IVar="-1" Cut="0.0000000000000000e+00" cType="1" res="-6.0931527614593506e-01" rms="3.6049690842628479e-01" purity="5.5037462711334229e-01" nType="-99"/>
          <Node pos="r" depth="2" NCoef="0" IVar="-1" Cut="0.0000000000000000e+00" cType="1" res="4.5363072422333062e-04" rms="3.3447721600532532e-01" purity="3.2028177380561829e-01" nType="-99"/>
        </Node>
      </Node>
    </BinaryTree>
  </Weights>
</MethodSetup>
