<?xml version="1.0"?>
<MethodSetup Method="BDT::qcdBDT_ele">
  <GeneralInfo>
    <Info name="TMVA Release" value="4.1.2 [262402]"/>
    <Info name="ROOT Release" value="5.32/00 [335872]"/>
    <Info name="Creator" value="andres"/>
    <Info name="Date" value="Fri Oct 10 13:21:53 2014"/>
    <Info name="Host" value="Linux lxbuild170.cern.ch 2.6.18-348.4.1.el5 #1 SMP Wed Apr 17 07:11:13 CEST 2013 x86_64 x86_64 x86_64 GNU/Linux"/>
    <Info name="Dir" value="/home/andres/single_top/stpol_pdf/src/qcd_mva"/>
    <Info name="Training events" value="46688"/>
    <Info name="TrainingTime" value="2.65047693e+00"/>
    <Info name="AnalysisType" value="Classification"/>
  </GeneralInfo>
  <Options>
    <Option name="V" modified="Yes">True</Option>
    <Option name="VerbosityLevel" modified="No">Verbose</Option>
    <Option name="VarTransform" modified="No">None</Option>
    <Option name="H" modified="Yes">False</Option>
    <Option name="CreateMVAPdfs" modified="No">False</Option>
    <Option name="IgnoreNegWeightsInTraining" modified="No">False</Option>
    <Option name="NTrees" modified="Yes">50</Option>
    <Option name="RenormByClass" modified="No">False</Option>
    <Option name="BoostType" modified="Yes">Grad</Option>
    <Option name="AdaBoostR2Loss" modified="No">quadratic</Option>
    <Option name="UseBaggedGrad" modified="Yes">False</Option>
    <Option name="GradBaggingFraction" modified="No">6.000000e-01</Option>
    <Option name="Shrinkage" modified="Yes">1.000000e-01</Option>
    <Option name="AdaBoostBeta" modified="No">1.000000e+00</Option>
    <Option name="UseRandomisedTrees" modified="No">False</Option>
    <Option name="UseNvars" modified="No">2</Option>
    <Option name="UsePoissonNvars" modified="No">True</Option>
    <Option name="UseNTrainEvents" modified="No">46688</Option>
    <Option name="UseWeightedTrees" modified="No">True</Option>
    <Option name="UseYesNoLeaf" modified="No">True</Option>
    <Option name="NodePurityLimit" modified="No">5.000000e-01</Option>
    <Option name="SeparationType" modified="Yes">crossentropy</Option>
    <Option name="nEventsMin" modified="Yes">250</Option>
    <Option name="nCuts" modified="Yes">200</Option>
    <Option name="UseFisherCuts" modified="No">False</Option>
    <Option name="MinLinCorrForFisher" modified="No">8.000000e-01</Option>
    <Option name="UseExclusiveVars" modified="No">False</Option>
    <Option name="PruneStrength" modified="Yes">7.000000e+00</Option>
    <Option name="PruneMethod" modified="Yes">costcomplexity</Option>
    <Option name="PruneBeforeBoost" modified="No">False</Option>
    <Option name="PruningValFraction" modified="No">5.000000e-01</Option>
    <Option name="NNodesMax" modified="No">100000</Option>
    <Option name="MaxDepth" modified="Yes">2</Option>
    <Option name="DoBoostMonitor" modified="No">False</Option>
    <Option name="NegWeightTreatment" modified="No">ignorenegweights</Option>
  </Options>
  <Variables NVar="5">
    <Variable VarIndex="0" Expression="met" Label="met" Title="met" Unit="" Internal="met" Type="D" Min="8.71811956e-02" Max="4.86823059e+02"/>
    <Variable VarIndex="1" Expression="top_mass" Label="top_mass" Title="top_mass" Unit="" Internal="top_mass" Type="D" Min="9.25775986e+01" Max="9.89749756e+02"/>
    <Variable VarIndex="2" Expression="bjet_pt" Label="bjet_pt" Title="bjet_pt" Unit="" Internal="bjet_pt" Type="D" Min="4.00006104e+01" Max="6.36744812e+02"/>
    <Variable VarIndex="3" Expression="isotropy" Label="isotropy" Title="isotropy" Unit="" Internal="isotropy" Type="D" Min="1.14849158e-01" Max="9.90200341e-01"/>
    <Variable VarIndex="4" Expression="top_eta" Label="top_eta" Title="top_eta" Unit="" Internal="top_eta" Type="D" Min="-6.30986214e+00" Max="7.03499556e+00"/>
  </Variables>
  <Spectators NSpec="0"/>
  <Classes NClass="2">
    <Class Name="Signal" Index="0"/>
    <Class Name="Background" Index="1"/>
  </Classes>
  <Transformations NTransformations="0"/>
  <MVAPdfs/>
  <Weights NTrees="50" AnalysisType="1">
    <BinaryTree type="DecisionTree" boostWeight="1.0000000000000000e+00" itree="0">
      <Node pos="s" depth="0" NCoef="0" IVar="0" Cut="4.3675468444824219e+01" cType="0" res="-1.7180551588535309e-01" rms="4.6955603361129761e-01" purity="3.2819446921348572e-01" nType="0">
        <Node pos="l" depth="1" NCoef="0" IVar="1" Cut="2.2174227905273438e+02" cType="1" res="2.0488154888153076e-01" rms="4.5609599351882935e-01" purity="7.0488154888153076e-01" nType="0">
          <Node pos="l" depth="2" NCoef="0" IVar="-1" Cut="0.0000000000000000e+00" cType="1" res="6.7774266935884953e-03" rms="4.1701424121856689e-01" purity="7.7586072683334351e-01" nType="-99"/>
          <Node pos="r" depth="2" NCoef="0" IVar="-1" Cut="0.0000000000000000e+00" cType="1" res="-7.5344223296269774e-04" rms="4.9471986293792725e-01" purity="4.2752760648727417e-01" nType="-99"/>
        </Node>
        <Node pos="r" depth="1" NCoef="0" IVar="0" Cut="2.9576562881469727e+01" cType="0" res="-2.9476737976074219e-01" rms="4.0387150645256042e-01" purity="2.0523262023925781e-01" nType="0">
          <Node pos="l" depth="2" NCoef="0" IVar="-1" Cut="0.0000000000000000e+00" cType="1" res="-1.2485898332670331e-03" rms="4.8228216171264648e-01" purity="3.6807605624198914e-01" nType="-99"/>
          <Node pos="r" depth="2" NCoef="0" IVar="-1" Cut="0.0000000000000000e+00" cType="1" res="-2.5015664286911488e-03" rms="3.5509115457534790e-01" purity="1.4799109101295471e-01" nType="-99"/>
        </Node>
      </Node>
    </BinaryTree>
    <BinaryTree type="DecisionTree" boostWeight="1.0000000000000000e+00" itree="1">
      <Node pos="s" depth="0" NCoef="0" IVar="0" Cut="4.3675468444824219e+01" cType="0" res="-1.7163050174713135e-01" rms="4.6867215633392334e-01" purity="3.2819446921348572e-01" nType="0">
        <Node pos="l" depth="1" NCoef="0" IVar="1" Cut="2.2174227905273438e+02" cType="1" res="2.0226015150547028e-01" rms="4.5563167333602905e-01" purity="7.0488154888153076e-01" nType="0">
          <Node pos="l" depth="2" NCoef="0" IVar="-1" Cut="0.0000000000000000e+00" cType="1" res="6.6944807767868042e-03" rms="4.1701424121856689e-01" purity="7.7586072683334351e-01" nType="-99"/>
          <Node pos="r" depth="2" NCoef="0" IVar="-1" Cut="0.0000000000000000e+00" cType="1" res="-7.4952619615942240e-04" rms="4.9471986293792725e-01" purity="4.2752760648727417e-01" nType="-99"/>
        </Node>
        <Node pos="r" depth="1" NCoef="0" IVar="0" Cut="2.9576562881469727e+01" cType="0" res="-2.9367953538894653e-01" rms="4.0380591154098511e-01" purity="2.0523262023925781e-01" nType="0">
          <Node pos="l" depth="2" NCoef="0" IVar="-1" Cut="0.0000000000000000e+00" cType="1" res="-1.2426831526681781e-03" rms="4.8228216171264648e-01" purity="3.6807605624198914e-01" nType="-99"/>
          <Node pos="r" depth="2" NCoef="0" IVar="-1" Cut="0.0000000000000000e+00" cType="1" res="-2.4926932528614998e-03" rms="3.5509115457534790e-01" purity="1.4799109101295471e-01" nType="-99"/>
        </Node>
      </Node>
    </BinaryTree>
    <BinaryTree type="DecisionTree" boostWeight="1.0000000000000000e+00" itree="2">
      <Node pos="s" depth="0" NCoef="0" IVar="0" Cut="4.3675468444824219e+01" cType="0" res="-1.7145046591758728e-01" rms="4.6780198812484741e-01" purity="3.2819446921348572e-01" nType="0">
        <Node pos="l" depth="1" NCoef="0" IVar="1" Cut="2.2174227905273438e+02" cType="1" res="1.9967162609100342e-01" rms="4.5517730712890625e-01" purity="7.0488154888153076e-01" nType="0">
          <Node pos="l" depth="2" NCoef="0" IVar="-1" Cut="0.0000000000000000e+00" cType="1" res="6.6131460480391979e-03" rms="4.1701427102088928e-01" purity="7.7586072683334351e-01" nType="-99"/>
          <Node pos="r" depth="2" NCoef="0" IVar="-1" Cut="0.0000000000000000e+00" cType="1" res="-7.4563117232173681e-04" rms="4.9471986293792725e-01" purity="4.2752760648727417e-01" nType="-99"/>
        </Node>
        <Node pos="r" depth="1" NCoef="0" IVar="0" Cut="2.9576562881469727e+01" cType="0" res="-2.9259574413299561e-01" rms="4.0374061465263367e-01" purity="2.0523262023925781e-01" nType="0">
          <Node pos="l" depth="2" NCoef="0" IVar="-1" Cut="0.0000000000000000e+00" cType="1" res="-1.2368082534521818e-03" rms="4.8228213191032410e-01" purity="3.6807605624198914e-01" nType="-99"/>
          <Node pos="r" depth="2" NCoef="0" IVar="-1" Cut="0.0000000000000000e+00" cType="1" res="-2.4838824756443501e-03" rms="3.5509115457534790e-01" purity="1.4799109101295471e-01" nType="-99"/>
        </Node>
      </Node>
    </BinaryTree>
    <BinaryTree type="DecisionTree" boostWeight="1.0000000000000000e+00" itree="3">
      <Node pos="s" depth="0" NCoef="0" IVar="0" Cut="4.3675468444824219e+01" cType="0" res="-1.7126549780368805e-01" rms="4.6694529056549072e-01" purity="3.2819446921348572e-01" nType="0">
        <Node pos="l" depth="1" NCoef="0" IVar="1" Cut="2.2174227905273438e+02" cType="1" res="1.9711554050445557e-01" rms="4.5473259687423706e-01" purity="7.0488154888153076e-01" nType="0">
          <Node pos="l" depth="2" NCoef="0" IVar="-1" Cut="0.0000000000000000e+00" cType="1" res="6.5333670936524868e-03" rms="4.1701424121856689e-01" purity="7.7586072683334351e-01" nType="-99"/>
          <Node pos="r" depth="2" NCoef="0" IVar="-1" Cut="0.0000000000000000e+00" cType="1" res="-7.4175739428028464e-04" rms="4.9471989274024963e-01" purity="4.2752760648727417e-01" nType="-99"/>
        </Node>
        <Node pos="r" depth="1" NCoef="0" IVar="0" Cut="2.9576562881469727e+01" cType="0" res="-2.9151603579521179e-01" rms="4.0367567539215088e-01" purity="2.0523262023925781e-01" nType="0">
          <Node pos="l" depth="2" NCoef="0" IVar="-1" Cut="0.0000000000000000e+00" cType="1" res="-1.2309647863730788e-03" rms="4.8228213191032410e-01" purity="3.6807605624198914e-01" nType="-99"/>
          <Node pos="r" depth="2" NCoef="0" IVar="-1" Cut="0.0000000000000000e+00" cType="1" res="-2.4751333985477686e-03" rms="3.5509115457534790e-01" purity="1.4799109101295471e-01" nType="-99"/>
        </Node>
      </Node>
    </BinaryTree>
    <BinaryTree type="DecisionTree" boostWeight="1.0000000000000000e+00" itree="4">
      <Node pos="s" depth="0" NCoef="0" IVar="0" Cut="4.3675468444824219e+01" cType="0" res="-1.7107568681240082e-01" rms="4.6610182523727417e-01" purity="3.2819446921348572e-01" nType="0">
        <Node pos="l" depth="1" NCoef="0" IVar="1" Cut="2.2174227905273438e+02" cType="1" res="1.9459149241447449e-01" rms="4.5429736375808716e-01" purity="7.0488154888153076e-01" nType="0">
          <Node pos="l" depth="2" NCoef="0" IVar="-1" Cut="0.0000000000000000e+00" cType="1" res="6.4550908282399178e-03" rms="4.1701424121856689e-01" purity="7.7586072683334351e-01" nType="-99"/>
          <Node pos="r" depth="2" NCoef="0" IVar="-1" Cut="0.0000000000000000e+00" cType="1" res="-7.3790451278910041e-04" rms="4.9471986293792725e-01" purity="4.2752760648727417e-01" nType="-99"/>
        </Node>
        <Node pos="r" depth="1" NCoef="0" IVar="0" Cut="2.9576562881469727e+01" cType="0" res="-2.9044032096862793e-01" rms="4.0361103415489197e-01" purity="2.0523262023925781e-01" nType="0">
          <Node pos="l" depth="2" NCoef="0" IVar="-1" Cut="0.0000000000000000e+00" cType="1" res="-1.2251528678461909e-03" rms="4.8228216171264648e-01" purity="3.6807605624198914e-01" nType="-99"/>
          <Node pos="r" depth="2" NCoef="0" IVar="-1" Cut="0.0000000000000000e+00" cType="1" res="-2.4664450902491808e-03" rms="3.5509112477302551e-01" purity="1.4799109101295471e-01" nType="-99"/>
        </Node>
      </Node>
    </BinaryTree>
    <BinaryTree type="DecisionTree" boostWeight="1.0000000000000000e+00" itree="5">
      <Node pos="s" depth="0" NCoef="0" IVar="0" Cut="4.3675468444824219e+01" cType="0" res="-1.7088110744953156e-01" rms="4.6527144312858582e-01" purity="3.2819446921348572e-01" nType="0">
        <Node pos="l" depth="1" NCoef="0" IVar="1" Cut="2.2174227905273438e+02" cType="1" res="1.9209910929203033e-01" rms="4.5387139916419983e-01" purity="7.0488154888153076e-01" nType="0">
          <Node pos="l" depth="2" NCoef="0" IVar="-1" Cut="0.0000000000000000e+00" cType="1" res="6.3782669603824615e-03" rms="4.1701427102088928e-01" purity="7.7586072683334351e-01" nType="-99"/>
          <Node pos="r" depth="2" NCoef="0" IVar="-1" Cut="0.0000000000000000e+00" cType="1" res="-7.3407241143286228e-04" rms="4.9471986293792725e-01" purity="4.2752760648727417e-01" nType="-99"/>
        </Node>
        <Node pos="r" depth="1" NCoef="0" IVar="0" Cut="2.9576562881469727e+01" cType="0" res="-2.8936865925788879e-01" rms="4.0354675054550171e-01" purity="2.0523262023925781e-01" nType="0">
          <Node pos="l" depth="2" NCoef="0" IVar="-1" Cut="0.0000000000000000e+00" cType="1" res="-1.2193717993795872e-03" rms="4.8228216171264648e-01" purity="3.6807605624198914e-01" nType="-99"/>
          <Node pos="r" depth="2" NCoef="0" IVar="-1" Cut="0.0000000000000000e+00" cType="1" res="-2.4578170850872993e-03" rms="3.5509115457534790e-01" purity="1.4799109101295471e-01" nType="-99"/>
        </Node>
      </Node>
    </BinaryTree>
    <BinaryTree type="DecisionTree" boostWeight="1.0000000000000000e+00" itree="6">
      <Node pos="s" depth="0" NCoef="0" IVar="0" Cut="4.3675468444824219e+01" cType="0" res="-1.7068186402320862e-01" rms="4.6445384621620178e-01" purity="3.2819446921348572e-01" nType="0">
        <Node pos="l" depth="1" NCoef="0" IVar="1" Cut="2.2174227905273438e+02" cType="1" res="1.8963794410228729e-01" rms="4.5345452427864075e-01" purity="7.0488154888153076e-01" nType="0">
          <Node pos="l" depth="2" NCoef="0" IVar="-1" Cut="0.0000000000000000e+00" cType="1" res="6.3028461299836636e-03" rms="4.1701424121856689e-01" purity="7.7586072683334351e-01" nType="-99"/>
          <Node pos="r" depth="2" NCoef="0" IVar="-1" Cut="0.0000000000000000e+00" cType="1" res="-7.3026103200390935e-04" rms="4.9471989274024963e-01" purity="4.2752760648727417e-01" nType="-99"/>
        </Node>
        <Node pos="r" depth="1" NCoef="0" IVar="0" Cut="2.9576562881469727e+01" cType="0" res="-2.8830096125602722e-01" rms="4.0348282456398010e-01" purity="2.0523262023925781e-01" nType="0">
          <Node pos="l" depth="2" NCoef="0" IVar="-1" Cut="0.0000000000000000e+00" cType="1" res="-1.2136214645579457e-03" rms="4.8228216171264648e-01" purity="3.6807605624198914e-01" nType="-99"/>
          <Node pos="r" depth="2" NCoef="0" IVar="-1" Cut="0.0000000000000000e+00" cType="1" res="-2.4492484517395496e-03" rms="3.5509115457534790e-01" purity="1.4799109101295471e-01" nType="-99"/>
        </Node>
      </Node>
    </BinaryTree>
    <BinaryTree type="DecisionTree" boostWeight="1.0000000000000000e+00" itree="7">
      <Node pos="s" depth="0" NCoef="0" IVar="0" Cut="4.3675468444824219e+01" cType="0" res="-1.7047804594039917e-01" rms="4.6364885568618774e-01" purity="3.2819446921348572e-01" nType="0">
        <Node pos="l" depth="1" NCoef="0" IVar="1" Cut="2.2174227905273438e+02" cType="1" res="1.8720763921737671e-01" rms="4.5304656028747559e-01" purity="7.0488154888153076e-01" nType="0">
          <Node pos="l" depth="2" NCoef="0" IVar="-1" Cut="0.0000000000000000e+00" cType="1" res="6.2287836335599422e-03" rms="4.1701424121856689e-01" purity="7.7586072683334351e-01" nType="-99"/>
          <Node pos="r" depth="2" NCoef="0" IVar="-1" Cut="0.0000000000000000e+00" cType="1" res="-7.2647025808691978e-04" rms="4.9471986293792725e-01" purity="4.2752760648727417e-01" nType="-99"/>
        </Node>
        <Node pos="r" depth="1" NCoef="0" IVar="0" Cut="2.9576562881469727e+01" cType="0" res="-2.8723728656768799e-01" rms="4.0341916680335999e-01" purity="2.0523262023925781e-01" nType="0">
          <Node pos="l" depth="2" NCoef="0" IVar="-1" Cut="0.0000000000000000e+00" cType="1" res="-1.2079019797965884e-03" rms="4.8228213191032410e-01" purity="3.6807605624198914e-01" nType="-99"/>
          <Node pos="r" depth="2" NCoef="0" IVar="-1" Cut="0.0000000000000000e+00" cType="1" res="-2.4407384917140007e-03" rms="3.5509115457534790e-01" purity="1.4799109101295471e-01" nType="-99"/>
        </Node>
      </Node>
    </BinaryTree>
    <BinaryTree type="DecisionTree" boostWeight="1.0000000000000000e+00" itree="8">
      <Node pos="s" depth="0" NCoef="0" IVar="0" Cut="4.3675468444824219e+01" cType="0" res="-1.7026971280574799e-01" rms="4.6285626292228699e-01" purity="3.2819446921348572e-01" nType="0">
        <Node pos="l" depth="1" NCoef="0" IVar="1" Cut="2.2174227905273438e+02" cType="1" res="1.8480779230594635e-01" rms="4.5264726877212524e-01" purity="7.0488154888153076e-01" nType="0">
          <Node pos="l" depth="2" NCoef="0" IVar="-1" Cut="0.0000000000000000e+00" cType="1" res="6.1560352332890034e-03" rms="4.1701424121856689e-01" purity="7.7586072683334351e-01" nType="-99"/>
          <Node pos="r" depth="2" NCoef="0" IVar="-1" Cut="0.0000000000000000e+00" cType="1" res="-7.2269991505891085e-04" rms="4.9471986293792725e-01" purity="4.2752760648727417e-01" nType="-99"/>
        </Node>
        <Node pos="r" depth="1" NCoef="0" IVar="0" Cut="2.9576562881469727e+01" cType="0" res="-2.8617757558822632e-01" rms="4.0335583686828613e-01" purity="2.0523262023925781e-01" nType="0">
          <Node pos="l" depth="2" NCoef="0" IVar="-1" Cut="0.0000000000000000e+00" cType="1" res="-1.2022128794342279e-03" rms="4.8228216171264648e-01" purity="3.6807605624198914e-01" nType="-99"/>
          <Node pos="r" depth="2" NCoef="0" IVar="-1" Cut="0.0000000000000000e+00" cType="1" res="-2.4322862736880779e-03" rms="3.5509112477302551e-01" purity="1.4799109101295471e-01" nType="-99"/>
        </Node>
      </Node>
    </BinaryTree>
    <BinaryTree type="DecisionTree" boostWeight="1.0000000000000000e+00" itree="9">
      <Node pos="s" depth="0" NCoef="0" IVar="0" Cut="4.1253898620605469e+01" cType="0" res="-1.7005693912506104e-01" rms="4.6207585930824280e-01" purity="3.2819446921348572e-01" nType="0">
        <Node pos="l" depth="1" NCoef="0" IVar="1" Cut="2.2174227905273438e+02" cType="1" res="1.5825495123863220e-01" rms="4.6252131462097168e-01" purity="6.7789983749389648e-01" nType="0">
          <Node pos="l" depth="2" NCoef="0" IVar="-1" Cut="0.0000000000000000e+00" cType="1" res="5.1653804257512093e-03" rms="4.2937594652175903e-01" purity="7.5366741418838501e-01" nType="-99"/>
          <Node pos="r" depth="2" NCoef="0" IVar="-1" Cut="0.0000000000000000e+00" cType="1" res="-1.0233512148261070e-03" rms="4.8810726404190063e-01" purity="3.9222076535224915e-01" nType="-99"/>
        </Node>
        <Node pos="r" depth="1" NCoef="0" IVar="0" Cut="2.9579473495483398e+01" cType="0" res="-2.9363694787025452e-01" rms="3.9688068628311157e-01" purity="1.9656176865100861e-01" nType="0">
          <Node pos="l" depth="2" NCoef="0" IVar="-1" Cut="0.0000000000000000e+00" cType="1" res="-1.2794689973816276e-03" rms="4.7913703322410583e-01" purity="3.5707452893257141e-01" nType="-99"/>
          <Node pos="r" depth="2" NCoef="0" IVar="-1" Cut="0.0000000000000000e+00" cType="1" res="-2.4237437173724174e-03" rms="3.5512453317642212e-01" purity="1.4802530407905579e-01" nType="-99"/>
        </Node>
      </Node>
    </BinaryTree>
    <BinaryTree type="DecisionTree" boostWeight="1.0000000000000000e+00" itree="10">
      <Node pos="s" depth="0" NCoef="0" IVar="0" Cut="4.3675468444824219e+01" cType="0" res="-1.6980043053627014e-01" rms="4.6136075258255005e-01" purity="3.2819446921348572e-01" nType="0">
        <Node pos="l" depth="1" NCoef="0" IVar="1" Cut="2.2174227905273438e+02" cType="1" res="1.8049344420433044e-01" rms="4.5190840959548950e-01" purity="7.0488154888153076e-01" nType="0">
          <Node pos="l" depth="2" NCoef="0" IVar="-1" Cut="0.0000000000000000e+00" cType="1" res="6.0248989611864090e-03" rms="4.1701424121856689e-01" purity="7.7586072683334351e-01" nType="-99"/>
          <Node pos="r" depth="2" NCoef="0" IVar="-1" Cut="0.0000000000000000e+00" cType="1" res="-7.1364070754498243e-04" rms="4.9471986293792725e-01" purity="4.2752760648727417e-01" nType="-99"/>
        </Node>
        <Node pos="r" depth="1" NCoef="0" IVar="0" Cut="2.9576562881469727e+01" cType="0" res="-2.8414675593376160e-01" rms="4.0316468477249146e-01" purity="2.0523262023925781e-01" nType="0">
          <Node pos="l" depth="2" NCoef="0" IVar="-1" Cut="0.0000000000000000e+00" cType="1" res="-1.1937086237594485e-03" rms="4.8216822743415833e-01" purity="3.6807605624198914e-01" nType="-99"/>
          <Node pos="r" depth="2" NCoef="0" IVar="-1" Cut="0.0000000000000000e+00" cType="1" res="-2.4155538994818926e-03" rms="3.5509115457534790e-01" purity="1.4799109101295471e-01" nType="-99"/>
        </Node>
      </Node>
    </BinaryTree>
    <BinaryTree type="DecisionTree" boostWeight="1.0000000000000000e+00" itree="11">
      <Node pos="s" depth="0" NCoef="0" IVar="0" Cut="4.1253898620605469e+01" cType="0" res="-1.6957995295524597e-01" rms="4.6060258150100708e-01" purity="3.2819446921348572e-01" nType="0">
        <Node pos="l" depth="1" NCoef="0" IVar="1" Cut="2.1805186462402344e+02" cType="1" res="1.5430386364459991e-01" rms="4.6168974041938782e-01" purity="6.7789983749389648e-01" nType="0">
          <Node pos="l" depth="2" NCoef="0" IVar="-1" Cut="0.0000000000000000e+00" cType="1" res="5.1467069424688816e-03" rms="4.2795962095260620e-01" purity="7.5597703456878662e-01" nType="-99"/>
          <Node pos="r" depth="2" NCoef="0" IVar="-1" Cut="0.0000000000000000e+00" cType="1" res="-9.4910379266366363e-04" rms="4.8927977681159973e-01" purity="4.0192726254463196e-01" nType="-99"/>
        </Node>
        <Node pos="r" depth="1" NCoef="0" IVar="0" Cut="2.9579473495483398e+01" cType="0" res="-2.9149317741394043e-01" rms="3.9677292108535767e-01" purity="1.9656176865100861e-01" nType="0">
          <Node pos="l" depth="2" NCoef="0" IVar="-1" Cut="0.0000000000000000e+00" cType="1" res="-1.2680336367338896e-03" rms="4.7913703322410583e-01" purity="3.5707452893257141e-01" nType="-99"/>
          <Node pos="r" depth="2" NCoef="0" IVar="-1" Cut="0.0000000000000000e+00" cType="1" res="-2.4071233347058296e-03" rms="3.5512447357177734e-01" purity="1.4802530407905579e-01" nType="-99"/>
        </Node>
      </Node>
    </BinaryTree>
    <BinaryTree type="DecisionTree" boostWeight="1.0000000000000000e+00" itree="12">
      <Node pos="s" depth="0" NCoef="0" IVar="0" Cut="4.3675468444824219e+01" cType="0" res="-1.6931952536106110e-01" rms="4.5990338921546936e-01" purity="3.2819446921348572e-01" nType="0">
        <Node pos="l" depth="1" NCoef="0" IVar="1" Cut="2.2543270874023438e+02" cType="1" res="1.7626591026782990e-01" rms="4.5119607448577881e-01" purity="7.0488154888153076e-01" nType="0">
          <Node pos="l" depth="2" NCoef="0" IVar="-1" Cut="0.0000000000000000e+00" cType="1" res="5.7750926353037357e-03" rms="4.1865196824073792e-01" purity="7.7296793460845947e-01" nType="-99"/>
          <Node pos="r" depth="2" NCoef="0" IVar="-1" Cut="0.0000000000000000e+00" cType="1" res="-7.8917783685028553e-04" rms="4.9327486753463745e-01" purity="4.1826933622360229e-01" nType="-99"/>
        </Node>
        <Node pos="r" depth="1" NCoef="0" IVar="0" Cut="2.9576562881469727e+01" cType="0" res="-2.8212890028953552e-01" rms="4.0297585725784302e-01" purity="2.0523262023925781e-01" nType="0">
          <Node pos="l" depth="2" NCoef="0" IVar="-1" Cut="0.0000000000000000e+00" cType="1" res="-1.1852256720885634e-03" rms="4.8205319046974182e-01" purity="3.6807605624198914e-01" nType="-99"/>
          <Node pos="r" depth="2" NCoef="0" IVar="-1" Cut="0.0000000000000000e+00" cType="1" res="-2.3990450426936150e-03" rms="3.5509115457534790e-01" purity="1.4799109101295471e-01" nType="-99"/>
        </Node>
      </Node>
    </BinaryTree>
    <BinaryTree type="DecisionTree" boostWeight="1.0000000000000000e+00" itree="13">
      <Node pos="s" depth="0" NCoef="0" IVar="0" Cut="4.1253898620605469e+01" cType="0" res="-1.6908705234527588e-01" rms="4.5917257666587830e-01" purity="3.2819446921348572e-01" nType="0">
        <Node pos="l" depth="1" NCoef="0" IVar="0" Cut="5.4554836273193359e+01" cType="0" res="1.5045212209224701e-01" rms="4.6089050173759460e-01" purity="6.7789983749389648e-01" nType="0">
          <Node pos="l" depth="2" NCoef="0" IVar="-1" Cut="0.0000000000000000e+00" cType="1" res="7.2428197599947453e-03" rms="3.9675012230873108e-01" purity="7.9875671863555908e-01" nType="-99"/>
          <Node pos="r" depth="2" NCoef="0" IVar="-1" Cut="0.0000000000000000e+00" cType="1" res="4.2025159928016365e-05" rms="4.9280068278312683e-01" purity="5.2576029300689697e-01" nType="-99"/>
        </Node>
        <Node pos="r" depth="1" NCoef="0" IVar="0" Cut="2.9579473495483398e+01" cType="0" res="-2.8936490416526794e-01" rms="3.9666643738746643e-01" purity="1.9656176865100861e-01" nType="0">
          <Node pos="l" depth="2" NCoef="0" IVar="-1" Cut="0.0000000000000000e+00" cType="1" res="-1.2567047961056232e-03" rms="4.7913703322410583e-01" purity="3.5707452893257141e-01" nType="-99"/>
          <Node pos="r" depth="2" NCoef="0" IVar="-1" Cut="0.0000000000000000e+00" cType="1" res="-2.3907236754894257e-03" rms="3.5512438416481018e-01" purity="1.4802530407905579e-01" nType="-99"/>
        </Node>
      </Node>
    </BinaryTree>
    <BinaryTree type="DecisionTree" boostWeight="1.0000000000000000e+00" itree="14">
      <Node pos="s" depth="0" NCoef="0" IVar="0" Cut="4.1253898620605469e+01" cType="0" res="-1.6886633634567261e-01" rms="4.5841845870018005e-01" purity="3.2819446921348572e-01" nType="0">
        <Node pos="l" depth="1" NCoef="0" IVar="1" Cut="2.1805186462402344e+02" cType="1" res="1.4843611419200897e-01" rms="4.6038892865180969e-01" purity="6.7789983749389648e-01" nType="0">
          <Node pos="l" depth="2" NCoef="0" IVar="-1" Cut="0.0000000000000000e+00" cType="1" res="4.9914945848286152e-03" rms="4.2741024494171143e-01" purity="7.5597703456878662e-01" nType="-99"/>
          <Node pos="r" depth="2" NCoef="0" IVar="-1" Cut="0.0000000000000000e+00" cType="1" res="-9.6143822884187102e-04" rms="4.8842090368270874e-01" purity="4.0192726254463196e-01" nType="-99"/>
        </Node>
        <Node pos="r" depth="1" NCoef="0" IVar="0" Cut="2.9579473495483398e+01" cType="0" res="-2.8830224275588989e-01" rms="3.9661535620689392e-01" purity="1.9656176865100861e-01" nType="0">
          <Node pos="l" depth="2" NCoef="0" IVar="-1" Cut="0.0000000000000000e+00" cType="1" res="-1.2509070802479982e-03" rms="4.7913703322410583e-01" purity="3.5707452893257141e-01" nType="-99"/>
          <Node pos="r" depth="2" NCoef="0" IVar="-1" Cut="0.0000000000000000e+00" cType="1" res="-2.3826055694371462e-03" rms="3.5512441396713257e-01" purity="1.4802530407905579e-01" nType="-99"/>
        </Node>
      </Node>
    </BinaryTree>
    <BinaryTree type="DecisionTree" boostWeight="1.0000000000000000e+00" itree="15">
      <Node pos="s" depth="0" NCoef="0" IVar="0" Cut="4.3675468444824219e+01" cType="0" res="-1.6859647631645203e-01" rms="4.5774710178375244e-01" purity="3.2819446921348572e-01" nType="0">
        <Node pos="l" depth="1" NCoef="0" IVar="1" Cut="2.2174227905273438e+02" cType="1" res="1.6993881762027740e-01" rms="4.5006909966468811e-01" purity="7.0488154888153076e-01" nType="0">
          <Node pos="l" depth="2" NCoef="0" IVar="-1" Cut="0.0000000000000000e+00" cType="1" res="5.7233497500419617e-03" rms="4.1660979390144348e-01" purity="7.7586072683334351e-01" nType="-99"/>
          <Node pos="r" depth="2" NCoef="0" IVar="-1" Cut="0.0000000000000000e+00" cType="1" res="-7.1976042818278074e-04" rms="4.9400001764297485e-01" purity="4.2752760648727417e-01" nType="-99"/>
        </Node>
        <Node pos="r" depth="1" NCoef="0" IVar="0" Cut="2.9576562881469727e+01" cType="0" res="-2.7910447120666504e-01" rms="4.0272179245948792e-01" purity="2.0523262023925781e-01" nType="0">
          <Node pos="l" depth="2" NCoef="0" IVar="-1" Cut="0.0000000000000000e+00" cType="1" res="-1.1717478046193719e-03" rms="4.8193153738975525e-01" purity="3.6807605624198914e-01" nType="-99"/>
          <Node pos="r" depth="2" NCoef="0" IVar="-1" Cut="0.0000000000000000e+00" cType="1" res="-2.3746900260448456e-03" rms="3.5509115457534790e-01" purity="1.4799109101295471e-01" nType="-99"/>
        </Node>
      </Node>
    </BinaryTree>
    <BinaryTree type="DecisionTree" boostWeight="1.0000000000000000e+00" itree="16">
      <Node pos="s" depth="0" NCoef="0" IVar="0" Cut="4.1253898620605469e+01" cType="0" res="-1.6835816204547882e-01" rms="4.5704033970832825e-01" purity="3.2819446921348572e-01" nType="0">
        <Node pos="l" depth="1" NCoef="0" IVar="0" Cut="5.0121315002441406e+01" cType="0" res="1.4470179378986359e-01" rms="4.5961531996726990e-01" purity="6.7789983749389648e-01" nType="0">
          <Node pos="l" depth="2" NCoef="0" IVar="-1" Cut="0.0000000000000000e+00" cType="1" res="5.7683973573148251e-03" rms="4.1340211033821106e-01" purity="7.7392953634262085e-01" nType="-99"/>
          <Node pos="r" depth="2" NCoef="0" IVar="-1" Cut="0.0000000000000000e+00" cType="1" res="-4.5344309182837605e-04" rms="4.9276843667030334e-01" purity="4.8229655623435974e-01" nType="-99"/>
        </Node>
        <Node pos="r" depth="1" NCoef="0" IVar="0" Cut="2.9579473495483398e+01" cType="0" res="-2.8619715571403503e-01" rms="3.9651063084602356e-01" purity="1.9656176865100861e-01" nType="0">
          <Node pos="l" depth="2" NCoef="0" IVar="-1" Cut="0.0000000000000000e+00" cType="1" res="-1.2397406389936805e-03" rms="4.7913703322410583e-01" purity="3.5707452893257141e-01" nType="-99"/>
          <Node pos="r" depth="2" NCoef="0" IVar="-1" Cut="0.0000000000000000e+00" cType="1" res="-2.3665276821702719e-03" rms="3.5512435436248779e-01" purity="1.4802530407905579e-01" nType="-99"/>
        </Node>
      </Node>
    </BinaryTree>
    <BinaryTree type="DecisionTree" boostWeight="1.0000000000000000e+00" itree="17">
      <Node pos="s" depth="0" NCoef="0" IVar="0" Cut="4.1253898620605469e+01" cType="0" res="-1.6809907555580139e-01" rms="4.5635655522346497e-01" purity="3.2819446921348572e-01" nType="0">
        <Node pos="l" depth="1" NCoef="0" IVar="1" Cut="2.2543270874023438e+02" cType="1" res="1.4285722374916077e-01" rms="4.5921146869659424e-01" purity="6.7789983749389648e-01" nType="0">
          <Node pos="l" depth="2" NCoef="0" IVar="-1" Cut="0.0000000000000000e+00" cType="1" res="4.6485392376780510e-03" rms="4.2970839142799377e-01" purity="7.5064802169799805e-01" nType="-99"/>
          <Node pos="r" depth="2" NCoef="0" IVar="-1" Cut="0.0000000000000000e+00" cType="1" res="-1.1095185764133930e-03" rms="4.8447597026824951e-01" purity="3.8249728083610535e-01" nType="-99"/>
        </Node>
        <Node pos="r" depth="1" NCoef="0" IVar="0" Cut="2.9579473495483398e+01" cType="0" res="-2.8514623641967773e-01" rms="3.9646035432815552e-01" purity="1.9656176865100861e-01" nType="0">
          <Node pos="l" depth="2" NCoef="0" IVar="-1" Cut="0.0000000000000000e+00" cType="1" res="-1.2340317480266094e-03" rms="4.7913706302642822e-01" purity="3.5707452893257141e-01" nType="-99"/>
          <Node pos="r" depth="2" NCoef="0" IVar="-1" Cut="0.0000000000000000e+00" cType="1" res="-2.3585676681250334e-03" rms="3.5512435436248779e-01" purity="1.4802530407905579e-01" nType="-99"/>
        </Node>
      </Node>
    </BinaryTree>
    <BinaryTree type="DecisionTree" boostWeight="1.0000000000000000e+00" itree="18">
      <Node pos="s" depth="0" NCoef="0" IVar="0" Cut="4.1253898620605469e+01" cType="0" res="-1.6781370341777802e-01" rms="4.5572081208229065e-01" purity="3.2819446921348572e-01" nType="0">
        <Node pos="l" depth="1" NCoef="0" IVar="0" Cut="5.4554836273193359e+01" cType="0" res="1.4111910760402679e-01" rms="4.5889726281166077e-01" purity="6.7789983749389648e-01" nType="0">
          <Node pos="l" depth="2" NCoef="0" IVar="-1" Cut="0.0000000000000000e+00" cType="1" res="6.9308187812566757e-03" rms="3.9601957798004150e-01" purity="7.9875671863555908e-01" nType="-99"/>
          <Node pos="r" depth="2" NCoef="0" IVar="-1" Cut="0.0000000000000000e+00" cType="1" res="-2.6679601432988420e-05" rms="4.9135497212409973e-01" purity="5.2576029300689697e-01" nType="-99"/>
        </Node>
        <Node pos="r" depth="1" NCoef="0" IVar="0" Cut="2.9579473495483398e+01" cType="0" res="-2.8409922122955322e-01" rms="3.9641031622886658e-01" purity="1.9656176865100861e-01" nType="0">
          <Node pos="l" depth="2" NCoef="0" IVar="-1" Cut="0.0000000000000000e+00" cType="1" res="-1.2283526593819261e-03" rms="4.7913706302642822e-01" purity="3.5707452893257141e-01" nType="-99"/>
          <Node pos="r" depth="2" NCoef="0" IVar="-1" Cut="0.0000000000000000e+00" cType="1" res="-2.3506588768213987e-03" rms="3.5512435436248779e-01" purity="1.4802530407905579e-01" nType="-99"/>
        </Node>
      </Node>
    </BinaryTree>
    <BinaryTree type="DecisionTree" boostWeight="1.0000000000000000e+00" itree="19">
      <Node pos="s" depth="0" NCoef="0" IVar="0" Cut="4.1253898620605469e+01" cType="0" res="-1.6757704317569733e-01" rms="4.5501425862312317e-01" purity="3.2819446921348572e-01" nType="0">
        <Node pos="l" depth="1" NCoef="0" IVar="1" Cut="2.1805186462402344e+02" cType="1" res="1.3921318948268890e-01" rms="4.5842593908309937e-01" purity="6.7789983749389648e-01" nType="0">
          <Node pos="l" depth="2" NCoef="0" IVar="-1" Cut="0.0000000000000000e+00" cType="1" res="4.7522769309580326e-03" rms="4.2657092213630676e-01" purity="7.5597703456878662e-01" nType="-99"/>
          <Node pos="r" depth="2" NCoef="0" IVar="-1" Cut="0.0000000000000000e+00" cType="1" res="-9.8528398666530848e-04" rms="4.8697954416275024e-01" purity="4.0192726254463196e-01" nType="-99"/>
        </Node>
        <Node pos="r" depth="1" NCoef="0" IVar="0" Cut="2.9579473495483398e+01" cType="0" res="-2.8305605053901672e-01" rms="3.9636054635047913e-01" purity="1.9656176865100861e-01" nType="0">
          <Node pos="l" depth="2" NCoef="0" IVar="-1" Cut="0.0000000000000000e+00" cType="1" res="-1.2227029073983431e-03" rms="4.7913706302642822e-01" purity="3.5707452893257141e-01" nType="-99"/>
          <Node pos="r" depth="2" NCoef="0" IVar="-1" Cut="0.0000000000000000e+00" cType="1" res="-2.3428010754287243e-03" rms="3.5512435436248779e-01" purity="1.4802530407905579e-01" nType="-99"/>
        </Node>
      </Node>
    </BinaryTree>
    <BinaryTree type="DecisionTree" boostWeight="1.0000000000000000e+00" itree="20">
      <Node pos="s" depth="0" NCoef="0" IVar="0" Cut="4.3675468444824219e+01" cType="0" res="-1.6729311645030975e-01" rms="4.5438599586486816e-01" purity="3.2819446921348572e-01" nType="0">
        <Node pos="l" depth="1" NCoef="0" IVar="1" Cut="2.2543270874023438e+02" cType="1" res="1.6006559133529663e-01" rms="4.4835808873176575e-01" purity="7.0488154888153076e-01" nType="0">
          <Node pos="l" depth="2" NCoef="0" IVar="-1" Cut="0.0000000000000000e+00" cType="1" res="5.3407712839543819e-03" rms="4.1757628321647644e-01" purity="7.7296793460845947e-01" nType="-99"/>
          <Node pos="r" depth="2" NCoef="0" IVar="-1" Cut="0.0000000000000000e+00" cType="1" res="-8.2646351074799895e-04" rms="4.9141466617584229e-01" purity="4.1826933622360229e-01" nType="-99"/>
        </Node>
        <Node pos="r" depth="1" NCoef="0" IVar="0" Cut="2.9576562881469727e+01" cType="0" res="-2.7415272593498230e-01" rms="4.0229660272598267e-01" purity="2.0523262023925781e-01" nType="0">
          <Node pos="l" depth="2" NCoef="0" IVar="-1" Cut="0.0000000000000000e+00" cType="1" res="-1.1503063142299652e-03" rms="4.8171392083168030e-01" purity="3.6807605624198914e-01" nType="-99"/>
          <Node pos="r" depth="2" NCoef="0" IVar="-1" Cut="0.0000000000000000e+00" cType="1" res="-2.3351446725428104e-03" rms="3.5509115457534790e-01" purity="1.4799109101295471e-01" nType="-99"/>
        </Node>
      </Node>
    </BinaryTree>
    <BinaryTree type="DecisionTree" boostWeight="1.0000000000000000e+00" itree="21">
      <Node pos="s" depth="0" NCoef="0" IVar="0" Cut="4.1253898620605469e+01" cType="0" res="-1.6703517735004425e-01" rms="4.5373022556304932e-01" purity="3.2819446921348572e-01" nType="0">
        <Node pos="l" depth="1" NCoef="0" IVar="0" Cut="5.0121315002441406e+01" cType="0" res="1.3570326566696167e-01" rms="4.5771306753158569e-01" purity="6.7789983749389648e-01" nType="0">
          <Node pos="l" depth="2" NCoef="0" IVar="-1" Cut="0.0000000000000000e+00" cType="1" res="5.5084237828850746e-03" rms="4.1254994273185730e-01" purity="7.7392953634262085e-01" nType="-99"/>
          <Node pos="r" depth="2" NCoef="0" IVar="-1" Cut="0.0000000000000000e+00" cType="1" res="-5.0099409418180585e-04" rms="4.9154108762741089e-01" purity="4.8229655623435974e-01" nType="-99"/>
        </Node>
        <Node pos="r" depth="1" NCoef="0" IVar="0" Cut="2.9579473495483398e+01" cType="0" res="-2.8098905086517334e-01" rms="3.9625874161720276e-01" purity="1.9656176865100861e-01" nType="0">
          <Node pos="l" depth="2" NCoef="0" IVar="-1" Cut="0.0000000000000000e+00" cType="1" res="-1.2117980513721704e-03" rms="4.7913703322410583e-01" purity="3.5707452893257141e-01" nType="-99"/>
          <Node pos="r" depth="2" NCoef="0" IVar="-1" Cut="0.0000000000000000e+00" cType="1" res="-2.3272351827472448e-03" rms="3.5512429475784302e-01" purity="1.4802530407905579e-01" nType="-99"/>
        </Node>
      </Node>
    </BinaryTree>
    <BinaryTree type="DecisionTree" boostWeight="1.0000000000000000e+00" itree="22">
      <Node pos="s" depth="0" NCoef="0" IVar="0" Cut="4.1253898620605469e+01" cType="0" res="-1.6676196455955505e-01" rms="4.5308989286422729e-01" purity="3.2819446921348572e-01" nType="0">
        <Node pos="l" depth="1" NCoef="0" IVar="0" Cut="5.4554836273193359e+01" cType="0" res="1.3396157324314117e-01" rms="4.5733433961868286e-01" purity="6.7789983749389648e-01" nType="0">
          <Node pos="l" depth="2" NCoef="0" IVar="-1" Cut="0.0000000000000000e+00" cType="1" res="6.6814259625971317e-03" rms="3.9556795358657837e-01" purity="7.9875671863555908e-01" nType="-99"/>
          <Node pos="r" depth="2" NCoef="0" IVar="-1" Cut="0.0000000000000000e+00" cType="1" res="-7.1131769800558686e-05" rms="4.9037948250770569e-01" purity="5.2576029300689697e-01" nType="-99"/>
        </Node>
        <Node pos="r" depth="1" NCoef="0" IVar="0" Cut="2.9579473495483398e+01" cType="0" res="-2.7995741367340088e-01" rms="3.9620971679687500e-01" purity="1.9656176865100861e-01" nType="0">
          <Node pos="l" depth="2" NCoef="0" IVar="-1" Cut="0.0000000000000000e+00" cType="1" res="-1.2062343303114176e-03" rms="4.7913703322410583e-01" purity="3.5707452893257141e-01" nType="-99"/>
          <Node pos="r" depth="2" NCoef="0" IVar="-1" Cut="0.0000000000000000e+00" cType="1" res="-2.3195263929665089e-03" rms="3.5512429475784302e-01" purity="1.4802530407905579e-01" nType="-99"/>
        </Node>
      </Node>
    </BinaryTree>
    <BinaryTree type="DecisionTree" boostWeight="1.0000000000000000e+00" itree="23">
      <Node pos="s" depth="0" NCoef="0" IVar="0" Cut="4.1253898620605469e+01" cType="0" res="-1.6651272773742676e-01" rms="4.5242071151733398e-01" purity="3.2819446921348572e-01" nType="0">
        <Node pos="l" depth="1" NCoef="0" IVar="1" Cut="2.1805186462402344e+02" cType="1" res="1.3214240968227386e-01" rms="4.5688948035240173e-01" purity="6.7789983749389648e-01" nType="0">
          <Node pos="l" depth="2" NCoef="0" IVar="-1" Cut="0.0000000000000000e+00" cType="1" res="4.5748027041554451e-03" rms="4.2579129338264465e-01" purity="7.5597703456878662e-01" nType="-99"/>
          <Node pos="r" depth="2" NCoef="0" IVar="-1" Cut="0.0000000000000000e+00" cType="1" res="-1.0109960567206144e-03" rms="4.8564362525939941e-01" purity="4.0192726254463196e-01" nType="-99"/>
        </Node>
        <Node pos="r" depth="1" NCoef="0" IVar="0" Cut="2.9579473495483398e+01" cType="0" res="-2.7892962098121643e-01" rms="3.9616096019744873e-01" purity="1.9656176865100861e-01" nType="0">
          <Node pos="l" depth="2" NCoef="0" IVar="-1" Cut="0.0000000000000000e+00" cType="1" res="-1.2006991310045123e-03" rms="4.7913703322410583e-01" purity="3.5707452893257141e-01" nType="-99"/>
          <Node pos="r" depth="2" NCoef="0" IVar="-1" Cut="0.0000000000000000e+00" cType="1" res="-2.3118660319596529e-03" rms="3.5512429475784302e-01" purity="1.4802530407905579e-01" nType="-99"/>
        </Node>
      </Node>
    </BinaryTree>
    <BinaryTree type="DecisionTree" boostWeight="1.0000000000000000e+00" itree="24">
      <Node pos="s" depth="0" NCoef="0" IVar="0" Cut="4.1253898620605469e+01" cType="0" res="-1.6621847450733185e-01" rms="4.5182442665100098e-01" purity="3.2819446921348572e-01" nType="0">
        <Node pos="l" depth="1" NCoef="0" IVar="1" Cut="2.2543270874023438e+02" cType="1" res="1.3049799203872681e-01" rms="4.5658206939697266e-01" purity="6.7789983749389648e-01" nType="0">
          <Node pos="l" depth="2" NCoef="0" IVar="-1" Cut="0.0000000000000000e+00" cType="1" res="4.3405555188655853e-03" rms="4.2846390604972839e-01" purity="7.5064802169799805e-01" nType="-99"/>
          <Node pos="r" depth="2" NCoef="0" IVar="-1" Cut="0.0000000000000000e+00" cType="1" res="-1.1378476629033685e-03" rms="4.8251801729202271e-01" purity="3.8249728083610535e-01" nType="-99"/>
        </Node>
        <Node pos="r" depth="1" NCoef="0" IVar="0" Cut="2.9579473495483398e+01" cType="0" res="-2.7790561318397522e-01" rms="3.9611244201660156e-01" purity="1.9656176865100861e-01" nType="0">
          <Node pos="l" depth="2" NCoef="0" IVar="-1" Cut="0.0000000000000000e+00" cType="1" res="-1.1951924534514546e-03" rms="4.7913703322410583e-01" purity="3.5707452893257141e-01" nType="-99"/>
          <Node pos="r" depth="2" NCoef="0" IVar="-1" Cut="0.0000000000000000e+00" cType="1" res="-2.3042538668960333e-03" rms="3.5512429475784302e-01" purity="1.4802530407905579e-01" nType="-99"/>
        </Node>
      </Node>
    </BinaryTree>
    <BinaryTree type="DecisionTree" boostWeight="1.0000000000000000e+00" itree="25">
      <Node pos="s" depth="0" NCoef="0" IVar="0" Cut="4.3675468444824219e+01" cType="0" res="-1.6591516137123108e-01" rms="4.5124477148056030e-01" purity="3.2819446921348572e-01" nType="0">
        <Node pos="l" depth="1" NCoef="0" IVar="1" Cut="2.2174227905273438e+02" cType="1" res="1.5075230598449707e-01" rms="4.4676554203033447e-01" purity="7.0488154888153076e-01" nType="0">
          <Node pos="l" depth="2" NCoef="0" IVar="-1" Cut="0.0000000000000000e+00" cType="1" res="5.2080177702009678e-03" rms="4.1536363959312439e-01" purity="7.7586072683334351e-01" nType="-99"/>
          <Node pos="r" depth="2" NCoef="0" IVar="-1" Cut="0.0000000000000000e+00" cType="1" res="-7.7415368286892772e-04" rms="4.9162483215332031e-01" purity="4.2752760648727417e-01" nType="-99"/>
        </Node>
        <Node pos="r" depth="1" NCoef="0" IVar="0" Cut="2.9576562881469727e+01" cType="0" res="-2.6928484439849854e-01" rms="4.0189024806022644e-01" purity="2.0523262023925781e-01" nType="0">
          <Node pos="l" depth="2" NCoef="0" IVar="-1" Cut="0.0000000000000000e+00" cType="1" res="-1.1291824048385024e-03" rms="4.8151418566703796e-01" purity="3.6807605624198914e-01" nType="-99"/>
          <Node pos="r" depth="2" NCoef="0" IVar="-1" Cut="0.0000000000000000e+00" cType="1" res="-2.2968421690165997e-03" rms="3.5509115457534790e-01" purity="1.4799109101295471e-01" nType="-99"/>
        </Node>
      </Node>
    </BinaryTree>
    <BinaryTree type="DecisionTree" boostWeight="1.0000000000000000e+00" itree="26">
      <Node pos="s" depth="0" NCoef="0" IVar="0" Cut="4.1253898620605469e+01" cType="0" res="-1.6564743220806122e-01" rms="4.5062637329101562e-01" purity="3.2819446921348572e-01" nType="0">
        <Node pos="l" depth="1" NCoef="0" IVar="0" Cut="5.4554836273193359e+01" cType="0" res="1.2719406187534332e-01" rms="4.5592370629310608e-01" purity="6.7789983749389648e-01" nType="0">
          <Node pos="l" depth="2" NCoef="0" IVar="-1" Cut="0.0000000000000000e+00" cType="1" res="6.4701917581260204e-03" rms="3.9493227005004883e-01" purity="7.9875671863555908e-01" nType="-99"/>
          <Node pos="r" depth="2" NCoef="0" IVar="-1" Cut="0.0000000000000000e+00" cType="1" res="-1.2664096720982343e-04" rms="4.8923975229263306e-01" purity="5.2576029300689697e-01" nType="-99"/>
        </Node>
        <Node pos="r" depth="1" NCoef="0" IVar="0" Cut="2.9579473495483398e+01" cType="0" res="-2.7587598562240601e-01" rms="3.9601346850395203e-01" purity="1.9656176865100861e-01" nType="0">
          <Node pos="l" depth="2" NCoef="0" IVar="-1" Cut="0.0000000000000000e+00" cType="1" res="-1.1845410335808992e-03" rms="4.7913703322410583e-01" purity="3.5707452893257141e-01" nType="-99"/>
          <Node pos="r" depth="2" NCoef="0" IVar="-1" Cut="0.0000000000000000e+00" cType="1" res="-2.2891710978001356e-03" rms="3.5512423515319824e-01" purity="1.4802530407905579e-01" nType="-99"/>
        </Node>
      </Node>
    </BinaryTree>
    <BinaryTree type="DecisionTree" boostWeight="1.0000000000000000e+00" itree="27">
      <Node pos="s" depth="0" NCoef="0" IVar="0" Cut="4.1253898620605469e+01" cType="0" res="-1.6538767516613007e-01" rms="4.4998997449874878e-01" purity="3.2819446921348572e-01" nType="0">
        <Node pos="l" depth="1" NCoef="0" IVar="0" Cut="5.0121315002441406e+01" cType="0" res="1.2545357644557953e-01" rms="4.5549762248992920e-01" purity="6.7789983749389648e-01" nType="0">
          <Node pos="l" depth="2" NCoef="0" IVar="-1" Cut="0.0000000000000000e+00" cType="1" res="5.2049360238015652e-03" rms="4.1160082817077637e-01" purity="7.7392953634262085e-01" nType="-99"/>
          <Node pos="r" depth="2" NCoef="0" IVar="-1" Cut="0.0000000000000000e+00" cType="1" res="-5.4469588212668896e-04" rms="4.9038374423980713e-01" purity="4.8229655623435974e-01" nType="-99"/>
        </Node>
        <Node pos="r" depth="1" NCoef="0" IVar="0" Cut="2.9579473495483398e+01" cType="0" res="-2.7486333250999451e-01" rms="3.9596569538116455e-01" purity="1.9656176865100861e-01" nType="0">
          <Node pos="l" depth="2" NCoef="0" IVar="-1" Cut="0.0000000000000000e+00" cType="1" res="-1.1791172437369823e-03" rms="4.7913703322410583e-01" purity="3.5707452893257141e-01" nType="-99"/>
          <Node pos="r" depth="2" NCoef="0" IVar="-1" Cut="0.0000000000000000e+00" cType="1" res="-2.2817000281065702e-03" rms="3.5512423515319824e-01" purity="1.4802530407905579e-01" nType="-99"/>
        </Node>
      </Node>
    </BinaryTree>
    <BinaryTree type="DecisionTree" boostWeight="1.0000000000000000e+00" itree="28">
      <Node pos="s" depth="0" NCoef="0" IVar="0" Cut="4.1253898620605469e+01" cType="0" res="-1.6509827971458435e-01" rms="4.4939953088760376e-01" purity="3.2819446921348572e-01" nType="0">
        <Node pos="l" depth="1" NCoef="0" IVar="1" Cut="2.2543270874023438e+02" cType="1" res="1.2383141368627548e-01" rms="4.5515006780624390e-01" purity="6.7789983749389648e-01" nType="0">
          <Node pos="l" depth="2" NCoef="0" IVar="-1" Cut="0.0000000000000000e+00" cType="1" res="4.1781584732234478e-03" rms="4.2771452665328979e-01" purity="7.5064802169799805e-01" nType="-99"/>
          <Node pos="r" depth="2" NCoef="0" IVar="-1" Cut="0.0000000000000000e+00" cType="1" res="-1.1576740071177483e-03" rms="4.8131620883941650e-01" purity="3.8249728083610535e-01" nType="-99"/>
        </Node>
        <Node pos="r" depth="1" NCoef="0" IVar="0" Cut="2.9579473495483398e+01" cType="0" res="-2.7385440468788147e-01" rms="3.9591819047927856e-01" purity="1.9656176865100861e-01" nType="0">
          <Node pos="l" depth="2" NCoef="0" IVar="-1" Cut="0.0000000000000000e+00" cType="1" res="-1.1737210443243384e-03" rms="4.7913706302642822e-01" purity="3.5707452893257141e-01" nType="-99"/>
          <Node pos="r" depth="2" NCoef="0" IVar="-1" Cut="0.0000000000000000e+00" cType="1" res="-2.2742743603885174e-03" rms="3.5512423515319824e-01" purity="1.4802530407905579e-01" nType="-99"/>
        </Node>
      </Node>
    </BinaryTree>
    <BinaryTree type="DecisionTree" boostWeight="1.0000000000000000e+00" itree="29">
      <Node pos="s" depth="0" NCoef="0" IVar="0" Cut="4.1253898620605469e+01" cType="0" res="-1.6478577256202698e-01" rms="4.4884932041168213e-01" purity="3.2819446921348572e-01" nType="0">
        <Node pos="l" depth="1" NCoef="0" IVar="1" Cut="2.1805186462402344e+02" cType="1" res="1.2230369448661804e-01" rms="4.5487675070762634e-01" purity="6.7789983749389648e-01" nType="0">
          <Node pos="l" depth="2" NCoef="0" IVar="-1" Cut="0.0000000000000000e+00" cType="1" res="4.3182820081710815e-03" rms="4.2507261037826538e-01" purity="7.5597703456878662e-01" nType="-99"/>
          <Node pos="r" depth="2" NCoef="0" IVar="-1" Cut="0.0000000000000000e+00" cType="1" res="-1.0279084090143442e-03" rms="4.8425441980361938e-01" purity="4.0192726254463196e-01" nType="-99"/>
        </Node>
        <Node pos="r" depth="1" NCoef="0" IVar="0" Cut="2.9579473495483398e+01" cType="0" res="-2.7284920215606689e-01" rms="3.9587092399597168e-01" purity="1.9656176865100861e-01" nType="0">
          <Node pos="l" depth="2" NCoef="0" IVar="-1" Cut="0.0000000000000000e+00" cType="1" res="-1.1683524353429675e-03" rms="4.7913706302642822e-01" purity="3.5707452893257141e-01" nType="-99"/>
          <Node pos="r" depth="2" NCoef="0" IVar="-1" Cut="0.0000000000000000e+00" cType="1" res="-2.2668943274766207e-03" rms="3.5512423515319824e-01" purity="1.4802530407905579e-01" nType="-99"/>
        </Node>
      </Node>
    </BinaryTree>
    <BinaryTree type="DecisionTree" boostWeight="1.0000000000000000e+00" itree="30">
      <Node pos="s" depth="0" NCoef="0" IVar="0" Cut="4.3675468444824219e+01" cType="0" res="-1.6447736322879791e-01" rms="4.4829866290092468e-01" purity="3.2819446921348572e-01" nType="0">
        <Node pos="l" depth="1" NCoef="0" IVar="0" Cut="5.6905460357666016e+01" cType="0" res="1.4193682372570038e-01" rms="4.4526609778404236e-01" purity="7.0488154888153076e-01" nType="0">
          <Node pos="l" depth="2" NCoef="0" IVar="-1" Cut="0.0000000000000000e+00" cType="1" res="6.9804396480321884e-03" rms="3.8484787940979004e-01" purity="8.1132531166076660e-01" nType="-99"/>
          <Node pos="r" depth="2" NCoef="0" IVar="-1" Cut="0.0000000000000000e+00" cType="1" res="2.3094525386113673e-04" rms="4.8391574621200562e-01" purity="5.6933063268661499e-01" nType="-99"/>
        </Node>
        <Node pos="r" depth="1" NCoef="0" IVar="0" Cut="2.9576562881469727e+01" cType="0" res="-2.6450008153915405e-01" rms="4.0150135755538940e-01" purity="2.0523262023925781e-01" nType="0">
          <Node pos="l" depth="2" NCoef="0" IVar="-1" Cut="0.0000000000000000e+00" cType="1" res="-1.1083879508078098e-03" rms="4.8133027553558350e-01" purity="3.6807605624198914e-01" nType="-99"/>
          <Node pos="r" depth="2" NCoef="0" IVar="-1" Cut="0.0000000000000000e+00" cType="1" res="-2.2597135975956917e-03" rms="3.5509112477302551e-01" purity="1.4799109101295471e-01" nType="-99"/>
        </Node>
      </Node>
    </BinaryTree>
    <BinaryTree type="DecisionTree" boostWeight="1.0000000000000000e+00" itree="31">
      <Node pos="s" depth="0" NCoef="0" IVar="0" Cut="4.1253898620605469e+01" cType="0" res="-1.6422353684902191e-01" rms="4.4767215847969055e-01" purity="3.2819446921348572e-01" nType="0">
        <Node pos="l" depth="1" NCoef="0" IVar="1" Cut="2.1805186462402344e+02" cType="1" res="1.1906504631042480e-01" rms="4.5413669943809509e-01" purity="6.7789983749389648e-01" nType="0">
          <Node pos="l" depth="2" NCoef="0" IVar="-1" Cut="0.0000000000000000e+00" cType="1" res="4.2368974536657333e-03" rms="4.2469301819801331e-01" purity="7.5597703456878662e-01" nType="-99"/>
          <Node pos="r" depth="2" NCoef="0" IVar="-1" Cut="0.0000000000000000e+00" cType="1" res="-1.0388772934675217e-03" rms="4.8356160521507263e-01" purity="4.0192726254463196e-01" nType="-99"/>
        </Node>
        <Node pos="r" depth="1" NCoef="0" IVar="0" Cut="2.9579473495483398e+01" cType="0" res="-2.7085629105567932e-01" rms="3.9577469229698181e-01" purity="1.9656176865100861e-01" nType="0">
          <Node pos="l" depth="2" NCoef="0" IVar="-1" Cut="0.0000000000000000e+00" cType="1" res="-1.1579465353861451e-03" rms="4.7913703322410583e-01" purity="3.5707452893257141e-01" nType="-99"/>
          <Node pos="r" depth="2" NCoef="0" IVar="-1" Cut="0.0000000000000000e+00" cType="1" res="-2.2522679064422846e-03" rms="3.5512417554855347e-01" purity="1.4802530407905579e-01" nType="-99"/>
        </Node>
      </Node>
    </BinaryTree>
    <BinaryTree type="DecisionTree" boostWeight="1.0000000000000000e+00" itree="32">
      <Node pos="s" depth="0" NCoef="0" IVar="0" Cut="4.3675468444824219e+01" cType="0" res="-1.6391058266162872e-01" rms="4.4713583588600159e-01" purity="3.2819446921348572e-01" nType="0">
        <Node pos="l" depth="1" NCoef="0" IVar="1" Cut="2.2543270874023438e+02" cType="1" res="1.3846896588802338e-01" rms="4.4461035728454590e-01" purity="7.0488154888153076e-01" nType="0">
          <Node pos="l" depth="2" NCoef="0" IVar="-1" Cut="0.0000000000000000e+00" cType="1" res="4.7755781561136246e-03" rms="4.1603553295135498e-01" purity="7.7296793460845947e-01" nType="-99"/>
          <Node pos="r" depth="2" NCoef="0" IVar="-1" Cut="0.0000000000000000e+00" cType="1" res="-8.8365026749670506e-04" rms="4.8857784271240234e-01" purity="4.1826933622360229e-01" nType="-99"/>
        </Node>
        <Node pos="r" depth="1" NCoef="0" IVar="0" Cut="2.9576562881469727e+01" cType="0" res="-2.6261624693870544e-01" rms="4.0134304761886597e-01" purity="2.0523262023925781e-01" nType="0">
          <Node pos="l" depth="2" NCoef="0" IVar="-1" Cut="0.0000000000000000e+00" cType="1" res="-1.1004237458109856e-03" rms="4.8124536871910095e-01" purity="3.6807605624198914e-01" nType="-99"/>
          <Node pos="r" depth="2" NCoef="0" IVar="-1" Cut="0.0000000000000000e+00" cType="1" res="-2.2451761178672314e-03" rms="3.5509115457534790e-01" purity="1.4799109101295471e-01" nType="-99"/>
        </Node>
      </Node>
    </BinaryTree>
    <BinaryTree type="DecisionTree" boostWeight="1.0000000000000000e+00" itree="33">
      <Node pos="s" depth="0" NCoef="0" IVar="0" Cut="4.8518611907958984e+01" cType="0" res="-1.6362112760543823e-01" rms="4.4657689332962036e-01" purity="3.2819446921348572e-01" nType="0">
        <Node pos="l" depth="1" NCoef="0" IVar="3" Cut="8.0734717845916748e-01" cType="1" res="1.8156883120536804e-01" rms="4.2103987932205200e-01" purity="7.5478219985961914e-01" nType="0">
          <Node pos="l" depth="2" NCoef="0" IVar="-1" Cut="0.0000000000000000e+00" cType="1" res="5.9128925204277039e-03" rms="3.9624843001365662e-01" purity="7.9382938146591187e-01" nType="-99"/>
          <Node pos="r" depth="2" NCoef="0" IVar="-1" Cut="0.0000000000000000e+00" cType="1" res="-7.3245062958449125e-04" rms="4.8931357264518738e-01" purity="5.0456285476684570e-01" nType="-99"/>
        </Node>
        <Node pos="r" depth="1" NCoef="0" IVar="0" Cut="2.9483184814453125e+01" cType="0" res="-2.4890577793121338e-01" rms="4.1011232137680054e-01" purity="2.2279925644397736e-01" nType="0">
          <Node pos="l" depth="2" NCoef="0" IVar="-1" Cut="0.0000000000000000e+00" cType="1" res="-1.0266035096719861e-03" rms="4.8268872499465942e-01" purity="3.9148533344268799e-01" nType="-99"/>
          <Node pos="r" depth="2" NCoef="0" IVar="-1" Cut="0.0000000000000000e+00" cType="1" res="-2.2387995850294828e-03" rms="3.5491341352462769e-01" purity="1.4781188964843750e-01" nType="-99"/>
        </Node>
      </Node>
    </BinaryTree>
    <BinaryTree type="DecisionTree" boostWeight="1.0000000000000000e+00" itree="34">
      <Node pos="s" depth="0" NCoef="0" IVar="0" Cut="4.1253898620605469e+01" cType="0" res="-1.6336090862751007e-01" rms="4.4596937298774719e-01" purity="3.2819446921348572e-01" nType="0">
        <Node pos="l" depth="1" NCoef="0" IVar="0" Cut="5.4554836273193359e+01" cType="0" res="1.1438405513763428e-01" rms="4.5306110382080078e-01" purity="6.7789983749389648e-01" nType="0">
          <Node pos="l" depth="2" NCoef="0" IVar="-1" Cut="0.0000000000000000e+00" cType="1" res="6.0364534147083759e-03" rms="3.9387488365173340e-01" purity="7.9875671863555908e-01" nType="-99"/>
          <Node pos="r" depth="2" NCoef="0" IVar="-1" Cut="0.0000000000000000e+00" cType="1" res="-2.0929457969032228e-04" rms="4.8737391829490662e-01" purity="5.2576029300689697e-01" nType="-99"/>
        </Node>
        <Node pos="r" depth="1" NCoef="0" IVar="0" Cut="2.9579473495483398e+01" cType="0" res="-2.6790699362754822e-01" rms="3.9562830328941345e-01" purity="1.9656176865100861e-01" nType="0">
          <Node pos="l" depth="2" NCoef="0" IVar="-1" Cut="0.0000000000000000e+00" cType="1" res="-1.1429502628743649e-03" rms="4.7913703322410583e-01" purity="3.5707452893257141e-01" nType="-99"/>
          <Node pos="r" depth="2" NCoef="0" IVar="-1" Cut="0.0000000000000000e+00" cType="1" res="-2.2306723985821009e-03" rms="3.5512375831604004e-01" purity="1.4802530407905579e-01" nType="-99"/>
        </Node>
      </Node>
    </BinaryTree>
    <BinaryTree type="DecisionTree" boostWeight="1.0000000000000000e+00" itree="35">
      <Node pos="s" depth="0" NCoef="0" IVar="0" Cut="4.1253898620605469e+01" cType="0" res="-1.6308011114597321e-01" rms="4.4539752602577209e-01" purity="3.2819446921348572e-01" nType="0">
        <Node pos="l" depth="1" NCoef="0" IVar="1" Cut="2.2543270874023438e+02" cType="1" res="1.1279891431331635e-01" rms="4.5267927646636963e-01" purity="6.7789983749389648e-01" nType="0">
          <Node pos="l" depth="2" NCoef="0" IVar="-1" Cut="0.0000000000000000e+00" cType="1" res="3.9043587166815996e-03" rms="4.2647674679756165e-01" purity="7.5064802169799805e-01" nType="-99"/>
          <Node pos="r" depth="2" NCoef="0" IVar="-1" Cut="0.0000000000000000e+00" cType="1" res="-1.1803709203377366e-03" rms="4.7938889265060425e-01" purity="3.8249728083610535e-01" nType="-99"/>
        </Node>
        <Node pos="r" depth="1" NCoef="0" IVar="0" Cut="2.9579473495483398e+01" cType="0" res="-2.6692381501197815e-01" rms="3.9558255672454834e-01" purity="1.9656176865100861e-01" nType="0">
          <Node pos="l" depth="2" NCoef="0" IVar="-1" Cut="0.0000000000000000e+00" cType="1" res="-1.1377373011782765e-03" rms="4.7913703322410583e-01" purity="3.5707452893257141e-01" nType="-99"/>
          <Node pos="r" depth="2" NCoef="0" IVar="-1" Cut="0.0000000000000000e+00" cType="1" res="-2.2235543001443148e-03" rms="3.5512378811836243e-01" purity="1.4802530407905579e-01" nType="-99"/>
        </Node>
      </Node>
    </BinaryTree>
    <BinaryTree type="DecisionTree" boostWeight="1.0000000000000000e+00" itree="36">
      <Node pos="s" depth="0" NCoef="0" IVar="0" Cut="4.1253898620605469e+01" cType="0" res="-1.6275252401828766e-01" rms="4.4489601254463196e-01" purity="3.2819446921348572e-01" nType="0">
        <Node pos="l" depth="1" NCoef="0" IVar="1" Cut="2.1805186462402344e+02" cType="1" res="1.1139448732137680e-01" rms="4.5242995023727417e-01" purity="6.7789983749389648e-01" nType="0">
          <Node pos="l" depth="2" NCoef="0" IVar="-1" Cut="0.0000000000000000e+00" cType="1" res="4.0403204038739204e-03" rms="4.2391628026962280e-01" purity="7.5597703456878662e-01" nType="-99"/>
          <Node pos="r" depth="2" NCoef="0" IVar="-1" Cut="0.0000000000000000e+00" cType="1" res="-1.0568083962425590e-03" rms="4.8216763138771057e-01" purity="4.0192726254463196e-01" nType="-99"/>
        </Node>
        <Node pos="r" depth="1" NCoef="0" IVar="1" Cut="2.0402697753906250e+02" cType="1" res="-2.6594430208206177e-01" rms="3.9553698897361755e-01" purity="1.9656176865100861e-01" nType="0">
          <Node pos="l" depth="2" NCoef="0" IVar="-1" Cut="0.0000000000000000e+00" cType="1" res="-1.7083905404433608e-03" rms="4.3178182840347290e-01" purity="2.5168794393539429e-01" nType="-99"/>
          <Node pos="r" depth="2" NCoef="0" IVar="-1" Cut="0.0000000000000000e+00" cType="1" res="-2.5328714400529861e-03" rms="2.7260559797286987e-01" purity="8.1512413918972015e-02" nType="-99"/>
        </Node>
      </Node>
    </BinaryTree>
    <BinaryTree type="DecisionTree" boostWeight="1.0000000000000000e+00" itree="37">
      <Node pos="s" depth="0" NCoef="0" IVar="0" Cut="4.8518611907958984e+01" cType="0" res="-1.6242481768131256e-01" rms="4.4439765810966492e-01" purity="3.2819446921348572e-01" nType="0">
        <Node pos="l" depth="1" NCoef="0" IVar="3" Cut="8.0734717845916748e-01" cType="1" res="1.7401480674743652e-01" rms="4.2019051313400269e-01" purity="7.5478219985961914e-01" nType="0">
          <Node pos="l" depth="2" NCoef="0" IVar="-1" Cut="0.0000000000000000e+00" cType="1" res="5.7201082818210125e-03" rms="3.9570987224578857e-01" purity="7.9382938146591187e-01" nType="-99"/>
          <Node pos="r" depth="2" NCoef="0" IVar="-1" Cut="0.0000000000000000e+00" cType="1" res="-7.8568072058260441e-04" rms="4.8857814073562622e-01" purity="5.0456285476684570e-01" nType="-99"/>
        </Node>
        <Node pos="r" depth="1" NCoef="0" IVar="0" Cut="2.9483184814453125e+01" cType="0" res="-2.4554753303527832e-01" rms="4.0961566567420959e-01" purity="2.2279925644397736e-01" nType="0">
          <Node pos="l" depth="2" NCoef="0" IVar="-1" Cut="0.0000000000000000e+00" cType="1" res="-1.0150911984965205e-03" rms="4.8228639364242554e-01" purity="3.9148533344268799e-01" nType="-99"/>
          <Node pos="r" depth="2" NCoef="0" IVar="-1" Cut="0.0000000000000000e+00" cType="1" res="-2.2111868020147085e-03" rms="3.5488125681877136e-01" purity="1.4781188964843750e-01" nType="-99"/>
        </Node>
      </Node>
    </BinaryTree>
    <BinaryTree type="DecisionTree" boostWeight="1.0000000000000000e+00" itree="38">
      <Node pos="s" depth="0" NCoef="0" IVar="0" Cut="3.6410755157470703e+01" cType="0" res="-1.6215506196022034e-01" rms="4.4382029771804810e-01" purity="3.2819446921348572e-01" nType="0">
        <Node pos="l" depth="1" NCoef="0" IVar="0" Cut="4.9856227874755859e+01" cType="0" res="6.9680966436862946e-02" rms="4.6547824144363403e-01" purity="6.2119019031524658e-01" nType="0">
          <Node pos="l" depth="2" NCoef="0" IVar="-1" Cut="0.0000000000000000e+00" cType="1" res="4.7033913433551788e-03" rms="4.1007572412490845e-01" purity="7.7354717254638672e-01" nType="-99"/>
          <Node pos="r" depth="2" NCoef="0" IVar="-1" Cut="0.0000000000000000e+00" cType="1" res="-7.7458069426938891e-04" rms="4.8763513565063477e-01" purity="4.3803754448890686e-01" nType="-99"/>
        </Node>
        <Node pos="r" depth="1" NCoef="0" IVar="1" Cut="2.0402697753906250e+02" cType="1" res="-2.8127017617225647e-01" rms="3.8086026906967163e-01" purity="1.7765611410140991e-01" nType="0">
          <Node pos="l" depth="2" NCoef="0" IVar="-1" Cut="0.0000000000000000e+00" cType="1" res="-1.8209314439445734e-03" rms="4.1776219010353088e-01" purity="2.2767299413681030e-01" nType="-99"/>
          <Node pos="r" depth="2" NCoef="0" IVar="-1" Cut="0.0000000000000000e+00" cType="1" res="-2.5444766506552696e-03" rms="2.5908294320106506e-01" purity="7.2755686938762665e-02" nType="-99"/>
        </Node>
      </Node>
    </BinaryTree>
    <BinaryTree type="DecisionTree" boostWeight="1.0000000000000000e+00" itree="39">
      <Node pos="s" depth="0" NCoef="0" IVar="0" Cut="3.6410755157470703e+01" cType="0" res="-1.6184288263320923e-01" rms="4.4330424070358276e-01" purity="3.2819446921348572e-01" nType="0">
        <Node pos="l" depth="1" NCoef="0" IVar="0" Cut="4.9856227874755859e+01" cType="0" res="6.8615704774856567e-02" rms="4.6511465311050415e-01" purity="6.2119019031524658e-01" nType="0">
          <Node pos="l" depth="2" NCoef="0" IVar="-1" Cut="0.0000000000000000e+00" cType="1" res="4.6527604572474957e-03" rms="4.1008433699607849e-01" purity="7.7354717254638672e-01" nType="-99"/>
          <Node pos="r" depth="2" NCoef="0" IVar="-1" Cut="0.0000000000000000e+00" cType="1" res="-7.7048508683219552e-04" rms="4.8763462901115417e-01" purity="4.3803754448890686e-01" nType="-99"/>
        </Node>
        <Node pos="r" depth="1" NCoef="0" IVar="1" Cut="2.0402697753906250e+02" cType="1" res="-2.8025028109550476e-01" rms="3.8082882761955261e-01" purity="1.7765611410140991e-01" nType="0">
          <Node pos="l" depth="2" NCoef="0" IVar="-1" Cut="0.0000000000000000e+00" cType="1" res="-1.8143763300031424e-03" rms="4.1776254773139954e-01" purity="2.2767299413681030e-01" nType="-99"/>
          <Node pos="r" depth="2" NCoef="0" IVar="-1" Cut="0.0000000000000000e+00" cType="1" res="-2.5372386444360018e-03" rms="2.5908312201499939e-01" purity="7.2755686938762665e-02" nType="-99"/>
        </Node>
      </Node>
    </BinaryTree>
    <BinaryTree type="DecisionTree" boostWeight="1.0000000000000000e+00" itree="40">
      <Node pos="s" depth="0" NCoef="0" IVar="0" Cut="3.6410755157470703e+01" cType="0" res="-1.6152827441692352e-01" rms="4.4279587268829346e-01" purity="3.2819446921348572e-01" nType="0">
        <Node pos="l" depth="1" NCoef="0" IVar="0" Cut="4.9856227874755859e+01" cType="0" res="6.7564867436885834e-02" rms="4.6475878357887268e-01" purity="6.2119019031524658e-01" nType="0">
          <Node pos="l" depth="2" NCoef="0" IVar="-1" Cut="0.0000000000000000e+00" cType="1" res="4.6028192155063152e-03" rms="4.1009312868118286e-01" purity="7.7354717254638672e-01" nType="-99"/>
          <Node pos="r" depth="2" NCoef="0" IVar="-1" Cut="0.0000000000000000e+00" cType="1" res="-7.6641194755211473e-04" rms="4.8763412237167358e-01" purity="4.3803754448890686e-01" nType="-99"/>
        </Node>
        <Node pos="r" depth="1" NCoef="0" IVar="1" Cut="2.0402697753906250e+02" cType="1" res="-2.7923414111137390e-01" rms="3.8079753518104553e-01" purity="1.7765611410140991e-01" nType="0">
          <Node pos="l" depth="2" NCoef="0" IVar="-1" Cut="0.0000000000000000e+00" cType="1" res="-1.8078546272590756e-03" rms="4.1776293516159058e-01" purity="2.2767299413681030e-01" nType="-99"/>
          <Node pos="r" depth="2" NCoef="0" IVar="-1" Cut="0.0000000000000000e+00" cType="1" res="-2.5300506968051195e-03" rms="2.5908330082893372e-01" purity="7.2755686938762665e-02" nType="-99"/>
        </Node>
      </Node>
    </BinaryTree>
    <BinaryTree type="DecisionTree" boostWeight="1.0000000000000000e+00" itree="41">
      <Node pos="s" depth="0" NCoef="0" IVar="0" Cut="3.6410755157470703e+01" cType="0" res="-1.6121128201484680e-01" rms="4.4229507446289062e-01" purity="3.2819446921348572e-01" nType="0">
        <Node pos="l" depth="1" NCoef="0" IVar="1" Cut="2.2467648315429688e+02" cType="1" res="6.6528260707855225e-02" rms="4.6441042423248291e-01" purity="6.2119019031524658e-01" nType="0">
          <Node pos="l" depth="2" NCoef="0" IVar="-1" Cut="0.0000000000000000e+00" cType="1" res="2.5683105923235416e-03" rms="4.4386890530586243e-01" purity="7.0132339000701904e-01" nType="-99"/>
          <Node pos="r" depth="2" NCoef="0" IVar="-1" Cut="0.0000000000000000e+00" cType="1" res="-1.5888497000560164e-03" rms="4.5700272917747498e-01" purity="3.2144907116889954e-01" nType="-99"/>
        </Node>
        <Node pos="r" depth="1" NCoef="0" IVar="1" Cut="2.0402697753906250e+02" cType="1" res="-2.7822166681289673e-01" rms="3.8076636195182800e-01" purity="1.7765611410140991e-01" nType="0">
          <Node pos="l" depth="2" NCoef="0" IVar="-1" Cut="0.0000000000000000e+00" cType="1" res="-1.8013661028817296e-03" rms="4.1776332259178162e-01" purity="2.2767299413681030e-01" nType="-99"/>
          <Node pos="r" depth="2" NCoef="0" IVar="-1" Cut="0.0000000000000000e+00" cType="1" res="-2.5229121092706919e-03" rms="2.5908350944519043e-01" purity="7.2755686938762665e-02" nType="-99"/>
        </Node>
      </Node>
    </BinaryTree>
    <BinaryTree type="DecisionTree" boostWeight="1.0000000000000000e+00" itree="42">
      <Node pos="s" depth="0" NCoef="0" IVar="0" Cut="3.6410755157470703e+01" cType="0" res="-1.6082166135311127e-01" rms="4.4188004732131958e-01" purity="3.2819446921348572e-01" nType="0">
        <Node pos="l" depth="1" NCoef="0" IVar="1" Cut="2.2467648315429688e+02" cType="1" res="6.5712817013263702e-02" rms="4.6418806910514832e-01" purity="6.2119019031524658e-01" nType="0">
          <Node pos="l" depth="2" NCoef="0" IVar="-1" Cut="0.0000000000000000e+00" cType="1" res="2.5453227572143078e-03" rms="4.4387504458427429e-01" purity="7.0132339000701904e-01" nType="-99"/>
          <Node pos="r" depth="2" NCoef="0" IVar="-1" Cut="0.0000000000000000e+00" cType="1" res="-1.5818917891010642e-03" rms="4.5700249075889587e-01" purity="3.2144907116889954e-01" nType="-99"/>
        </Node>
        <Node pos="r" depth="1" NCoef="0" IVar="1" Cut="2.0402697753906250e+02" cType="1" res="-2.7721288800239563e-01" rms="3.8073530793190002e-01" purity="1.7765611410140991e-01" nType="0">
          <Node pos="l" depth="2" NCoef="0" IVar="-1" Cut="0.0000000000000000e+00" cType="1" res="-1.7949100583791733e-03" rms="4.1776371002197266e-01" purity="2.2767299413681030e-01" nType="-99"/>
          <Node pos="r" depth="2" NCoef="0" IVar="-1" Cut="0.0000000000000000e+00" cType="1" res="-2.5158221833407879e-03" rms="2.5908371806144714e-01" purity="7.2755686938762665e-02" nType="-99"/>
        </Node>
      </Node>
    </BinaryTree>
    <BinaryTree type="DecisionTree" boostWeight="1.0000000000000000e+00" itree="43">
      <Node pos="s" depth="0" NCoef="0" IVar="0" Cut="3.6410755157470703e+01" cType="0" res="-1.6043151915073395e-01" rms="4.4146972894668579e-01" purity="3.2819446921348572e-01" nType="0">
        <Node pos="l" depth="1" NCoef="0" IVar="0" Cut="4.9856227874755859e+01" cType="0" res="6.4906135201454163e-02" rms="4.6396890282630920e-01" purity="6.2119019031524658e-01" nType="0">
          <Node pos="l" depth="2" NCoef="0" IVar="-1" Cut="0.0000000000000000e+00" cType="1" res="4.5159021392464638e-03" rms="4.0983113646507263e-01" purity="7.7354717254638672e-01" nType="-99"/>
          <Node pos="r" depth="2" NCoef="0" IVar="-1" Cut="0.0000000000000000e+00" cType="1" res="-7.7838648576289415e-04" rms="4.8705247044563293e-01" purity="4.3803754448890686e-01" nType="-99"/>
        </Node>
        <Node pos="r" depth="1" NCoef="0" IVar="1" Cut="2.0402697753906250e+02" cType="1" res="-2.7620783448219299e-01" rms="3.8070440292358398e-01" purity="1.7765611410140991e-01" nType="0">
          <Node pos="l" depth="2" NCoef="0" IVar="-1" Cut="0.0000000000000000e+00" cType="1" res="-1.7884867265820503e-03" rms="4.1776412725448608e-01" purity="2.2767299413681030e-01" nType="-99"/>
          <Node pos="r" depth="2" NCoef="0" IVar="-1" Cut="0.0000000000000000e+00" cType="1" res="-2.5087804533541203e-03" rms="2.5908392667770386e-01" purity="7.2755686938762665e-02" nType="-99"/>
        </Node>
      </Node>
    </BinaryTree>
    <BinaryTree type="DecisionTree" boostWeight="1.0000000000000000e+00" itree="44">
      <Node pos="s" depth="0" NCoef="0" IVar="0" Cut="3.6410755157470703e+01" cType="0" res="-1.6011179983615875e-01" rms="4.4098412990570068e-01" purity="3.2819446921348572e-01" nType="0">
        <Node pos="l" depth="1" NCoef="0" IVar="1" Cut="2.2467648315429688e+02" cType="1" res="6.3899062573909760e-02" rms="4.6362990140914917e-01" purity="6.2119019031524658e-01" nType="0">
          <Node pos="l" depth="2" NCoef="0" IVar="-1" Cut="0.0000000000000000e+00" cType="1" res="2.5035555008798838e-03" rms="4.4361245632171631e-01" purity="7.0132339000701904e-01" nType="-99"/>
          <Node pos="r" depth="2" NCoef="0" IVar="-1" Cut="0.0000000000000000e+00" cType="1" res="-1.5823723515495658e-03" rms="4.5648354291915894e-01" purity="3.2144907116889954e-01" nType="-99"/>
        </Node>
        <Node pos="r" depth="1" NCoef="0" IVar="1" Cut="2.0402697753906250e+02" cType="1" res="-2.7520641684532166e-01" rms="3.8067364692687988e-01" purity="1.7765611410140991e-01" nType="0">
          <Node pos="l" depth="2" NCoef="0" IVar="-1" Cut="0.0000000000000000e+00" cType="1" res="-1.7820956418290734e-03" rms="4.1776454448699951e-01" purity="2.2767299413681030e-01" nType="-99"/>
          <Node pos="r" depth="2" NCoef="0" IVar="-1" Cut="0.0000000000000000e+00" cType="1" res="-2.5017862208187580e-03" rms="2.5908416509628296e-01" purity="7.2755686938762665e-02" nType="-99"/>
        </Node>
      </Node>
    </BinaryTree>
    <BinaryTree type="DecisionTree" boostWeight="1.0000000000000000e+00" itree="45">
      <Node pos="s" depth="0" NCoef="0" IVar="0" Cut="3.6410755157470703e+01" cType="0" res="-1.5972048044204712e-01" rms="4.4058245420455933e-01" purity="3.2819446921348572e-01" nType="0">
        <Node pos="l" depth="1" NCoef="0" IVar="0" Cut="4.9856227874755859e+01" cType="0" res="6.3110075891017914e-02" rms="4.6341472864151001e-01" purity="6.2119019031524658e-01" nType="0">
          <Node pos="l" depth="2" NCoef="0" IVar="-1" Cut="0.0000000000000000e+00" cType="1" res="4.4494704343378544e-03" rms="4.0970909595489502e-01" purity="7.7354717254638672e-01" nType="-99"/>
          <Node pos="r" depth="2" NCoef="0" IVar="-1" Cut="0.0000000000000000e+00" cType="1" res="-7.8208814375102520e-04" rms="4.8676759004592896e-01" purity="4.3803754448890686e-01" nType="-99"/>
        </Node>
        <Node pos="r" depth="1" NCoef="0" IVar="1" Cut="2.0402697753906250e+02" cType="1" res="-2.7420866489410400e-01" rms="3.8064301013946533e-01" purity="1.7765611410140991e-01" nType="0">
          <Node pos="l" depth="2" NCoef="0" IVar="-1" Cut="0.0000000000000000e+00" cType="1" res="-1.7757362220436335e-03" rms="4.1776496171951294e-01" purity="2.2767299413681030e-01" nType="-99"/>
          <Node pos="r" depth="2" NCoef="0" IVar="-1" Cut="0.0000000000000000e+00" cType="1" res="-2.4948392529040575e-03" rms="2.5908440351486206e-01" purity="7.2755686938762665e-02" nType="-99"/>
        </Node>
      </Node>
    </BinaryTree>
    <BinaryTree type="DecisionTree" boostWeight="1.0000000000000000e+00" itree="46">
      <Node pos="s" depth="0" NCoef="0" IVar="0" Cut="3.6410755157470703e+01" cType="0" res="-1.5939839184284210e-01" rms="4.4010782241821289e-01" purity="3.2819446921348572e-01" nType="0">
        <Node pos="l" depth="1" NCoef="0" IVar="1" Cut="2.2467648315429688e+02" cType="1" res="6.2124226242303848e-02" rms="4.6308383345603943e-01" purity="6.2119019031524658e-01" nType="0">
          <Node pos="l" depth="2" NCoef="0" IVar="-1" Cut="0.0000000000000000e+00" cType="1" res="2.4626080412417650e-03" rms="4.4335725903511047e-01" purity="7.0132339000701904e-01" nType="-99"/>
          <Node pos="r" depth="2" NCoef="0" IVar="-1" Cut="0.0000000000000000e+00" cType="1" res="-1.5827263705432415e-03" rms="4.5597404241561890e-01" purity="3.2144907116889954e-01" nType="-99"/>
        </Node>
        <Node pos="r" depth="1" NCoef="0" IVar="1" Cut="2.0402697753906250e+02" cType="1" res="-2.7321457862854004e-01" rms="3.8061249256134033e-01" purity="1.7765611410140991e-01" nType="0">
          <Node pos="l" depth="2" NCoef="0" IVar="-1" Cut="0.0000000000000000e+00" cType="1" res="-1.7694085836410522e-03" rms="4.1776540875434875e-01" purity="2.2767299413681030e-01" nType="-99"/>
          <Node pos="r" depth="2" NCoef="0" IVar="-1" Cut="0.0000000000000000e+00" cType="1" res="-2.4879388511180878e-03" rms="2.5908464193344116e-01" purity="7.2755686938762665e-02" nType="-99"/>
        </Node>
      </Node>
    </BinaryTree>
    <BinaryTree type="DecisionTree" boostWeight="1.0000000000000000e+00" itree="47">
      <Node pos="s" depth="0" NCoef="0" IVar="0" Cut="3.6410755157470703e+01" cType="0" res="-1.5900598466396332e-01" rms="4.3971464037895203e-01" purity="3.2819446921348572e-01" nType="0">
        <Node pos="l" depth="1" NCoef="0" IVar="1" Cut="2.2467648315429688e+02" cType="1" res="6.1352573335170746e-02" rms="4.6287259459495544e-01" purity="6.2119019031524658e-01" nType="0">
          <Node pos="l" depth="2" NCoef="0" IVar="-1" Cut="0.0000000000000000e+00" cType="1" res="2.4406651500612497e-03" rms="4.4336396455764771e-01" purity="7.0132339000701904e-01" nType="-99"/>
          <Node pos="r" depth="2" NCoef="0" IVar="-1" Cut="0.0000000000000000e+00" cType="1" res="-1.5758102526888251e-03" rms="4.5597377419471741e-01" purity="3.2144907116889954e-01" nType="-99"/>
        </Node>
        <Node pos="r" depth="1" NCoef="0" IVar="1" Cut="2.0402697753906250e+02" cType="1" res="-2.7222409844398499e-01" rms="3.8058209419250488e-01" purity="1.7765611410140991e-01" nType="0">
          <Node pos="l" depth="2" NCoef="0" IVar="-1" Cut="0.0000000000000000e+00" cType="1" res="-1.7631121445447206e-03" rms="4.1776582598686218e-01" purity="2.2767299413681030e-01" nType="-99"/>
          <Node pos="r" depth="2" NCoef="0" IVar="-1" Cut="0.0000000000000000e+00" cType="1" res="-2.4810843169689178e-03" rms="2.5908485054969788e-01" purity="7.2755686938762665e-02" nType="-99"/>
        </Node>
      </Node>
    </BinaryTree>
    <BinaryTree type="DecisionTree" boostWeight="1.0000000000000000e+00" itree="48">
      <Node pos="s" depth="0" NCoef="0" IVar="0" Cut="4.3675468444824219e+01" cType="0" res="-1.5861316025257111e-01" rms="4.3932586908340454e-01" purity="3.2819446921348572e-01" nType="0">
        <Node pos="l" depth="1" NCoef="0" IVar="0" Cut="5.6905460357666016e+01" cType="0" res="1.1653709411621094e-01" rms="4.4052174687385559e-01" purity="7.0488154888153076e-01" nType="0">
          <Node pos="l" depth="2" NCoef="0" IVar="-1" Cut="0.0000000000000000e+00" cType="1" res="6.1578922905027866e-03" rms="3.8311311602592468e-01" purity="8.1132531166076660e-01" nType="-99"/>
          <Node pos="r" depth="2" NCoef="0" IVar="-1" Cut="0.0000000000000000e+00" cType="1" res="5.5826017160143238e-06" rms="4.7978615760803223e-01" purity="5.6933063268661499e-01" nType="-99"/>
        </Node>
        <Node pos="r" depth="1" NCoef="0" IVar="0" Cut="2.9576562881469727e+01" cType="0" res="-2.4843038618564606e-01" rms="3.9985421299934387e-01" purity="2.0523262023925781e-01" nType="0">
          <Node pos="l" depth="2" NCoef="0" IVar="-1" Cut="0.0000000000000000e+00" cType="1" res="-1.0315880645066500e-03" rms="4.7982361912727356e-01" purity="3.6807605624198914e-01" nType="-99"/>
          <Node pos="r" depth="2" NCoef="0" IVar="-1" Cut="0.0000000000000000e+00" cType="1" res="-2.1402265410870314e-03" rms="3.5478225350379944e-01" purity="1.4799109101295471e-01" nType="-99"/>
        </Node>
      </Node>
    </BinaryTree>
    <BinaryTree type="DecisionTree" boostWeight="1.0000000000000000e+00" itree="49">
      <Node pos="s" depth="0" NCoef="0" IVar="0" Cut="3.6410755157470703e+01" cType="0" res="-1.5832641720771790e-01" rms="4.3881756067276001e-01" purity="3.2819446921348572e-01" nType="0">
        <Node pos="l" depth="1" NCoef="0" IVar="1" Cut="2.2467648315429688e+02" cType="1" res="5.9541117399930954e-02" rms="4.6224793791770935e-01" purity="6.2119019031524658e-01" nType="0">
          <Node pos="l" depth="2" NCoef="0" IVar="-1" Cut="0.0000000000000000e+00" cType="1" res="2.3993439972400665e-03" rms="4.4302347302436829e-01" purity="7.0132339000701904e-01" nType="-99"/>
          <Node pos="r" depth="2" NCoef="0" IVar="-1" Cut="0.0000000000000000e+00" cType="1" res="-1.5773291233927011e-03" rms="4.5532414317131042e-01" purity="3.2144907116889954e-01" nType="-99"/>
        </Node>
        <Node pos="r" depth="1" NCoef="0" IVar="1" Cut="2.0402697753906250e+02" cType="1" res="-2.7026465535163879e-01" rms="3.8052025437355042e-01" purity="1.7765611410140991e-01" nType="0">
          <Node pos="l" depth="2" NCoef="0" IVar="-1" Cut="0.0000000000000000e+00" cType="1" res="-1.7499144887551665e-03" rms="4.1772824525833130e-01" purity="2.2767299413681030e-01" nType="-99"/>
          <Node pos="r" depth="2" NCoef="0" IVar="-1" Cut="0.0000000000000000e+00" cType="1" res="-2.4689114652574062e-03" rms="2.5907143950462341e-01" purity="7.2755686938762665e-02" nType="-99"/>
        </Node>
      </Node>
    </BinaryTree>
  </Weights>
</MethodSetup>
