<?xml version="1.0"?>
<MethodSetup Method="BDT::qcdBDT_ele">
  <GeneralInfo>
    <Info name="TMVA Release" value="4.1.2 [262402]"/>
    <Info name="ROOT Release" value="5.32/00 [335872]"/>
    <Info name="Creator" value="andres"/>
    <Info name="Date" value="Mon Dec  8 17:48:12 2014"/>
    <Info name="Host" value="Linux lxbuild170.cern.ch 2.6.18-348.4.1.el5 #1 SMP Wed Apr 17 07:11:13 CEST 2013 x86_64 x86_64 x86_64 GNU/Linux"/>
    <Info name="Dir" value="/home/andres/single_top/stpol_pdf/src/qcd_mva"/>
    <Info name="Training events" value="43310"/>
    <Info name="TrainingTime" value="2.27158499e+00"/>
    <Info name="AnalysisType" value="Classification"/>
  </GeneralInfo>
  <Options>
    <Option name="V" modified="Yes">True</Option>
    <Option name="VerbosityLevel" modified="No">Verbose</Option>
    <Option name="VarTransform" modified="No">None</Option>
    <Option name="H" modified="Yes">False</Option>
    <Option name="CreateMVAPdfs" modified="No">False</Option>
    <Option name="IgnoreNegWeightsInTraining" modified="No">False</Option>
    <Option name="NTrees" modified="Yes">50</Option>
    <Option name="RenormByClass" modified="No">False</Option>
    <Option name="BoostType" modified="Yes">Grad</Option>
    <Option name="AdaBoostR2Loss" modified="No">quadratic</Option>
    <Option name="UseBaggedGrad" modified="Yes">False</Option>
    <Option name="GradBaggingFraction" modified="No">6.000000e-01</Option>
    <Option name="Shrinkage" modified="Yes">3.900000e-01</Option>
    <Option name="AdaBoostBeta" modified="No">1.000000e+00</Option>
    <Option name="UseRandomisedTrees" modified="No">False</Option>
    <Option name="UseNvars" modified="No">2</Option>
    <Option name="UsePoissonNvars" modified="No">True</Option>
    <Option name="UseNTrainEvents" modified="No">43310</Option>
    <Option name="UseWeightedTrees" modified="No">True</Option>
    <Option name="UseYesNoLeaf" modified="No">True</Option>
    <Option name="NodePurityLimit" modified="No">5.000000e-01</Option>
    <Option name="SeparationType" modified="Yes">crossentropy</Option>
    <Option name="nEventsMin" modified="Yes">250</Option>
    <Option name="nCuts" modified="Yes">200</Option>
    <Option name="UseFisherCuts" modified="No">False</Option>
    <Option name="MinLinCorrForFisher" modified="No">8.000000e-01</Option>
    <Option name="UseExclusiveVars" modified="No">False</Option>
    <Option name="PruneStrength" modified="No">0.000000e+00</Option>
    <Option name="PruneMethod" modified="No">nopruning</Option>
    <Option name="PruneBeforeBoost" modified="No">False</Option>
    <Option name="PruningValFraction" modified="No">5.000000e-01</Option>
    <Option name="NNodesMax" modified="No">100000</Option>
    <Option name="MaxDepth" modified="Yes">2</Option>
    <Option name="DoBoostMonitor" modified="No">False</Option>
    <Option name="NegWeightTreatment" modified="No">ignorenegweights</Option>
  </Options>
  <Variables NVar="5">
    <Variable VarIndex="0" Expression="met" Label="met" Title="met" Unit="" Internal="met" Type="D" Min="3.89471531e-01" Max="4.77298645e+02"/>
    <Variable VarIndex="1" Expression="top_mass" Label="top_mass" Title="top_mass" Unit="" Internal="top_mass" Type="D" Min="9.23244629e+01" Max="1.32700122e+03"/>
    <Variable VarIndex="2" Expression="bjet_pt" Label="bjet_pt" Title="bjet_pt" Unit="" Internal="bjet_pt" Type="D" Min="4.00033836e+01" Max="4.64696350e+02"/>
    <Variable VarIndex="3" Expression="isotropy" Label="isotropy" Title="isotropy" Unit="" Internal="isotropy" Type="D" Min="1.18149735e-01" Max="9.90227818e-01"/>
    <Variable VarIndex="4" Expression="top_eta" Label="top_eta" Title="top_eta" Unit="" Internal="top_eta" Type="D" Min="-5.66709471e+00" Max="7.92865515e+00"/>
  </Variables>
  <Spectators NSpec="0"/>
  <Classes NClass="2">
    <Class Name="Background" Index="0"/>
    <Class Name="Signal" Index="1"/>
  </Classes>
  <Transformations NTransformations="0"/>
  <MVAPdfs/>
  <Weights NTrees="50" AnalysisType="1">
    <BinaryTree type="DecisionTree" boostWeight="1.0000000000000000e+00" itree="0">
      <Node pos="s" depth="0" NCoef="0" IVar="0" Cut="3.8352390289306641e+01" cType="0" res="-1.7606395483016968e-01" rms="4.6797594428062439e-01" purity="3.2393604516983032e-01" nType="0">
        <Node pos="l" depth="1" NCoef="0" IVar="0" Cut="5.8007286071777344e+01" cType="0" res="1.5321548283100128e-01" rms="4.7594645619392395e-01" purity="6.5321546792984009e-01" nType="0">
          <Node pos="l" depth="2" NCoef="0" IVar="-1" Cut="0.0000000000000000e+00" cType="1" res="8.7073540687561035e-01" rms="4.2339631915092468e-01" purity="7.6596158742904663e-01" nType="-99"/>
          <Node pos="r" depth="2" NCoef="0" IVar="-1" Cut="0.0000000000000000e+00" cType="1" res="9.8605819046497345e-02" rms="4.9680227041244507e-01" purity="5.5645805597305298e-01" nType="-99"/>
        </Node>
        <Node pos="r" depth="1" NCoef="0" IVar="0" Cut="2.9853033065795898e+01" cType="0" res="-3.2106569409370422e-01" rms="3.8329729437828064e-01" purity="1.7893432080745697e-01" nType="0">
          <Node pos="l" depth="2" NCoef="0" IVar="-1" Cut="0.0000000000000000e+00" cType="1" res="-1.7914254963397980e-01" rms="4.7708067297935486e-01" purity="3.5035368800163269e-01" nType="-99"/>
          <Node pos="r" depth="2" NCoef="0" IVar="-1" Cut="0.0000000000000000e+00" cType="1" res="-3.2513138651847839e-01" rms="3.4910312294960022e-01" purity="1.4205168187618256e-01" nType="-99"/>
        </Node>
      </Node>
    </BinaryTree>
    <BinaryTree type="DecisionTree" boostWeight="1.0000000000000000e+00" itree="1">
      <Node pos="s" depth="0" NCoef="0" IVar="0" Cut="2.8861661911010742e+01" cType="0" res="-1.3305750489234924e-01" rms="4.1275402903556824e-01" purity="3.2393604516983032e-01" nType="0">
        <Node pos="l" depth="1" NCoef="0" IVar="3" Cut="4.6524548530578613e-01" cType="1" res="-4.7429274767637253e-02" rms="4.6716406941413879e-01" purity="5.4831957817077637e-01" nType="0">
          <Node pos="l" depth="2" NCoef="0" IVar="-1" Cut="0.0000000000000000e+00" cType="1" res="3.9343553781509399e-01" rms="4.2374265193939209e-01" purity="7.4083793163299561e-01" nType="-99"/>
          <Node pos="r" depth="2" NCoef="0" IVar="-1" Cut="0.0000000000000000e+00" cType="1" res="-1.5864573419094086e-01" rms="4.6820679306983948e-01" purity="4.9653524160385132e-01" nType="-99"/>
        </Node>
        <Node pos="r" depth="1" NCoef="0" IVar="3" Cut="7.1910697221755981e-01" cType="1" res="-2.0344783365726471e-01" rms="3.4644931554794312e-01" purity="1.3948248326778412e-01" nType="0">
          <Node pos="l" depth="2" NCoef="0" IVar="-1" Cut="0.0000000000000000e+00" cType="1" res="-1.6682741045951843e-01" rms="3.8892152905464172e-01" purity="1.8577072024345398e-01" nType="-99"/>
          <Node pos="r" depth="2" NCoef="0" IVar="-1" Cut="0.0000000000000000e+00" cType="1" res="-2.4453435838222504e-01" rms="2.7732074260711670e-01" purity="8.3955280482769012e-02" nType="-99"/>
        </Node>
      </Node>
    </BinaryTree>
    <BinaryTree type="DecisionTree" boostWeight="1.0000000000000000e+00" itree="2">
      <Node pos="s" depth="0" NCoef="0" IVar="1" Cut="1.3532315063476562e+02" cType="0" res="-7.6919175684452057e-02" rms="4.0300551056861877e-01" purity="3.2393604516983032e-01" nType="0">
        <Node pos="l" depth="1" NCoef="0" IVar="1" Cut="2.0647514343261719e+02" cType="1" res="-5.3464379161596298e-02" rms="4.1414123773574829e-01" purity="3.5918277502059937e-01" nType="0">
          <Node pos="l" depth="2" NCoef="0" IVar="-1" Cut="0.0000000000000000e+00" cType="1" res="-2.3578010499477386e-02" rms="4.2413061857223511e-01" purity="4.0245980024337769e-01" nType="-99"/>
          <Node pos="r" depth="2" NCoef="0" IVar="-1" Cut="0.0000000000000000e+00" cType="1" res="-2.1172919869422913e-01" rms="3.5921221971511841e-01" purity="2.3165729641914368e-01" nType="-99"/>
        </Node>
        <Node pos="r" depth="1" NCoef="0" IVar="0" Cut="5.4653137207031250e+01" cType="0" res="-2.0851619541645050e-01" rms="3.0158698558807373e-01" purity="1.2617847323417664e-01" nType="0">
          <Node pos="l" depth="2" NCoef="0" IVar="-1" Cut="0.0000000000000000e+00" cType="1" res="-5.7188439369201660e-01" rms="4.6510043740272522e-01" purity="4.0457341074943542e-01" nType="-99"/>
          <Node pos="r" depth="2" NCoef="0" IVar="-1" Cut="0.0000000000000000e+00" cType="1" res="-2.1395413577556610e-01" rms="2.7695909142494202e-01" purity="9.8064810037612915e-02" nType="-99"/>
        </Node>
      </Node>
    </BinaryTree>
    <BinaryTree type="DecisionTree" boostWeight="1.0000000000000000e+00" itree="3">
      <Node pos="s" depth="0" NCoef="0" IVar="0" Cut="2.4116296768188477e+01" cType="0" res="-4.0144622325897217e-02" rms="3.9679881930351257e-01" purity="3.2393604516983032e-01" nType="0">
        <Node pos="l" depth="1" NCoef="0" IVar="3" Cut="7.5159949064254761e-01" cType="1" res="7.1265827864408493e-03" rms="4.4000670313835144e-01" purity="4.8283511400222778e-01" nType="0">
          <Node pos="l" depth="2" NCoef="0" IVar="-1" Cut="0.0000000000000000e+00" cType="1" res="8.7186127901077271e-02" rms="4.5415258407592773e-01" purity="5.5476438999176025e-01" nType="-99"/>
          <Node pos="r" depth="2" NCoef="0" IVar="-1" Cut="0.0000000000000000e+00" cType="1" res="-1.1342596262693405e-01" rms="3.8596969842910767e-01" purity="2.9026520252227783e-01" nType="-99"/>
        </Node>
        <Node pos="r" depth="1" NCoef="0" IVar="2" Cut="6.4142044067382812e+01" cType="0" res="-9.9447302520275116e-02" rms="3.2522299885749817e-01" purity="1.2459400296211243e-01" nType="0">
          <Node pos="l" depth="2" NCoef="0" IVar="-1" Cut="0.0000000000000000e+00" cType="1" res="-8.5167206823825836e-02" rms="3.6077660322189331e-01" purity="1.6060218214988708e-01" nType="-99"/>
          <Node pos="r" depth="2" NCoef="0" IVar="-1" Cut="0.0000000000000000e+00" cType="1" res="-1.6673593223094940e-01" rms="2.8416478633880615e-01" purity="9.1253183782100677e-02" nType="-99"/>
        </Node>
      </Node>
    </BinaryTree>
    <BinaryTree type="DecisionTree" boostWeight="1.0000000000000000e+00" itree="4">
      <Node pos="s" depth="0" NCoef="0" IVar="2" Cut="5.6906585693359375e+01" cType="0" res="-2.9250187799334526e-02" rms="3.9173930883407593e-01" purity="3.2393604516983032e-01" nType="0">
        <Node pos="l" depth="1" NCoef="0" IVar="1" Cut="1.8672033691406250e+02" cType="1" res="-1.3650032924488187e-03" rms="4.0709772706031799e-01" purity="3.5706824064254761e-01" nType="0">
          <Node pos="l" depth="2" NCoef="0" IVar="-1" Cut="0.0000000000000000e+00" cType="1" res="1.0216646641492844e-01" rms="4.2076334357261658e-01" purity="4.2141738533973694e-01" nType="-99"/>
          <Node pos="r" depth="2" NCoef="0" IVar="-1" Cut="0.0000000000000000e+00" cType="1" res="-1.0544510185718536e-01" rms="3.8044521212577820e-01" purity="2.8019341826438904e-01" nType="-99"/>
        </Node>
        <Node pos="r" depth="1" NCoef="0" IVar="0" Cut="9.0577316284179688e+01" cType="0" res="-7.7536977827548981e-02" rms="3.5851982235908508e-01" purity="2.6656338572502136e-01" nType="0">
          <Node pos="l" depth="2" NCoef="0" IVar="-1" Cut="0.0000000000000000e+00" cType="1" res="4.6171001434326172e+01" rms="8.0588370561599731e-02" purity="1.0000000000000000e+00" nType="-99"/>
          <Node pos="r" depth="2" NCoef="0" IVar="-1" Cut="0.0000000000000000e+00" cType="1" res="-1.3282485306262970e-01" rms="3.6035448312759399e-01" purity="2.4430961906909943e-01" nType="-99"/>
        </Node>
      </Node>
    </BinaryTree>
    <BinaryTree type="DecisionTree" boostWeight="1.0000000000000000e+00" itree="5">
      <Node pos="s" depth="0" NCoef="0" IVar="3" Cut="8.3837342262268066e-01" cType="1" res="-1.8882874399423599e-02" rms="3.8624924421310425e-01" purity="3.2393604516983032e-01" nType="0">
        <Node pos="l" depth="1" NCoef="0" IVar="2" Cut="6.7855857849121094e+01" cType="0" res="-3.5262028686702251e-03" rms="4.0120065212249756e-01" purity="3.6211627721786499e-01" nType="0">
          <Node pos="l" depth="2" NCoef="0" IVar="-1" Cut="0.0000000000000000e+00" cType="1" res="9.0459033846855164e-02" rms="4.3424189090728760e-01" purity="4.3856766819953918e-01" nType="-99"/>
          <Node pos="r" depth="2" NCoef="0" IVar="-1" Cut="0.0000000000000000e+00" cType="1" res="-6.7123718559741974e-02" rms="3.7189736962318420e-01" purity="3.0728289484977722e-01" nType="-99"/>
        </Node>
        <Node pos="r" depth="1" NCoef="0" IVar="0" Cut="6.4761779785156250e+01" cType="0" res="-9.9314458668231964e-02" rms="2.8252387046813965e-01" purity="1.2396468967199326e-01" nType="0">
          <Node pos="l" depth="2" NCoef="0" IVar="-1" Cut="0.0000000000000000e+00" cType="1" res="5.2112697601318359e+01" rms="1.3364435732364655e-01" purity="1.0000000000000000e+00" nType="-99"/>
          <Node pos="r" depth="2" NCoef="0" IVar="-1" Cut="0.0000000000000000e+00" cType="1" res="-1.6098986566066742e-01" rms="2.7859449386596680e-01" purity="9.2754952609539032e-02" nType="-99"/>
        </Node>
      </Node>
    </BinaryTree>
    <BinaryTree type="DecisionTree" boostWeight="1.0000000000000000e+00" itree="6">
      <Node pos="s" depth="0" NCoef="0" IVar="1" Cut="2.2132054138183594e+02" cType="1" res="-1.4463932253420353e-02" rms="3.8204726576805115e-01" purity="3.2393604516983032e-01" nType="0">
        <Node pos="l" depth="1" NCoef="0" IVar="0" Cut="3.1234342575073242e+01" cType="0" res="-2.5385499466210604e-03" rms="3.8479962944984436e-01" purity="3.4251445531845093e-01" nType="0">
          <Node pos="l" depth="2" NCoef="0" IVar="-1" Cut="0.0000000000000000e+00" cType="1" res="1.1619243025779724e-01" rms="4.2821365594863892e-01" purity="6.1606127023696899e-01" nType="-99"/>
          <Node pos="r" depth="2" NCoef="0" IVar="-1" Cut="0.0000000000000000e+00" cType="1" res="-5.5810075253248215e-02" rms="3.4907937049865723e-01" purity="1.5886083245277405e-01" nType="-99"/>
        </Node>
        <Node pos="r" depth="1" NCoef="0" IVar="3" Cut="6.2228125333786011e-01" cType="1" res="-8.1074967980384827e-02" rms="3.5908150672912598e-01" purity="2.2016359865665436e-01" nType="0">
          <Node pos="l" depth="2" NCoef="0" IVar="-1" Cut="0.0000000000000000e+00" cType="1" res="-2.3280051350593567e-01" rms="3.9593198895454407e-01" purity="2.3952060937881470e-01" nType="-99"/>
          <Node pos="r" depth="2" NCoef="0" IVar="-1" Cut="0.0000000000000000e+00" cType="1" res="-3.1398724764585495e-02" rms="3.1203231215476990e-01" purity="2.0488131046295166e-01" nType="-99"/>
        </Node>
      </Node>
    </BinaryTree>
    <BinaryTree type="DecisionTree" boostWeight="1.0000000000000000e+00" itree="7">
      <Node pos="s" depth="0" NCoef="0" IVar="0" Cut="6.9197265625000000e+01" cType="0" res="-1.4626144431531429e-02" rms="3.7769460678100586e-01" purity="3.2393604516983032e-01" nType="0">
        <Node pos="l" depth="1" NCoef="0" IVar="3" Cut="5.7624071836471558e-01" cType="0" res="-9.5054045319557190e-02" rms="4.0880331397056580e-01" purity="7.4851137399673462e-01" nType="0">
          <Node pos="l" depth="2" NCoef="0" IVar="-1" Cut="0.0000000000000000e+00" cType="1" res="6.1615848541259766e-01" rms="2.9132843017578125e-01" purity="9.0248012542724609e-01" nType="-99"/>
          <Node pos="r" depth="2" NCoef="0" IVar="-1" Cut="0.0000000000000000e+00" cType="1" res="-7.4526745080947876e-01" rms="4.4718003273010254e-01" purity="6.1992180347442627e-01" nType="-99"/>
        </Node>
        <Node pos="r" depth="1" NCoef="0" IVar="3" Cut="7.4292206764221191e-01" cType="1" res="-6.3719893805682659e-03" rms="3.7337678670883179e-01" purity="2.8036275506019592e-01" nType="0">
          <Node pos="l" depth="2" NCoef="0" IVar="-1" Cut="0.0000000000000000e+00" cType="1" res="3.8525886833667755e-02" rms="4.0086072683334351e-01" purity="3.5834813117980957e-01" nType="-99"/>
          <Node pos="r" depth="2" NCoef="0" IVar="-1" Cut="0.0000000000000000e+00" cType="1" res="-9.2899896204471588e-02" rms="3.1288108229637146e-01" purity="1.4098708331584930e-01" nType="-99"/>
        </Node>
      </Node>
    </BinaryTree>
    <BinaryTree type="DecisionTree" boostWeight="1.0000000000000000e+00" itree="8">
      <Node pos="s" depth="0" NCoef="0" IVar="1" Cut="1.4146582031250000e+02" cType="0" res="-6.7457561381161213e-03" rms="3.7344899773597717e-01" purity="3.2393604516983032e-01" nType="0">
        <Node pos="l" depth="1" NCoef="0" IVar="1" Cut="1.7685501098632812e+02" cType="1" res="6.9777667522430420e-03" rms="3.8717049360275269e-01" purity="3.6634513735771179e-01" nType="0">
          <Node pos="l" depth="2" NCoef="0" IVar="-1" Cut="0.0000000000000000e+00" cType="1" res="7.4494116008281708e-02" rms="3.9523655176162720e-01" purity="4.2275792360305786e-01" nType="-99"/>
          <Node pos="r" depth="2" NCoef="0" IVar="-1" Cut="0.0000000000000000e+00" cType="1" res="-3.3955384045839310e-02" rms="3.7867367267608643e-01" purity="3.1954944133758545e-01" nType="-99"/>
        </Node>
        <Node pos="r" depth="1" NCoef="0" IVar="4" Cut="-9.7695022821426392e-01" cType="0" res="-6.1520852148532867e-02" rms="3.0668443441390991e-01" purity="1.5466743707656860e-01" nType="0">
          <Node pos="l" depth="2" NCoef="0" IVar="-1" Cut="0.0000000000000000e+00" cType="1" res="-7.4157647788524628e-02" rms="3.0307996273040771e-01" purity="1.6980737447738647e-01" nType="-99"/>
          <Node pos="r" depth="2" NCoef="0" IVar="-1" Cut="0.0000000000000000e+00" cType="1" res="-2.0751163363456726e-01" rms="3.0766925215721130e-01" purity="1.1404447257518768e-01" nType="-99"/>
        </Node>
      </Node>
    </BinaryTree>
    <BinaryTree type="DecisionTree" boostWeight="1.0000000000000000e+00" itree="9">
      <Node pos="s" depth="0" NCoef="0" IVar="0" Cut="1.6998249053955078e+01" cType="0" res="-6.0229133814573288e-03" rms="3.7162974476814270e-01" purity="3.2393604516983032e-01" nType="0">
        <Node pos="l" depth="1" NCoef="0" IVar="3" Cut="8.3837342262268066e-01" cType="1" res="6.6453055478632450e-03" rms="3.9263889193534851e-01" purity="4.0113055706024170e-01" nType="0">
          <Node pos="l" depth="2" NCoef="0" IVar="-1" Cut="0.0000000000000000e+00" cType="1" res="3.2495871186256409e-02" rms="4.0698623657226562e-01" purity="4.4388872385025024e-01" nType="-99"/>
          <Node pos="r" depth="2" NCoef="0" IVar="-1" Cut="0.0000000000000000e+00" cType="1" res="-8.8856078684329987e-02" rms="2.9234862327575684e-01" purity="1.5612089633941650e-01" nType="-99"/>
        </Node>
        <Node pos="r" depth="1" NCoef="0" IVar="1" Cut="1.6450013732910156e+02" cType="0" res="-4.1293077170848846e-02" rms="3.0284306406974792e-01" purity="1.0901533067226410e-01" nType="0">
          <Node pos="l" depth="2" NCoef="0" IVar="-1" Cut="0.0000000000000000e+00" cType="1" res="-3.8928173482418060e-02" rms="3.2208120822906494e-01" purity="1.2923365831375122e-01" nType="-99"/>
          <Node pos="r" depth="2" NCoef="0" IVar="-1" Cut="0.0000000000000000e+00" cType="1" res="-1.1226106435060501e-01" rms="2.8110623359680176e-01" purity="8.9066103100776672e-02" nType="-99"/>
        </Node>
      </Node>
    </BinaryTree>
    <BinaryTree type="DecisionTree" boostWeight="1.0000000000000000e+00" itree="10">
      <Node pos="s" depth="0" NCoef="0" IVar="1" Cut="3.0117526245117188e+02" cType="1" res="-6.2287566252052784e-03" rms="3.7044984102249146e-01" purity="3.2393604516983032e-01" nType="0">
        <Node pos="l" depth="1" NCoef="0" IVar="4" Cut="2.5174114704132080e+00" cType="0" res="-2.8719275724142790e-03" rms="3.7085774540901184e-01" purity="3.2869821786880493e-01" nType="0">
          <Node pos="l" depth="2" NCoef="0" IVar="-1" Cut="0.0000000000000000e+00" cType="1" res="3.7508568167686462e-01" rms="3.6095321178436279e-01" purity="4.8947408795356750e-01" nType="-99"/>
          <Node pos="r" depth="2" NCoef="0" IVar="-1" Cut="0.0000000000000000e+00" cType="1" res="-1.2291955761611462e-02" rms="3.7053346633911133e-01" purity="3.2500132918357849e-01" nType="-99"/>
        </Node>
        <Node pos="r" depth="1" NCoef="0" IVar="2" Cut="1.5430207824707031e+02" cType="0" res="-8.6621947586536407e-02" rms="3.5108116269111633e-01" purity="2.0988589525222778e-01" nType="0">
          <Node pos="l" depth="2" NCoef="0" IVar="-1" Cut="0.0000000000000000e+00" cType="1" res="1.0004361867904663e+00" rms="3.7136861681938171e-01" purity="6.5916973352432251e-01" nType="-99"/>
          <Node pos="r" depth="2" NCoef="0" IVar="-1" Cut="0.0000000000000000e+00" cType="1" res="-1.9693101942539215e-01" rms="3.3199903368949890e-01" purity="1.5952606499195099e-01" nType="-99"/>
        </Node>
      </Node>
    </BinaryTree>
    <BinaryTree type="DecisionTree" boostWeight="1.0000000000000000e+00" itree="11">
      <Node pos="s" depth="0" NCoef="0" IVar="3" Cut="5.6937420368194580e-01" cType="1" res="-4.7863298095762730e-03" rms="3.6912032961845398e-01" purity="3.2393604516983032e-01" nType="0">
        <Node pos="l" depth="1" NCoef="0" IVar="4" Cut="2.3290443420410156e+00" cType="0" res="1.8376734107732773e-02" rms="3.9780831336975098e-01" purity="4.2942425608634949e-01" nType="0">
          <Node pos="l" depth="2" NCoef="0" IVar="-1" Cut="0.0000000000000000e+00" cType="1" res="2.3411736488342285e+00" rms="2.6924774050712585e-01" purity="7.6255202293395996e-01" nType="-99"/>
          <Node pos="r" depth="2" NCoef="0" IVar="-1" Cut="0.0000000000000000e+00" cType="1" res="2.5247331708669662e-02" rms="3.9975291490554810e-01" purity="4.1832128167152405e-01" nType="-99"/>
        </Node>
        <Node pos="r" depth="1" NCoef="0" IVar="2" Cut="7.8039863586425781e+01" cType="0" res="-1.7791055142879486e-02" rms="3.5132154822349548e-01" purity="2.6471051573753357e-01" nType="0">
          <Node pos="l" depth="2" NCoef="0" IVar="-1" Cut="0.0000000000000000e+00" cType="1" res="3.0563870444893837e-02" rms="3.6725679039955139e-01" purity="3.1031435728073120e-01" nType="-99"/>
          <Node pos="r" depth="2" NCoef="0" IVar="-1" Cut="0.0000000000000000e+00" cType="1" res="-7.7839933335781097e-02" rms="3.3867111802101135e-01" purity="2.3443233966827393e-01" nType="-99"/>
        </Node>
      </Node>
    </BinaryTree>
    <BinaryTree type="DecisionTree" boostWeight="1.0000000000000000e+00" itree="12">
      <Node pos="s" depth="0" NCoef="0" IVar="4" Cut="2.3144898414611816e+00" cType="0" res="-7.1286624297499657e-03" rms="3.6928522586822510e-01" purity="3.2393604516983032e-01" nType="0">
        <Node pos="l" depth="1" NCoef="0" IVar="0" Cut="7.8398437500000000e+01" cType="0" res="-1.1790236830711365e-01" rms="3.7889048457145691e-01" purity="3.7872698903083801e-01" nType="0">
          <Node pos="l" depth="2" NCoef="0" IVar="-1" Cut="0.0000000000000000e+00" cType="1" res="-9.3826854228973389e-01" rms="4.0396901965141296e-01" purity="4.1289642453193665e-01" nType="-99"/>
          <Node pos="r" depth="2" NCoef="0" IVar="-1" Cut="0.0000000000000000e+00" cType="1" res="-1.9535000622272491e-01" rms="3.6809781193733215e-01" purity="3.7468329071998596e-01" nType="-99"/>
        </Node>
        <Node pos="r" depth="1" NCoef="0" IVar="1" Cut="3.0117526245117188e+02" cType="1" res="-1.9908230751752853e-03" rms="3.6802542209625244e-01" purity="3.2139477133750916e-01" nType="0">
          <Node pos="l" depth="2" NCoef="0" IVar="-1" Cut="0.0000000000000000e+00" cType="1" res="1.6245234292000532e-03" rms="3.6802437901496887e-01" purity="3.2447275519371033e-01" nType="-99"/>
          <Node pos="r" depth="2" NCoef="0" IVar="-1" Cut="0.0000000000000000e+00" cType="1" res="-1.5504924952983856e-01" rms="3.5929182171821594e-01" purity="2.3349989950656891e-01" nType="-99"/>
        </Node>
      </Node>
    </BinaryTree>
    <BinaryTree type="DecisionTree" boostWeight="1.0000000000000000e+00" itree="13">
      <Node pos="s" depth="0" NCoef="0" IVar="1" Cut="4.1788598632812500e+02" cType="1" res="-3.7232146132737398e-03" rms="3.6793050169944763e-01" purity="3.2393604516983032e-01" nType="0">
        <Node pos="l" depth="1" NCoef="0" IVar="2" Cut="4.5272789001464844e+01" cType="0" res="-1.9567282870411873e-03" rms="3.6710566282272339e-01" purity="3.2485991716384888e-01" nType="0">
          <Node pos="l" depth="2" NCoef="0" IVar="-1" Cut="0.0000000000000000e+00" cType="1" res="9.1928672045469284e-03" rms="3.7202340364456177e-01" purity="3.4082269668579102e-01" nType="-99"/>
          <Node pos="r" depth="2" NCoef="0" IVar="-1" Cut="0.0000000000000000e+00" cType="1" res="-9.1598860919475555e-02" rms="3.2997494935989380e-01" purity="2.1964873373508453e-01" nType="-99"/>
        </Node>
        <Node pos="r" depth="1" NCoef="0" IVar="-1" Cut="0.0000000000000000e+00" cType="1" res="-3.6008536815643311e-01" rms="4.0466940402984619e-01" purity="2.2021800279617310e-01" nType="-99"/>
      </Node>
    </BinaryTree>
    <BinaryTree type="DecisionTree" boostWeight="1.0000000000000000e+00" itree="14">
      <Node pos="s" depth="0" NCoef="0" IVar="4" Cut="3.3290979862213135e+00" cType="1" res="-2.3917751386761665e-03" rms="3.6722725629806519e-01" purity="3.2393604516983032e-01" nType="0">
        <Node pos="l" depth="1" NCoef="0" IVar="0" Cut="3.3607025146484375e+01" cType="0" res="-9.2019955627620220e-04" rms="3.6670839786529541e-01" purity="3.2436805963516235e-01" nType="0">
          <Node pos="l" depth="2" NCoef="0" IVar="-1" Cut="0.0000000000000000e+00" cType="1" res="4.6018674969673157e-02" rms="4.0818354487419128e-01" purity="6.0602146387100220e-01" nType="-99"/>
          <Node pos="r" depth="2" NCoef="0" IVar="-1" Cut="0.0000000000000000e+00" cType="1" res="-2.3592175915837288e-02" rms="3.3955442905426025e-01" purity="1.5913610160350800e-01" nType="-99"/>
        </Node>
        <Node pos="r" depth="1" NCoef="0" IVar="-1" Cut="0.0000000000000000e+00" cType="1" res="-3.3193311095237732e-01" rms="3.8351330161094666e-01" purity="2.6686263084411621e-01" nType="-99"/>
      </Node>
    </BinaryTree>
    <BinaryTree type="DecisionTree" boostWeight="1.0000000000000000e+00" itree="15">
      <Node pos="s" depth="0" NCoef="0" IVar="0" Cut="8.8178718566894531e+01" cType="0" res="-3.7856628187000751e-03" rms="3.6645999550819397e-01" purity="3.2393604516983032e-01" nType="0">
        <Node pos="l" depth="1" NCoef="0" IVar="4" Cut="1.5221735239028931e+00" cType="1" res="-6.9707483053207397e-02" rms="3.5782957077026367e-01" purity="7.3689377307891846e-01" nType="0">
          <Node pos="l" depth="2" NCoef="0" IVar="-1" Cut="0.0000000000000000e+00" cType="1" res="-9.2684507369995117e-02" rms="3.2296633720397949e-01" purity="8.2950425148010254e-01" nType="-99"/>
          <Node pos="r" depth="2" NCoef="0" IVar="-1" Cut="0.0000000000000000e+00" cType="1" res="-5.1576495170593262e-01" rms="4.0673869848251343e-01" purity="4.2404380440711975e-01" nType="-99"/>
        </Node>
        <Node pos="r" depth="1" NCoef="0" IVar="0" Cut="8.4683631896972656e+01" cType="0" res="-9.0516055934131145e-04" rms="3.6656224727630615e-01" purity="3.0589157342910767e-01" nType="0">
          <Node pos="l" depth="2" NCoef="0" IVar="-1" Cut="0.0000000000000000e+00" cType="1" res="5.6143730163574219e+01" rms="1.8356300890445709e-01" purity="1.0000000000000000e+00" nType="-99"/>
          <Node pos="r" depth="2" NCoef="0" IVar="-1" Cut="0.0000000000000000e+00" cType="1" res="-4.2209890671074390e-03" rms="3.6701497435569763e-01" purity="3.0216681957244873e-01" nType="-99"/>
        </Node>
      </Node>
    </BinaryTree>
    <BinaryTree type="DecisionTree" boostWeight="1.0000000000000000e+00" itree="16">
      <Node pos="s" depth="0" NCoef="0" IVar="3" Cut="2.7000412344932556e-01" cType="1" res="-1.7289152601733804e-03" rms="3.6482188105583191e-01" purity="3.2393604516983032e-01" nType="0">
        <Node pos="l" depth="1" NCoef="0" IVar="2" Cut="4.9663997650146484e+01" cType="0" res="7.6916880905628204e-02" rms="3.4267580509185791e-01" purity="5.2448683977127075e-01" nType="0">
          <Node pos="l" depth="2" NCoef="0" IVar="-1" Cut="0.0000000000000000e+00" cType="1" res="1.8954017162322998e+00" rms="3.0147293210029602e-01" purity="7.8712987899780273e-01" nType="-99"/>
          <Node pos="r" depth="2" NCoef="0" IVar="-1" Cut="0.0000000000000000e+00" cType="1" res="-1.7401395738124847e-01" rms="2.9899451136589050e-01" purity="1.9230334460735321e-01" nType="-99"/>
        </Node>
        <Node pos="r" depth="1" NCoef="0" IVar="3" Cut="4.2770224809646606e-01" cType="1" res="-3.5939549561589956e-03" rms="3.6512520909309387e-01" purity="3.1918010115623474e-01" nType="0">
          <Node pos="l" depth="2" NCoef="0" IVar="-1" Cut="0.0000000000000000e+00" cType="1" res="-9.6838355064392090e-02" rms="3.7573856115341187e-01" purity="4.0127784013748169e-01" nType="-99"/>
          <Node pos="r" depth="2" NCoef="0" IVar="-1" Cut="0.0000000000000000e+00" cType="1" res="6.9905281998217106e-03" rms="3.6281770467758179e-01" purity="3.0488279461860657e-01" nType="-99"/>
        </Node>
      </Node>
    </BinaryTree>
    <BinaryTree type="DecisionTree" boostWeight="1.0000000000000000e+00" itree="17">
      <Node pos="s" depth="0" NCoef="0" IVar="3" Cut="2.3529455065727234e-01" cType="1" res="-3.8349416572600603e-03" rms="3.6439803242683411e-01" purity="3.2393604516983032e-01" nType="0">
        <Node pos="l" depth="1" NCoef="0" IVar="4" Cut="-8.7280082702636719e-01" cType="0" res="-1.9253262877464294e-01" rms="3.5192531347274780e-01" purity="3.8866898417472839e-01" nType="0">
          <Node pos="l" depth="2" NCoef="0" IVar="-1" Cut="0.0000000000000000e+00" cType="1" res="-1.2182891368865967e-01" rms="1.7089186608791351e-01" purity="4.3345615267753601e-01" nType="-99"/>
          <Node pos="r" depth="2" NCoef="0" IVar="-1" Cut="0.0000000000000000e+00" cType="1" res="-7.2016066312789917e-01" rms="4.2021128535270691e-01" purity="3.1663978099822998e-01" nType="-99"/>
        </Node>
        <Node pos="r" depth="1" NCoef="0" IVar="1" Cut="1.4146582031250000e+02" cType="0" res="-8.1223354209214449e-04" rms="3.6379876732826233e-01" purity="3.2289907336235046e-01" nType="0">
          <Node pos="l" depth="2" NCoef="0" IVar="-1" Cut="0.0000000000000000e+00" cType="1" res="1.1850512586534023e-02" rms="3.7609690427780151e-01" purity="3.6560294032096863e-01" nType="-99"/>
          <Node pos="r" depth="2" NCoef="0" IVar="-1" Cut="0.0000000000000000e+00" cType="1" res="-6.1713613569736481e-02" rms="3.0915287137031555e-01" purity="1.5390408039093018e-01" nType="-99"/>
        </Node>
      </Node>
    </BinaryTree>
    <BinaryTree type="DecisionTree" boostWeight="1.0000000000000000e+00" itree="18">
      <Node pos="s" depth="0" NCoef="0" IVar="3" Cut="2.3529455065727234e-01" cType="1" res="-2.6204742025583982e-03" rms="3.6272159218788147e-01" purity="3.2393604516983032e-01" nType="0">
        <Node pos="l" depth="1" NCoef="0" IVar="4" Cut="-3.2322421669960022e-01" cType="0" res="-1.0019946098327637e-01" rms="2.8490757942199707e-01" purity="3.8866898417472839e-01" nType="0">
          <Node pos="l" depth="2" NCoef="0" IVar="-1" Cut="0.0000000000000000e+00" cType="1" res="1.9401291012763977e-01" rms="1.7115275561809540e-01" purity="5.6768912076950073e-01" nType="-99"/>
          <Node pos="r" depth="2" NCoef="0" IVar="-1" Cut="0.0000000000000000e+00" cType="1" res="-3.0181694030761719e-01" rms="3.1374007463455200e-01" purity="2.6730531454086304e-01" nType="-99"/>
        </Node>
        <Node pos="r" depth="1" NCoef="0" IVar="3" Cut="9.0010446310043335e-01" cType="1" res="-1.0573772015050054e-03" rms="3.6361965537071228e-01" purity="3.2289907336235046e-01" nType="0">
          <Node pos="l" depth="2" NCoef="0" IVar="-1" Cut="0.0000000000000000e+00" cType="1" res="4.4926917180418968e-03" rms="3.7061050534248352e-01" purity="3.3883768320083618e-01" nType="-99"/>
          <Node pos="r" depth="2" NCoef="0" IVar="-1" Cut="0.0000000000000000e+00" cType="1" res="-1.2001561373472214e-01" rms="2.3054052889347076e-01" purity="8.4415018558502197e-02" nType="-99"/>
        </Node>
      </Node>
    </BinaryTree>
    <BinaryTree type="DecisionTree" boostWeight="1.0000000000000000e+00" itree="19">
      <Node pos="s" depth="0" NCoef="0" IVar="0" Cut="1.6998249053955078e+01" cType="0" res="-2.0227192435413599e-03" rms="3.6202201247215271e-01" purity="3.2393604516983032e-01" nType="0">
        <Node pos="l" depth="1" NCoef="0" IVar="0" Cut="8.1122207641601562e+01" cType="0" res="4.4080773368477821e-03" rms="3.8064762949943542e-01" purity="4.0113055706024170e-01" nType="0">
          <Node pos="l" depth="2" NCoef="0" IVar="-1" Cut="0.0000000000000000e+00" cType="1" res="-1.6178126633167267e-01" rms="3.3990257978439331e-01" purity="7.3514473438262939e-01" nType="-99"/>
          <Node pos="r" depth="2" NCoef="0" IVar="-1" Cut="0.0000000000000000e+00" cType="1" res="1.8048847094178200e-02" rms="3.8362923264503479e-01" purity="3.7298101186752319e-01" nType="-99"/>
        </Node>
        <Node pos="r" depth="1" NCoef="0" IVar="4" Cut="1.2164510488510132e+00" cType="1" res="-1.9926993176341057e-02" rms="3.0349975824356079e-01" purity="1.0901533067226410e-01" nType="0">
          <Node pos="l" depth="2" NCoef="0" IVar="-1" Cut="0.0000000000000000e+00" cType="1" res="-1.1880205012857914e-02" rms="3.0815377831459045e-01" purity="1.1670944839715958e-01" nType="-99"/>
          <Node pos="r" depth="2" NCoef="0" IVar="-1" Cut="0.0000000000000000e+00" cType="1" res="-1.2182952463626862e-01" rms="2.8652626276016235e-01" purity="8.8057458400726318e-02" nType="-99"/>
        </Node>
      </Node>
    </BinaryTree>
    <BinaryTree type="DecisionTree" boostWeight="1.0000000000000000e+00" itree="20">
      <Node pos="s" depth="0" NCoef="0" IVar="0" Cut="1.0004213714599609e+02" cType="0" res="-1.6196481883525848e-03" rms="3.6121085286140442e-01" purity="3.2393604516983032e-01" nType="0">
        <Node pos="l" depth="1" NCoef="0" IVar="1" Cut="1.8683035278320312e+02" cType="0" res="6.3263520598411560e-02" rms="2.9790189862251282e-01" purity="8.6934357881546021e-01" nType="0">
          <Node pos="l" depth="2" NCoef="0" IVar="-1" Cut="0.0000000000000000e+00" cType="1" res="1.6985088348388672e+01" rms="2.4478605389595032e-01" purity="8.7307918071746826e-01" nType="-99"/>
          <Node pos="r" depth="2" NCoef="0" IVar="-1" Cut="0.0000000000000000e+00" cType="1" res="-4.6770057082176208e-01" rms="3.0251154303550720e-01" purity="8.6538136005401611e-01" nType="-99"/>
        </Node>
        <Node pos="r" depth="1" NCoef="0" IVar="0" Cut="9.0116035461425781e+01" cType="0" res="-3.0166241340339184e-03" rms="3.6232459545135498e-01" purity="3.1219309568405151e-01" nType="0">
          <Node pos="l" depth="2" NCoef="0" IVar="-1" Cut="0.0000000000000000e+00" cType="1" res="-1.8615542352199554e-01" rms="3.4519255161285400e-01" purity="5.8804214000701904e-01" nType="-99"/>
          <Node pos="r" depth="2" NCoef="0" IVar="-1" Cut="0.0000000000000000e+00" cType="1" res="-3.3517226111143827e-03" rms="3.6243051290512085e-01" purity="3.0740210413932800e-01" nType="-99"/>
        </Node>
      </Node>
    </BinaryTree>
    <BinaryTree type="DecisionTree" boostWeight="1.0000000000000000e+00" itree="21">
      <Node pos="s" depth="0" NCoef="0" IVar="0" Cut="1.2376895904541016e+02" cType="0" res="-2.4529853835701942e-03" rms="3.6125960946083069e-01" purity="3.2393604516983032e-01" nType="0">
        <Node pos="l" depth="1" NCoef="0" IVar="3" Cut="6.6506695747375488e-01" cType="0" res="-1.9679094851016998e-01" rms="3.9462926983833313e-01" purity="7.1977883577346802e-01" nType="0">
          <Node pos="l" depth="2" NCoef="0" IVar="-1" Cut="0.0000000000000000e+00" cType="1" res="4.5959011077880859e+01" rms="7.9672724008560181e-02" purity="1.0000000000000000e+00" nType="-99"/>
          <Node pos="r" depth="2" NCoef="0" IVar="-1" Cut="0.0000000000000000e+00" cType="1" res="-1.2198917865753174e+00" rms="4.4529896974563599e-01" purity="4.0715935826301575e-01" nType="-99"/>
        </Node>
        <Node pos="r" depth="1" NCoef="0" IVar="4" Cut="3.3290979862213135e+00" cType="1" res="-5.2420841529965401e-04" rms="3.6038815975189209e-01" purity="3.2000738382339478e-01" nType="0">
          <Node pos="l" depth="2" NCoef="0" IVar="-1" Cut="0.0000000000000000e+00" cType="1" res="7.8602368012070656e-04" rms="3.6020252108573914e-01" purity="3.2044506072998047e-01" nType="-99"/>
          <Node pos="r" depth="2" NCoef="0" IVar="-1" Cut="0.0000000000000000e+00" cType="1" res="-2.2951447963714600e-01" rms="3.6635547876358032e-01" purity="2.6240593194961548e-01" nType="-99"/>
        </Node>
      </Node>
    </BinaryTree>
    <BinaryTree type="DecisionTree" boostWeight="1.0000000000000000e+00" itree="22">
      <Node pos="s" depth="0" NCoef="0" IVar="0" Cut="1.2376895904541016e+02" cType="0" res="-1.7098898533731699e-03" rms="3.6048713326454163e-01" purity="3.2393604516983032e-01" nType="0">
        <Node pos="l" depth="1" NCoef="0" IVar="1" Cut="2.4633406066894531e+02" cType="1" res="-1.3898661732673645e-01" rms="3.6773303151130676e-01" purity="7.1977883577346802e-01" nType="0">
          <Node pos="l" depth="2" NCoef="0" IVar="-1" Cut="0.0000000000000000e+00" cType="1" res="1.6401655972003937e-02" rms="1.4764690399169922e-01" purity="7.8836745023727417e-01" nType="-99"/>
          <Node pos="r" depth="2" NCoef="0" IVar="-1" Cut="0.0000000000000000e+00" cType="1" res="-1.4107554254684160e+15" rms="4.9265033006668091e-01" purity="5.8541464805603027e-01" nType="-99"/>
        </Node>
        <Node pos="r" depth="1" NCoef="0" IVar="0" Cut="6.5257463455200195e+00" cType="0" res="-3.4743765718303621e-04" rms="3.6015233397483826e-01" purity="3.2000738382339478e-01" nType="0">
          <Node pos="l" depth="2" NCoef="0" IVar="-1" Cut="0.0000000000000000e+00" cType="1" res="4.4492166489362717e-03" rms="3.6463013291358948e-01" purity="3.3456477522850037e-01" nType="-99"/>
          <Node pos="r" depth="2" NCoef="0" IVar="-1" Cut="0.0000000000000000e+00" cType="1" res="-8.9139692485332489e-02" rms="2.7388441562652588e-01" purity="8.1538408994674683e-02" nType="-99"/>
        </Node>
      </Node>
    </BinaryTree>
    <BinaryTree type="DecisionTree" boostWeight="1.0000000000000000e+00" itree="23">
      <Node pos="s" depth="0" NCoef="0" IVar="0" Cut="1.3325968933105469e+02" cType="0" res="1.3655689544975758e-03" rms="3.6112183332443237e-01" purity="3.2393604516983032e-01" nType="0">
        <Node pos="l" depth="1" NCoef="0" IVar="1" Cut="2.1483209228515625e+02" cType="0" res="3.0569404363632202e-01" rms="4.5754909515380859e-01" purity="1.0000000000000000e+00" nType="0">
          <Node pos="l" depth="2" NCoef="0" IVar="-1" Cut="0.0000000000000000e+00" cType="1" res="1.5222592457670656e+16" rms="4.2840719223022461e-01" purity="1.0000000000000000e+00" nType="-99"/>
          <Node pos="r" depth="2" NCoef="0" IVar="-1" Cut="0.0000000000000000e+00" cType="1" res="1.6586846923828125e+02" rms="1.2968210875988007e-01" purity="1.0000000000000000e+00" nType="-99"/>
        </Node>
        <Node pos="r" depth="1" NCoef="0" IVar="0" Cut="9.3584930419921875e+01" cType="0" res="-1.7088846652768552e-04" rms="3.5991731286048889e-01" purity="3.2052284479141235e-01" nType="0">
          <Node pos="l" depth="2" NCoef="0" IVar="-1" Cut="0.0000000000000000e+00" cType="1" res="6.3553148508071899e-01" rms="2.5856268405914307e-01" purity="8.2295316457748413e-01" nType="-99"/>
          <Node pos="r" depth="2" NCoef="0" IVar="-1" Cut="0.0000000000000000e+00" cType="1" res="-3.9563300088047981e-03" rms="3.6185115575790405e-01" purity="3.0845835804939270e-01" nType="-99"/>
        </Node>
      </Node>
    </BinaryTree>
    <BinaryTree type="DecisionTree" boostWeight="1.0000000000000000e+00" itree="24">
      <Node pos="s" depth="0" NCoef="0" IVar="1" Cut="3.0117526245117188e+02" cType="1" res="-7.5143063440918922e-04" rms="3.5897785425186157e-01" purity="3.2393604516983032e-01" nType="0">
        <Node pos="l" depth="1" NCoef="0" IVar="1" Cut="1.3803138732910156e+02" cType="0" res="1.0032908758148551e-03" rms="3.5985329747200012e-01" purity="3.2869821786880493e-01" nType="0">
          <Node pos="l" depth="2" NCoef="0" IVar="-1" Cut="0.0000000000000000e+00" cType="1" res="1.2257304973900318e-02" rms="3.7137711048126221e-01" purity="3.7066516280174255e-01" nType="-99"/>
          <Node pos="r" depth="2" NCoef="0" IVar="-1" Cut="0.0000000000000000e+00" cType="1" res="-5.2317038178443909e-02" rms="3.0074787139892578e-01" purity="1.3683141767978668e-01" nType="-99"/>
        </Node>
        <Node pos="r" depth="1" NCoef="0" IVar="4" Cut="1.6250170469284058e+00" cType="1" res="-4.2775511741638184e-02" rms="3.3459559082984924e-01" purity="2.0988589525222778e-01" nType="0">
          <Node pos="l" depth="2" NCoef="0" IVar="-1" Cut="0.0000000000000000e+00" cType="1" res="-3.4287273883819580e-03" rms="3.0875825881958008e-01" purity="2.3443132638931274e-01" nType="-99"/>
          <Node pos="r" depth="2" NCoef="0" IVar="-1" Cut="0.0000000000000000e+00" cType="1" res="-2.4992853403091431e-01" rms="3.6791425943374634e-01" purity="1.5934960544109344e-01" nType="-99"/>
        </Node>
      </Node>
    </BinaryTree>
    <BinaryTree type="DecisionTree" boostWeight="1.0000000000000000e+00" itree="25">
      <Node pos="s" depth="0" NCoef="0" IVar="4" Cut="-1.4057402610778809e+00" cType="0" res="-1.1427956633269787e-03" rms="3.5836881399154663e-01" purity="3.2393604516983032e-01" nType="0">
        <Node pos="l" depth="1" NCoef="0" IVar="4" Cut="-1.0806027650833130e+00" cType="1" res="3.3399045933037996e-03" rms="3.5759261250495911e-01" purity="3.3089518547058105e-01" nType="0">
          <Node pos="l" depth="2" NCoef="0" IVar="-1" Cut="0.0000000000000000e+00" cType="1" res="1.8617810308933258e-01" rms="3.3770516514778137e-01" purity="3.5955119132995605e-01" nType="-99"/>
          <Node pos="r" depth="2" NCoef="0" IVar="-1" Cut="0.0000000000000000e+00" cType="1" res="-3.6307917907834053e-03" rms="3.5871645808219910e-01" purity="3.2855853438377380e-01" nType="-99"/>
        </Node>
        <Node pos="r" depth="1" NCoef="0" IVar="4" Cut="-1.4482685327529907e+00" cType="1" res="-1.8900442868471146e-02" rms="3.6088043451309204e-01" purity="2.9636830091476440e-01" nType="0">
          <Node pos="l" depth="2" NCoef="0" IVar="-1" Cut="0.0000000000000000e+00" cType="1" res="-1.6780912876129150e-02" rms="3.5564368963241577e-01" purity="3.0321002006530762e-01" nType="-99"/>
          <Node pos="r" depth="2" NCoef="0" IVar="-1" Cut="0.0000000000000000e+00" cType="1" res="-2.6273241639137268e-01" rms="3.9339578151702881e-01" purity="2.0349656045436859e-01" nType="-99"/>
        </Node>
      </Node>
    </BinaryTree>
    <BinaryTree type="DecisionTree" boostWeight="1.0000000000000000e+00" itree="26">
      <Node pos="s" depth="0" NCoef="0" IVar="3" Cut="8.3403474092483521e-01" cType="1" res="-1.3662443961948156e-03" rms="3.5731440782546997e-01" purity="3.2393604516983032e-01" nType="0">
        <Node pos="l" depth="1" NCoef="0" IVar="2" Cut="1.5469004821777344e+02" cType="0" res="2.5876439176499844e-03" rms="3.7145891785621643e-01" purity="3.6413359642028809e-01" nType="0">
          <Node pos="l" depth="2" NCoef="0" IVar="-1" Cut="0.0000000000000000e+00" cType="1" res="9.5743709802627563e-01" rms="3.6499986052513123e-01" purity="7.7804392576217651e-01" nType="-99"/>
          <Node pos="r" depth="2" NCoef="0" IVar="-1" Cut="0.0000000000000000e+00" cType="1" res="2.3576449602842331e-03" rms="3.7108507752418518e-01" purity="3.6102244257926941e-01" nType="-99"/>
        </Node>
        <Node pos="r" depth="1" NCoef="0" IVar="2" Cut="8.6515388488769531e+01" cType="1" res="-2.0880071446299553e-02" rms="2.7629938721656799e-01" purity="1.2554700672626495e-01" nType="0">
          <Node pos="l" depth="2" NCoef="0" IVar="-1" Cut="0.0000000000000000e+00" cType="1" res="2.5327313691377640e-02" rms="2.7567175030708313e-01" purity="1.3547079265117645e-01" nType="-99"/>
          <Node pos="r" depth="2" NCoef="0" IVar="-1" Cut="0.0000000000000000e+00" cType="1" res="-9.9540404975414276e-02" rms="2.7439042925834656e-01" purity="1.1665243655443192e-01" nType="-99"/>
        </Node>
      </Node>
    </BinaryTree>
    <BinaryTree type="DecisionTree" boostWeight="1.0000000000000000e+00" itree="27">
      <Node pos="s" depth="0" NCoef="0" IVar="2" Cut="1.8790640258789062e+02" cType="1" res="-2.0876878406852484e-03" rms="3.5673809051513672e-01" purity="3.2393604516983032e-01" nType="0">
        <Node pos="l" depth="1" NCoef="0" IVar="2" Cut="4.0737857818603516e+01" cType="0" res="-6.3729932298883796e-04" rms="3.5694736242294312e-01" purity="3.2513999938964844e-01" nType="0">
          <Node pos="l" depth="2" NCoef="0" IVar="-1" Cut="0.0000000000000000e+00" cType="1" res="3.9687464013695717e-03" rms="3.5662141442298889e-01" purity="3.2907083630561829e-01" nType="-99"/>
          <Node pos="r" depth="2" NCoef="0" IVar="-1" Cut="0.0000000000000000e+00" cType="1" res="-2.3461499810218811e-01" rms="3.5658186674118042e-01" purity="1.5990392863750458e-01" nType="-99"/>
        </Node>
        <Node pos="r" depth="1" NCoef="0" IVar="-1" Cut="0.0000000000000000e+00" cType="1" res="-2.4479813873767853e-01" rms="3.1962805986404419e-01" purity="2.2880861163139343e-01" nType="-99"/>
      </Node>
    </BinaryTree>
    <BinaryTree type="DecisionTree" boostWeight="1.0000000000000000e+00" itree="28">
      <Node pos="s" depth="0" NCoef="0" IVar="2" Cut="8.8600090026855469e+01" cType="0" res="-1.4396322658285499e-03" rms="3.5604497790336609e-01" purity="3.2393604516983032e-01" nType="0">
        <Node pos="l" depth="1" NCoef="0" IVar="2" Cut="9.0474586486816406e+01" cType="1" res="1.2481107376515865e-02" rms="3.6416855454444885e-01" purity="3.3755734562873840e-01" nType="0">
          <Node pos="l" depth="2" NCoef="0" IVar="-1" Cut="0.0000000000000000e+00" cType="1" res="8.7351905822753906e+01" rms="2.8127142786979675e-01" purity="1.0000000000000000e+00" nType="-99"/>
          <Node pos="r" depth="2" NCoef="0" IVar="-1" Cut="0.0000000000000000e+00" cType="1" res="6.7693698219954967e-03" rms="3.6092165112495422e-01" purity="3.2095667719841003e-01" nType="-99"/>
        </Node>
        <Node pos="r" depth="1" NCoef="0" IVar="2" Cut="8.4727355957031250e+01" cType="1" res="-5.7129603810608387e-03" rms="3.5340380668640137e-01" purity="3.1975463032722473e-01" nType="0">
          <Node pos="l" depth="2" NCoef="0" IVar="-1" Cut="0.0000000000000000e+00" cType="1" res="-3.9999536238610744e-04" rms="3.5232234001159668e-01" purity="3.2224676012992859e-01" nType="-99"/>
          <Node pos="r" depth="2" NCoef="0" IVar="-1" Cut="0.0000000000000000e+00" cType="1" res="-1.4570477604866028e-01" rms="3.5892429947853088e-01" purity="2.8074523806571960e-01" nType="-99"/>
        </Node>
      </Node>
    </BinaryTree>
    <BinaryTree type="DecisionTree" boostWeight="1.0000000000000000e+00" itree="29">
      <Node pos="s" depth="0" NCoef="0" IVar="2" Cut="1.8368060302734375e+02" cType="1" res="-1.8784401472657919e-03" rms="3.5368490219116211e-01" purity="3.2393604516983032e-01" nType="0">
        <Node pos="l" depth="1" NCoef="0" IVar="2" Cut="4.0717891693115234e+01" cType="0" res="-9.2018069699406624e-04" rms="3.5468891263008118e-01" purity="3.2593011856079102e-01" nType="0">
          <Node pos="l" depth="2" NCoef="0" IVar="-1" Cut="0.0000000000000000e+00" cType="1" res="9.9240837153047323e-04" rms="3.5470792651176453e-01" purity="3.2997614145278931e-01" nType="-99"/>
          <Node pos="r" depth="2" NCoef="0" IVar="-1" Cut="0.0000000000000000e+00" cType="1" res="-1.6416618227958679e-01" rms="3.4918239712715149e-01" purity="1.5544877946376801e-01" nType="-99"/>
        </Node>
        <Node pos="r" depth="1" NCoef="0" IVar="-1" Cut="0.0000000000000000e+00" cType="1" res="-1.6531562805175781e-01" rms="2.7550086379051208e-01" purity="1.9666060805320740e-01" nType="-99"/>
      </Node>
    </BinaryTree>
    <BinaryTree type="DecisionTree" boostWeight="1.0000000000000000e+00" itree="30">
      <Node pos="s" depth="0" NCoef="0" IVar="2" Cut="4.8454986572265625e+01" cType="0" res="-1.0704429587349296e-03" rms="3.5332524776458740e-01" purity="3.2393604516983032e-01" nType="0">
        <Node pos="l" depth="1" NCoef="0" IVar="0" Cut="4.7843120574951172e+01" cType="0" res="-4.7576115466654301e-03" rms="3.6132997274398804e-01" purity="3.4330588579177856e-01" nType="0">
          <Node pos="l" depth="2" NCoef="0" IVar="-1" Cut="0.0000000000000000e+00" cType="1" res="-8.6009792983531952e-02" rms="3.7806710600852966e-01" purity="6.7712968587875366e-01" nType="-99"/>
          <Node pos="r" depth="2" NCoef="0" IVar="-1" Cut="0.0000000000000000e+00" cType="1" res="5.2161086350679398e-03" rms="3.5577094554901123e-01" purity="2.4186594784259796e-01" nType="-99"/>
        </Node>
        <Node pos="r" depth="1" NCoef="0" IVar="0" Cut="4.1319236755371094e+01" cType="0" res="1.4165068976581097e-02" rms="3.1766736507415771e-01" purity="2.4389918148517609e-01" nType="0">
          <Node pos="l" depth="2" NCoef="0" IVar="-1" Cut="0.0000000000000000e+00" cType="1" res="3.7749570608139038e-01" rms="3.7597078084945679e-01" purity="7.3140937089920044e-01" nType="-99"/>
          <Node pos="r" depth="2" NCoef="0" IVar="-1" Cut="0.0000000000000000e+00" cType="1" res="-2.2679997608065605e-02" rms="2.9605233669281006e-01" purity="1.1393865942955017e-01" nType="-99"/>
        </Node>
      </Node>
    </BinaryTree>
    <BinaryTree type="DecisionTree" boostWeight="1.0000000000000000e+00" itree="31">
      <Node pos="s" depth="0" NCoef="0" IVar="4" Cut="8.2639777660369873e-01" cType="0" res="-1.2088395887985826e-03" rms="3.5203599929809570e-01" purity="3.2393604516983032e-01" nType="0">
        <Node pos="l" depth="1" NCoef="0" IVar="0" Cut="2.6710126876831055e+01" cType="0" res="1.0699159465730190e-02" rms="3.4193745255470276e-01" purity="3.3352914452552795e-01" nType="0">
          <Node pos="l" depth="2" NCoef="0" IVar="-1" Cut="0.0000000000000000e+00" cType="1" res="1.7573069036006927e-01" rms="3.6746561527252197e-01" purity="5.9701836109161377e-01" nType="-99"/>
          <Node pos="r" depth="2" NCoef="0" IVar="-1" Cut="0.0000000000000000e+00" cType="1" res="-6.0280822217464447e-02" rms="3.1466719508171082e-01" purity="1.2240977585315704e-01" nType="-99"/>
        </Node>
        <Node pos="r" depth="1" NCoef="0" IVar="4" Cut="3.4177926182746887e-01" cType="1" res="-6.3017378561198711e-03" rms="3.5614609718322754e-01" purity="3.1983321905136108e-01" nType="0">
          <Node pos="l" depth="2" NCoef="0" IVar="-1" Cut="0.0000000000000000e+00" cType="1" res="6.6863894462585449e-03" rms="3.5674670338630676e-01" purity="3.2896134257316589e-01" nType="-99"/>
          <Node pos="r" depth="2" NCoef="0" IVar="-1" Cut="0.0000000000000000e+00" cType="1" res="-8.8794402778148651e-02" rms="3.5086715221405029e-01" purity="2.8054437041282654e-01" nType="-99"/>
        </Node>
      </Node>
    </BinaryTree>
    <BinaryTree type="DecisionTree" boostWeight="1.0000000000000000e+00" itree="32">
      <Node pos="s" depth="0" NCoef="0" IVar="4" Cut="1.5704437494277954e+00" cType="1" res="-3.8090695161372423e-03" rms="3.5050788521766663e-01" purity="3.2393604516983032e-01" nType="0">
        <Node pos="l" depth="1" NCoef="0" IVar="4" Cut="9.2230510711669922e-01" cType="0" res="1.8105418421328068e-03" rms="3.5226878523826599e-01" purity="3.2473894953727722e-01" nType="0">
          <Node pos="l" depth="2" NCoef="0" IVar="-1" Cut="0.0000000000000000e+00" cType="1" res="1.0110796988010406e-01" rms="3.3260747790336609e-01" purity="3.6354747414588928e-01" nType="-99"/>
          <Node pos="r" depth="2" NCoef="0" IVar="-1" Cut="0.0000000000000000e+00" cType="1" res="-8.7788915261626244e-03" rms="3.5501947999000549e-01" purity="3.1848821043968201e-01" nType="-99"/>
        </Node>
        <Node pos="r" depth="1" NCoef="0" IVar="4" Cut="1.6655880212783813e+00" cType="0" res="-3.3788315951824188e-02" rms="3.3939155936241150e-01" purity="3.1965270638465881e-01" nType="0">
          <Node pos="l" depth="2" NCoef="0" IVar="-1" Cut="0.0000000000000000e+00" cType="1" res="-5.5980384349822998e-02" rms="3.3092841506004333e-01" purity="3.2466921210289001e-01" nType="-99"/>
          <Node pos="r" depth="2" NCoef="0" IVar="-1" Cut="0.0000000000000000e+00" cType="1" res="-1.7409287393093109e-01" rms="3.8744115829467773e-01" purity="2.8345888853073120e-01" nType="-99"/>
        </Node>
      </Node>
    </BinaryTree>
    <BinaryTree type="DecisionTree" boostWeight="1.0000000000000000e+00" itree="33">
      <Node pos="s" depth="0" NCoef="0" IVar="4" Cut="1.1646004915237427e+00" cType="1" res="-2.2031667176634073e-03" rms="3.4966975450515747e-01" purity="3.2393604516983032e-01" nType="0">
        <Node pos="l" depth="1" NCoef="0" IVar="4" Cut="9.2652970552444458e-01" cType="0" res="3.3658992033451796e-03" rms="3.5456588864326477e-01" purity="3.2629641890525818e-01" nType="0">
          <Node pos="l" depth="2" NCoef="0" IVar="-1" Cut="0.0000000000000000e+00" cType="1" res="4.1173735260963440e-01" rms="3.2586359977722168e-01" purity="4.9420329928398132e-01" nType="-99"/>
          <Node pos="r" depth="2" NCoef="0" IVar="-1" Cut="0.0000000000000000e+00" cType="1" res="-3.2161085400730371e-03" rms="3.5507312417030334e-01" purity="3.1873691082000732e-01" nType="-99"/>
        </Node>
        <Node pos="r" depth="1" NCoef="0" IVar="3" Cut="4.7314363718032837e-01" cType="1" res="-1.9670387730002403e-02" rms="3.3324459195137024e-01" purity="3.1653282046318054e-01" nType="0">
          <Node pos="l" depth="2" NCoef="0" IVar="-1" Cut="0.0000000000000000e+00" cType="1" res="1.8500545620918274e-01" rms="3.0658462643623352e-01" purity="5.6629103422164917e-01" nType="-99"/>
          <Node pos="r" depth="2" NCoef="0" IVar="-1" Cut="0.0000000000000000e+00" cType="1" res="-7.2088956832885742e-02" rms="3.3726656436920166e-01" purity="2.6027071475982666e-01" nType="-99"/>
        </Node>
      </Node>
    </BinaryTree>
    <BinaryTree type="DecisionTree" boostWeight="1.0000000000000000e+00" itree="34">
      <Node pos="s" depth="0" NCoef="0" IVar="3" Cut="4.2185851931571960e-01" cType="1" res="-3.1187653075903654e-03" rms="3.4815013408660889e-01" purity="3.2393604516983032e-01" nType="0">
        <Node pos="l" depth="1" NCoef="0" IVar="3" Cut="4.1732293367385864e-01" cType="1" res="-2.6252642273902893e-02" rms="3.4270682930946350e-01" purity="4.1901490092277527e-01" nType="0">
          <Node pos="l" depth="2" NCoef="0" IVar="-1" Cut="0.0000000000000000e+00" cType="1" res="-3.9928704500198364e-02" rms="3.3301439881324768e-01" purity="4.2914777994155884e-01" nType="-99"/>
          <Node pos="r" depth="2" NCoef="0" IVar="-1" Cut="0.0000000000000000e+00" cType="1" res="-4.4505766034126282e-01" rms="4.3559083342552185e-01" purity="2.5163948535919189e-01" nType="-99"/>
        </Node>
        <Node pos="r" depth="1" NCoef="0" IVar="3" Cut="4.5862028002738953e-01" cType="1" res="1.3256856473162770e-03" rms="3.4901061654090881e-01" purity="3.0566963553428650e-01" nType="0">
          <Node pos="l" depth="2" NCoef="0" IVar="-1" Cut="0.0000000000000000e+00" cType="1" res="5.3574460744857788e-01" rms="3.0380579829216003e-01" purity="6.3379633426666260e-01" nType="-99"/>
          <Node pos="r" depth="2" NCoef="0" IVar="-1" Cut="0.0000000000000000e+00" cType="1" res="-6.9965091533958912e-03" rms="3.4981927275657654e-01" purity="2.9346585273742676e-01" nType="-99"/>
        </Node>
      </Node>
    </BinaryTree>
    <BinaryTree type="DecisionTree" boostWeight="1.0000000000000000e+00" itree="35">
      <Node pos="s" depth="0" NCoef="0" IVar="3" Cut="6.4747077226638794e-01" cType="1" res="-3.2156531233340502e-03" rms="3.4651747345924377e-01" purity="3.2393604516983032e-01" nType="0">
        <Node pos="l" depth="1" NCoef="0" IVar="3" Cut="6.3956433534622192e-01" cType="1" res="-1.2871170416474342e-02" rms="3.7275677919387817e-01" purity="4.0578061342239380e-01" nType="0">
          <Node pos="l" depth="2" NCoef="0" IVar="-1" Cut="0.0000000000000000e+00" cType="1" res="-1.8652964383363724e-02" rms="3.7088075280189514e-01" purity="4.0985968708992004e-01" nType="-99"/>
          <Node pos="r" depth="2" NCoef="0" IVar="-1" Cut="0.0000000000000000e+00" cType="1" res="-1.9967600703239441e-01" rms="4.0089911222457886e-01" purity="2.9151672124862671e-01" nType="-99"/>
        </Node>
        <Node pos="r" depth="1" NCoef="0" IVar="3" Cut="6.7135632038116455e-01" cType="1" res="6.7324317060410976e-03" rms="3.1691363453865051e-01" purity="2.3961152136325836e-01" nType="0">
          <Node pos="l" depth="2" NCoef="0" IVar="-1" Cut="0.0000000000000000e+00" cType="1" res="5.8015501499176025e-01" rms="3.4931117296218872e-01" purity="5.4825562238693237e-01" nType="-99"/>
          <Node pos="r" depth="2" NCoef="0" IVar="-1" Cut="0.0000000000000000e+00" cType="1" res="-4.3390286155045033e-03" rms="3.1285670399665833e-01" purity="2.2140771150588989e-01" nType="-99"/>
        </Node>
      </Node>
    </BinaryTree>
    <BinaryTree type="DecisionTree" boostWeight="1.0000000000000000e+00" itree="36">
      <Node pos="s" depth="0" NCoef="0" IVar="4" Cut="-5.2929345518350601e-02" cType="1" res="-3.5557667724788189e-03" rms="3.4469491243362427e-01" purity="3.2393604516983032e-01" nType="0">
        <Node pos="l" depth="1" NCoef="0" IVar="1" Cut="1.7954830932617188e+02" cType="0" res="5.9969746507704258e-03" rms="3.5031414031982422e-01" purity="3.2784536480903625e-01" nType="0">
          <Node pos="l" depth="2" NCoef="0" IVar="-1" Cut="0.0000000000000000e+00" cType="1" res="1.1353253573179245e-01" rms="3.3823660016059875e-01" purity="3.6955577135086060e-01" nType="-99"/>
          <Node pos="r" depth="2" NCoef="0" IVar="-1" Cut="0.0000000000000000e+00" cType="1" res="-3.3079262822866440e-02" rms="3.5501703619956970e-01" purity="3.0530378222465515e-01" nType="-99"/>
        </Node>
        <Node pos="r" depth="1" NCoef="0" IVar="1" Cut="1.6421937561035156e+02" cType="1" res="-1.2350755743682384e-02" rms="3.3920139074325562e-01" purity="3.2033684849739075e-01" nType="0">
          <Node pos="l" depth="2" NCoef="0" IVar="-1" Cut="0.0000000000000000e+00" cType="1" res="7.5828306376934052e-02" rms="3.2741895318031311e-01" purity="3.2242250442504883e-01" nType="-99"/>
          <Node pos="r" depth="2" NCoef="0" IVar="-1" Cut="0.0000000000000000e+00" cType="1" res="-7.7230095863342285e-02" rms="3.4373739361763000e-01" purity="3.1912821531295776e-01" nType="-99"/>
        </Node>
      </Node>
    </BinaryTree>
    <BinaryTree type="DecisionTree" boostWeight="1.0000000000000000e+00" itree="37">
      <Node pos="s" depth="0" NCoef="0" IVar="4" Cut="-1.8792240619659424e+00" cType="0" res="-2.8274378273636103e-03" rms="3.4268480539321899e-01" purity="3.2393604516983032e-01" nType="0">
        <Node pos="l" depth="1" NCoef="0" IVar="4" Cut="-1.7807823419570923e+00" cType="1" res="2.5791724328882992e-04" rms="3.4384521842002869e-01" purity="3.3161047101020813e-01" nType="0">
          <Node pos="l" depth="2" NCoef="0" IVar="-1" Cut="0.0000000000000000e+00" cType="1" res="1.3234325647354126e+00" rms="3.6697468161582947e-01" purity="7.7221035957336426e-01" nType="-99"/>
          <Node pos="r" depth="2" NCoef="0" IVar="-1" Cut="0.0000000000000000e+00" cType="1" res="-3.6509893834590912e-03" rms="3.4300616383552551e-01" purity="3.2854735851287842e-01" nType="-99"/>
        </Node>
        <Node pos="r" depth="1" NCoef="0" IVar="1" Cut="1.8637799072265625e+02" cType="1" res="-2.4527831003069878e-02" rms="3.3360430598258972e-01" purity="2.6995921134948730e-01" nType="0">
          <Node pos="l" depth="2" NCoef="0" IVar="-1" Cut="0.0000000000000000e+00" cType="1" res="4.8627439886331558e-02" rms="3.3404061198234558e-01" purity="3.1555640697479248e-01" nType="-99"/>
          <Node pos="r" depth="2" NCoef="0" IVar="-1" Cut="0.0000000000000000e+00" cType="1" res="-1.3217978179454803e-01" rms="3.2598537206649780e-01" purity="2.1434845030307770e-01" nType="-99"/>
        </Node>
      </Node>
    </BinaryTree>
    <BinaryTree type="DecisionTree" boostWeight="1.0000000000000000e+00" itree="38">
      <Node pos="s" depth="0" NCoef="0" IVar="4" Cut="-9.3225646018981934e-01" cType="0" res="-2.9936500359326601e-03" rms="3.4177523851394653e-01" purity="3.2393604516983032e-01" nType="0">
        <Node pos="l" depth="1" NCoef="0" IVar="1" Cut="1.7832185363769531e+02" cType="1" res="3.0393642373383045e-03" rms="3.3994516730308533e-01" purity="3.3035066723823547e-01" nType="0">
          <Node pos="l" depth="2" NCoef="0" IVar="-1" Cut="0.0000000000000000e+00" cType="1" res="4.4055812060832977e-02" rms="3.4117946028709412e-01" purity="3.5088902711868286e-01" nType="-99"/>
          <Node pos="r" depth="2" NCoef="0" IVar="-1" Cut="0.0000000000000000e+00" cType="1" res="-3.9073631167411804e-02" rms="3.3731767535209656e-01" purity="3.0311238765716553e-01" nType="-99"/>
        </Node>
        <Node pos="r" depth="1" NCoef="0" IVar="1" Cut="1.8008140563964844e+02" cType="0" res="-1.7288180068135262e-02" rms="3.4565263986587524e-01" purity="3.0873733758926392e-01" nType="0">
          <Node pos="l" depth="2" NCoef="0" IVar="-1" Cut="0.0000000000000000e+00" cType="1" res="4.1793487966060638e-02" rms="3.3399400115013123e-01" purity="3.5410952568054199e-01" nType="-99"/>
          <Node pos="r" depth="2" NCoef="0" IVar="-1" Cut="0.0000000000000000e+00" cType="1" res="-8.5382066667079926e-02" rms="3.5062590241432190e-01" purity="2.8250771760940552e-01" nType="-99"/>
        </Node>
      </Node>
    </BinaryTree>
    <BinaryTree type="DecisionTree" boostWeight="1.0000000000000000e+00" itree="39">
      <Node pos="s" depth="0" NCoef="0" IVar="1" Cut="1.5375115966796875e+02" cType="0" res="-1.9182016840204597e-03" rms="3.4093171358108521e-01" purity="3.2393604516983032e-01" nType="0">
        <Node pos="l" depth="1" NCoef="0" IVar="1" Cut="1.7710140991210938e+02" cType="1" res="4.2297570034861565e-03" rms="3.4915784001350403e-01" purity="3.6637315154075623e-01" nType="0">
          <Node pos="l" depth="2" NCoef="0" IVar="-1" Cut="0.0000000000000000e+00" cType="1" res="4.0991913527250290e-02" rms="3.6898598074913025e-01" purity="4.4644570350646973e-01" nType="-99"/>
          <Node pos="r" depth="2" NCoef="0" IVar="-1" Cut="0.0000000000000000e+00" cType="1" res="-8.5357390344142914e-03" rms="3.3655816316604614e-01" purity="3.1870204210281372e-01" nType="-99"/>
        </Node>
        <Node pos="r" depth="1" NCoef="0" IVar="2" Cut="7.7370613098144531e+01" cType="0" res="-1.5809727832674980e-02" rms="3.2113739848136902e-01" purity="2.2804795205593109e-01" nType="0">
          <Node pos="l" depth="2" NCoef="0" IVar="-1" Cut="0.0000000000000000e+00" cType="1" res="2.1768581867218018e-01" rms="3.4267374873161316e-01" purity="4.7865244746208191e-01" nType="-99"/>
          <Node pos="r" depth="2" NCoef="0" IVar="-1" Cut="0.0000000000000000e+00" cType="1" res="-6.0013052076101303e-02" rms="3.1755223870277405e-01" purity="2.0444217324256897e-01" nType="-99"/>
        </Node>
      </Node>
    </BinaryTree>
    <BinaryTree type="DecisionTree" boostWeight="1.0000000000000000e+00" itree="40">
      <Node pos="s" depth="0" NCoef="0" IVar="2" Cut="1.0339039611816406e+02" cType="1" res="-2.1838471293449402e-03" rms="3.4017604589462280e-01" purity="3.2393604516983032e-01" nType="0">
        <Node pos="l" depth="1" NCoef="0" IVar="2" Cut="9.9919227600097656e+01" cType="1" res="-4.9602510407567024e-03" rms="3.4226003289222717e-01" purity="3.2897391915321350e-01" nType="0">
          <Node pos="l" depth="2" NCoef="0" IVar="-1" Cut="0.0000000000000000e+00" cType="1" res="-5.9720529243350029e-03" rms="3.4166669845581055e-01" purity="3.3140331506729126e-01" nType="-99"/>
          <Node pos="r" depth="2" NCoef="0" IVar="-1" Cut="0.0000000000000000e+00" cType="1" res="-1.4428369700908661e-01" rms="3.5140374302864075e-01" purity="2.5102353096008301e-01" nType="-99"/>
        </Node>
        <Node pos="r" depth="1" NCoef="0" IVar="1" Cut="1.7684468078613281e+02" cType="1" res="1.3743561692535877e-02" rms="3.2751044631004333e-01" purity="2.9503521323204041e-01" nType="0">
          <Node pos="l" depth="2" NCoef="0" IVar="-1" Cut="0.0000000000000000e+00" cType="1" res="3.3376172184944153e-01" rms="3.5592943429946899e-01" purity="5.8008545637130737e-01" nType="-99"/>
          <Node pos="r" depth="2" NCoef="0" IVar="-1" Cut="0.0000000000000000e+00" cType="1" res="-1.0921590030193329e-02" rms="3.1871110200881958e-01" purity="2.4289593100547791e-01" nType="-99"/>
        </Node>
      </Node>
    </BinaryTree>
    <BinaryTree type="DecisionTree" boostWeight="1.0000000000000000e+00" itree="41">
      <Node pos="s" depth="0" NCoef="0" IVar="0" Cut="7.5075187683105469e+00" cType="0" res="-1.9637823570519686e-03" rms="3.3932146430015564e-01" purity="3.2393604516983032e-01" nType="0">
        <Node pos="l" depth="1" NCoef="0" IVar="4" Cut="-2.0145051479339600e+00" cType="0" res="-1.6742090519983321e-04" rms="3.4403085708618164e-01" purity="3.4258967638015747e-01" nType="0">
          <Node pos="l" depth="2" NCoef="0" IVar="-1" Cut="0.0000000000000000e+00" cType="1" res="-6.9117122329771519e-03" rms="3.4488591551780701e-01" purity="3.4482371807098389e-01" nType="-99"/>
          <Node pos="r" depth="2" NCoef="0" IVar="-1" Cut="0.0000000000000000e+00" cType="1" res="7.1064561605453491e-02" rms="3.3425310254096985e-01" purity="3.2046684622764587e-01" nType="-99"/>
        </Node>
        <Node pos="r" depth="1" NCoef="0" IVar="1" Cut="1.5800485229492188e+02" cType="0" res="-2.5061869993805885e-02" rms="2.7052518725395203e-01" purity="8.4082558751106262e-02" nType="0">
          <Node pos="l" depth="2" NCoef="0" IVar="-1" Cut="0.0000000000000000e+00" cType="1" res="5.6992113590240479e-02" rms="2.9933989048004150e-01" purity="1.2365641444921494e-01" nType="-99"/>
          <Node pos="r" depth="2" NCoef="0" IVar="-1" Cut="0.0000000000000000e+00" cType="1" res="-1.6143552958965302e-01" rms="2.3370604217052460e-01" purity="4.7694444656372070e-02" nType="-99"/>
        </Node>
      </Node>
    </BinaryTree>
    <BinaryTree type="DecisionTree" boostWeight="1.0000000000000000e+00" itree="42">
      <Node pos="s" depth="0" NCoef="0" IVar="4" Cut="-1.8115835189819336e+00" cType="0" res="-1.3873042771592736e-03" rms="3.3869391679763794e-01" purity="3.2393604516983032e-01" nType="0">
        <Node pos="l" depth="1" NCoef="0" IVar="3" Cut="6.1611914634704590e-01" cType="1" res="1.8379563698545098e-03" rms="3.3966240286827087e-01" purity="3.2976618409156799e-01" nType="0">
          <Node pos="l" depth="2" NCoef="0" IVar="-1" Cut="0.0000000000000000e+00" cType="1" res="3.4939743578433990e-02" rms="3.6594924330711365e-01" purity="4.3670919537544250e-01" nType="-99"/>
          <Node pos="r" depth="2" NCoef="0" IVar="-1" Cut="0.0000000000000000e+00" cType="1" res="-1.8284033983945847e-02" rms="3.1839102506637573e-01" purity="2.5021815299987793e-01" nType="-99"/>
        </Node>
        <Node pos="r" depth="1" NCoef="0" IVar="4" Cut="-2.0035130977630615e+00" cType="1" res="-2.3174816742539406e-02" rms="3.3125609159469604e-01" purity="2.8455194830894470e-01" nType="0">
          <Node pos="l" depth="2" NCoef="0" IVar="-1" Cut="0.0000000000000000e+00" cType="1" res="1.8377033993601799e-03" rms="3.2366645336151123e-01" purity="2.9116109013557434e-01" nType="-99"/>
          <Node pos="r" depth="2" NCoef="0" IVar="-1" Cut="0.0000000000000000e+00" cType="1" res="-1.9692705571651459e-01" rms="3.4324973821640015e-01" purity="2.6437878608703613e-01" nType="-99"/>
        </Node>
      </Node>
    </BinaryTree>
    <BinaryTree type="DecisionTree" boostWeight="1.0000000000000000e+00" itree="43">
      <Node pos="s" depth="0" NCoef="0" IVar="1" Cut="4.1788598632812500e+02" cType="1" res="-1.4741299673914909e-03" rms="3.3800119161605835e-01" purity="3.2393604516983032e-01" nType="0">
        <Node pos="l" depth="1" NCoef="0" IVar="1" Cut="3.3675378417968750e+02" cType="0" res="-8.5511966608464718e-04" rms="3.3833941817283630e-01" purity="3.2485991716384888e-01" nType="0">
          <Node pos="l" depth="2" NCoef="0" IVar="-1" Cut="0.0000000000000000e+00" cType="1" res="8.9665639400482178e-01" rms="3.3755612373352051e-01" purity="4.5453849434852600e-01" nType="-99"/>
          <Node pos="r" depth="2" NCoef="0" IVar="-1" Cut="0.0000000000000000e+00" cType="1" res="-4.6668373979628086e-03" rms="3.3813095092773438e-01" purity="3.2386147975921631e-01" nType="-99"/>
        </Node>
        <Node pos="r" depth="1" NCoef="0" IVar="-1" Cut="0.0000000000000000e+00" cType="1" res="-1.2740336358547211e-01" rms="2.8929045796394348e-01" purity="2.2021800279617310e-01" nType="-99"/>
      </Node>
    </BinaryTree>
    <BinaryTree type="DecisionTree" boostWeight="1.0000000000000000e+00" itree="44">
      <Node pos="s" depth="0" NCoef="0" IVar="1" Cut="2.7660458374023438e+02" cType="1" res="-1.4284487115219235e-03" rms="3.3762145042419434e-01" purity="3.2393604516983032e-01" nType="0">
        <Node pos="l" depth="1" NCoef="0" IVar="1" Cut="1.8124966430664062e+02" cType="0" res="9.2571170534938574e-04" rms="3.4029680490493774e-01" purity="3.3127963542938232e-01" nType="0">
          <Node pos="l" depth="2" NCoef="0" IVar="-1" Cut="0.0000000000000000e+00" cType="1" res="3.4762989729642868e-02" rms="3.3455181121826172e-01" purity="3.3478909730911255e-01" nType="-99"/>
          <Node pos="r" depth="2" NCoef="0" IVar="-1" Cut="0.0000000000000000e+00" cType="1" res="-1.4178257435560226e-02" rms="3.4303730726242065e-01" purity="3.2946401834487915e-01" nType="-99"/>
        </Node>
        <Node pos="r" depth="1" NCoef="0" IVar="0" Cut="4.7524505615234375e+01" cType="0" res="-3.8958195596933365e-02" rms="2.8909829258918762e-01" purity="2.0686544477939606e-01" nType="0">
          <Node pos="l" depth="2" NCoef="0" IVar="-1" Cut="0.0000000000000000e+00" cType="1" res="1.8990559875965118e-01" rms="3.5682675242424011e-01" purity="6.0217911005020142e-01" nType="-99"/>
          <Node pos="r" depth="2" NCoef="0" IVar="-1" Cut="0.0000000000000000e+00" cType="1" res="-1.4047020673751831e-01" rms="2.5823718309402466e-01" purity="8.5731238126754761e-02" nType="-99"/>
        </Node>
      </Node>
    </BinaryTree>
    <BinaryTree type="DecisionTree" boostWeight="1.0000000000000000e+00" itree="45">
      <Node pos="s" depth="0" NCoef="0" IVar="4" Cut="4.2055448889732361e-01" cType="1" res="-1.3035753509029746e-03" rms="3.3717322349548340e-01" purity="3.2393604516983032e-01" nType="0">
        <Node pos="l" depth="1" NCoef="0" IVar="1" Cut="1.9540719604492188e+02" cType="1" res="4.5719589106738567e-03" rms="3.4302079677581787e-01" purity="3.2932433485984802e-01" nType="0">
          <Node pos="l" depth="2" NCoef="0" IVar="-1" Cut="0.0000000000000000e+00" cType="1" res="3.9284288883209229e-02" rms="3.5046979784965515e-01" purity="3.5057064890861511e-01" nType="-99"/>
          <Node pos="r" depth="2" NCoef="0" IVar="-1" Cut="0.0000000000000000e+00" cType="1" res="-5.5168442428112030e-02" rms="3.1893712282180786e-01" purity="2.6878076791763306e-01" nType="-99"/>
        </Node>
        <Node pos="r" depth="1" NCoef="0" IVar="3" Cut="7.0390844345092773e-01" cType="1" res="-9.6601843833923340e-03" rms="3.2849621772766113e-01" purity="3.1627240777015686e-01" nType="0">
          <Node pos="l" depth="2" NCoef="0" IVar="-1" Cut="0.0000000000000000e+00" cType="1" res="-5.6852668523788452e-02" rms="3.4429454803466797e-01" purity="3.8024312257766724e-01" nType="-99"/>
          <Node pos="r" depth="2" NCoef="0" IVar="-1" Cut="0.0000000000000000e+00" cType="1" res="5.3136885166168213e-02" rms="2.9773557186126709e-01" purity="2.0751643180847168e-01" nType="-99"/>
        </Node>
      </Node>
    </BinaryTree>
    <BinaryTree type="DecisionTree" boostWeight="1.0000000000000000e+00" itree="46">
      <Node pos="s" depth="0" NCoef="0" IVar="3" Cut="8.2101863622665405e-01" cType="1" res="-1.1402842355892062e-03" rms="3.3624368906021118e-01" purity="3.2393604516983032e-01" nType="0">
        <Node pos="l" depth="1" NCoef="0" IVar="3" Cut="8.0701100826263428e-01" cType="0" res="2.0933528430759907e-03" rms="3.4940975904464722e-01" purity="3.6806672811508179e-01" nType="0">
          <Node pos="l" depth="2" NCoef="0" IVar="-1" Cut="0.0000000000000000e+00" cType="1" res="6.4614915847778320e-01" rms="3.3442357182502747e-01" purity="3.9933323860168457e-01" nType="-99"/>
          <Node pos="r" depth="2" NCoef="0" IVar="-1" Cut="0.0000000000000000e+00" cType="1" res="-5.0989887677133083e-04" rms="3.4921303391456604e-01" purity="3.6752703785896301e-01" nType="-99"/>
        </Node>
        <Node pos="r" depth="1" NCoef="0" IVar="0" Cut="4.5794570922851562e+01" cType="0" res="-1.4974897727370262e-02" rms="2.7239960432052612e-01" purity="1.3512970507144928e-01" nType="0">
          <Node pos="l" depth="2" NCoef="0" IVar="-1" Cut="0.0000000000000000e+00" cType="1" res="2.8168955445289612e-01" rms="3.4768688678741455e-01" purity="6.8069565296173096e-01" nType="-99"/>
          <Node pos="r" depth="2" NCoef="0" IVar="-1" Cut="0.0000000000000000e+00" cType="1" res="-6.7110836505889893e-02" rms="2.6194378733634949e-01" purity="8.0482952296733856e-02" nType="-99"/>
        </Node>
      </Node>
    </BinaryTree>
    <BinaryTree type="DecisionTree" boostWeight="1.0000000000000000e+00" itree="47">
      <Node pos="s" depth="0" NCoef="0" IVar="3" Cut="7.6461559534072876e-01" cType="1" res="-2.5341860018670559e-03" rms="3.3499765396118164e-01" purity="3.2393604516983032e-01" nType="0">
        <Node pos="l" depth="1" NCoef="0" IVar="0" Cut="4.8306205749511719e+01" cType="0" res="2.4805848952382803e-03" rms="3.5368376970291138e-01" purity="3.8736245036125183e-01" nType="0">
          <Node pos="l" depth="2" NCoef="0" IVar="-1" Cut="0.0000000000000000e+00" cType="1" res="-6.7634679377079010e-02" rms="3.4944930672645569e-01" purity="6.7541891336441040e-01" nType="-99"/>
          <Node pos="r" depth="2" NCoef="0" IVar="-1" Cut="0.0000000000000000e+00" cType="1" res="2.5842109695076942e-02" rms="3.5478320717811584e-01" purity="2.8101620078086853e-01" nType="-99"/>
        </Node>
        <Node pos="r" depth="1" NCoef="0" IVar="4" Cut="6.1754477024078369e-01" cType="0" res="-1.4691368676722050e-02" rms="2.8428366780281067e-01" purity="1.7017298936843872e-01" nType="0">
          <Node pos="l" depth="2" NCoef="0" IVar="-1" Cut="0.0000000000000000e+00" cType="1" res="1.0437134653329849e-01" rms="2.8134432435035706e-01" purity="1.9628255069255829e-01" nType="-99"/>
          <Node pos="r" depth="2" NCoef="0" IVar="-1" Cut="0.0000000000000000e+00" cType="1" res="-8.0943822860717773e-02" rms="2.8352946043014526e-01" purity="1.5963995456695557e-01" nType="-99"/>
        </Node>
      </Node>
    </BinaryTree>
    <BinaryTree type="DecisionTree" boostWeight="1.0000000000000000e+00" itree="48">
      <Node pos="s" depth="0" NCoef="0" IVar="0" Cut="3.8352390289306641e+01" cType="0" res="-9.2863984173163772e-04" rms="3.3383679389953613e-01" purity="3.2393604516983032e-01" nType="0">
        <Node pos="l" depth="1" NCoef="0" IVar="2" Cut="4.6342082977294922e+01" cType="0" res="1.2585610151290894e-02" rms="3.4898754954338074e-01" purity="6.5321546792984009e-01" nType="0">
          <Node pos="l" depth="2" NCoef="0" IVar="-1" Cut="0.0000000000000000e+00" cType="1" res="6.3435733318328857e-02" rms="3.4604853391647339e-01" purity="6.6260105371475220e-01" nType="-99"/>
          <Node pos="r" depth="2" NCoef="0" IVar="-1" Cut="0.0000000000000000e+00" cType="1" res="-1.0284766554832458e-01" rms="3.6293148994445801e-01" purity="5.9169262647628784e-01" nType="-99"/>
        </Node>
        <Node pos="r" depth="1" NCoef="0" IVar="0" Cut="3.7407794952392578e+01" cType="0" res="-6.8797850981354713e-03" rms="3.2676517963409424e-01" purity="1.7893432080745697e-01" nType="0">
          <Node pos="l" depth="2" NCoef="0" IVar="-1" Cut="0.0000000000000000e+00" cType="1" res="3.3477583527565002e-01" rms="4.3315359950065613e-01" purity="6.3924032449722290e-01" nType="-99"/>
          <Node pos="r" depth="2" NCoef="0" IVar="-1" Cut="0.0000000000000000e+00" cType="1" res="-1.9258478656411171e-02" rms="3.2504734396934509e-01" purity="1.7381705343723297e-01" nType="-99"/>
        </Node>
      </Node>
    </BinaryTree>
    <BinaryTree type="DecisionTree" boostWeight="1.0000000000000000e+00" itree="49">
      <Node pos="s" depth="0" NCoef="0" IVar="4" Cut="-2.2174267768859863e+00" cType="0" res="-2.5215274654328823e-03" rms="3.3340004086494446e-01" purity="3.2393604516983032e-01" nType="0">
        <Node pos="l" depth="1" NCoef="0" IVar="4" Cut="-2.1161518096923828e+00" cType="1" res="-7.7758164843544364e-04" rms="3.3455887436866760e-01" purity="3.2872566580772400e-01" nType="0">
          <Node pos="l" depth="2" NCoef="0" IVar="-1" Cut="0.0000000000000000e+00" cType="1" res="1.8350359201431274e+00" rms="3.1354615092277527e-01" purity="5.7276308536529541e-01" nType="-99"/>
          <Node pos="r" depth="2" NCoef="0" IVar="-1" Cut="0.0000000000000000e+00" cType="1" res="-5.3124334663152695e-03" rms="3.3430537581443787e-01" purity="3.2701337337493896e-01" nType="-99"/>
        </Node>
        <Node pos="r" depth="1" NCoef="0" IVar="4" Cut="-2.2863433361053467e+00" cType="1" res="-2.4057334288954735e-02" rms="3.1795528531074524e-01" purity="2.6478955149650574e-01" nType="0">
          <Node pos="l" depth="2" NCoef="0" IVar="-1" Cut="0.0000000000000000e+00" cType="1" res="-6.5588983707129955e-03" rms="2.9326048493385315e-01" purity="2.6814708113670349e-01" nType="-99"/>
          <Node pos="r" depth="2" NCoef="0" IVar="-1" Cut="0.0000000000000000e+00" cType="1" res="-2.8597477078437805e-01" rms="4.2823788523674011e-01" purity="2.4039556086063385e-01" nType="-99"/>
        </Node>
      </Node>
    </BinaryTree>
  </Weights>
</MethodSetup>
